num_rounds: 5
num_clients: 10
batch_size: 20
num_classes: 10
num_clients_per_round_fit: 3
num_clients_per_round_eval: 9
config_fit:
  lr: 0.01
  momentum: 0.9
  local_epochs: 1

Using custom strategy
[2023-11-22 12:38:06,746][flwr][INFO] - Starting Flower simulation, config: ServerConfig(num_rounds=5, round_timeout=None)
[2023-11-22 12:38:09,159][flwr][INFO] - Flower VCE: Ray initialized with resources: {'memory': 7621653300.0, 'node:127.0.0.1': 1.0, 'node:__internal_head__': 1.0, 'CPU': 8.0, 'object_store_memory': 2147483648.0}
[2023-11-22 12:38:09,159][flwr][INFO] - Flower VCE: Resources for each Virtual Client: {'num_cpus': 2, 'num_gpus': 0.0}
[2023-11-22 12:38:09,168][flwr][INFO] - Flower VCE: Creating VirtualClientEngineActorPool with 4 actors
[2023-11-22 12:38:09,168][flwr][INFO] - Initializing global parameters
[2023-11-22 12:38:09,168][flwr][INFO] - Requesting initial parameters from one random client
[2023-11-22 12:38:10,296][flwr][INFO] - Received initial parameters from one random client
[2023-11-22 12:38:10,296][flwr][INFO] - Evaluating initial parameters
[2023-11-22 12:38:11,094][flwr][INFO] - initial parameters (loss, other metrics): 182.28495717048645, {'accuracy': 0.1064}
[2023-11-22 12:38:11,094][flwr][INFO] - FL starting
[2023-11-22 12:38:11,094][flwr][DEBUG] - fit_round 1: strategy sampled 3 clients (out of 10)
[2023-11-22 12:38:14,296][flwr][DEBUG] - fit_round 1 received 3 results and 0 failures
aggregate fit
Aggregate Results: 
3
[([array([[[[ 0.0293089 ,  0.10180388,  0.10873453, -0.27518404,
          -0.3702294 ],
         [ 0.11747645,  0.29513222,  0.12124418, -0.1393359 ,
          -0.45929497],
         [-0.03156408,  0.19641082,  0.07419556, -0.02604194,
          -0.38471138],
         [ 0.05297339,  0.3825651 ,  0.41211575,  0.15654604,
          -0.11805116],
         [ 0.09148008,  0.17833632,  0.27250144,  0.28212863,
           0.2980763 ]]],


       [[[ 0.02115967, -0.03947365, -0.09621865, -0.13936327,
          -0.153226  ],
         [ 0.08927523,  0.15008703,  0.04218888, -0.13482514,
          -0.08491863],
         [ 0.07823293, -0.094473  ,  0.01576944, -0.07964913,
          -0.13874316],
         [ 0.11830856, -0.016248  ,  0.05122104, -0.20417328,
          -0.04232479],
         [ 0.20285803,  0.03563687, -0.0219063 , -0.07945371,
          -0.16672553]]],


       [[[ 0.16320634,  0.088815  ,  0.11484313, -0.07231115,
           0.3031949 ],
         [-0.08908591, -0.21551384,  0.00725676,  0.08997207,
           0.1381556 ],
         [-0.08864139, -0.13967027, -0.2650567 ,  0.2476153 ,
           0.26874545],
         [-0.05578099, -0.24439214, -0.11857434,  0.16835405,
           0.12040588],
         [-0.06051077, -0.2468958 ,  0.06768978,  0.19973972,
           0.10262121]]],


       [[[ 0.07510739,  0.01190819,  0.23038729,  0.09134196,
          -0.11333256],
         [-0.01242526, -0.06225844,  0.22203486,  0.29909533,
           0.25644296],
         [ 0.3431679 ,  0.31180358,  0.17687996, -0.08506776,
           0.20013285],
         [-0.04770238, -0.16421963, -0.08808844, -0.12792774,
           0.199641  ],
         [ 0.07066382, -0.04517289, -0.10229015, -0.25741407,
          -0.29189283]]],


       [[[-0.16328558, -0.07059611,  0.1777679 ,  0.0911245 ,
          -0.16397363],
         [-0.07422829,  0.12588322, -0.09046765,  0.06011909,
           0.10026661],
         [ 0.2535875 ,  0.34210217,  0.16536075,  0.09606037,
           0.18560888],
         [ 0.34866497,  0.17506337,  0.181603  , -0.22046284,
          -0.07341574],
         [ 0.0831146 ,  0.10359413, -0.22763391, -0.2263779 ,
          -0.04098836]]],


       [[[-0.0352946 , -0.03850264, -0.14059238, -0.16537385,
          -0.05348712],
         [ 0.16242893, -0.06804643, -0.06263433, -0.24145502,
           0.14507581],
         [-0.21357587, -0.19511333,  0.09972521, -0.19127463,
          -0.0141226 ],
         [ 0.1323817 , -0.20140193, -0.20364204, -0.15401877,
           0.22773355],
         [-0.1086273 , -0.08567359, -0.20208262,  0.14618997,
           0.22388949]]]], dtype=float32), array([0.21555477, 0.09872054, 0.04817058, 0.05818584, 0.00185902,
       0.13652606], dtype=float32), array([[[[-8.00101310e-02, -1.18915208e-01, -6.96735159e-02,
          -1.60171449e-01, -1.39724731e-01],
         [ 4.68597375e-02,  7.72541910e-02, -3.46189104e-02,
           7.58717433e-02,  2.61682570e-02],
         [ 1.39505506e-01,  1.03412054e-01, -2.24742498e-02,
           7.00467303e-02, -2.18282770e-02],
         [-6.51216283e-02, -3.15034129e-02,  8.25827345e-02,
          -2.38198638e-02, -1.72239710e-02],
         [-1.19023621e-01, -3.57103720e-02, -7.72926677e-03,
           2.09509511e-03,  1.28853125e-02]],

        [[-1.07164122e-02,  8.52735341e-03,  2.43652761e-02,
           4.35398519e-02,  2.47695148e-02],
         [-5.46284877e-02, -7.90002644e-02, -8.17235617e-04,
          -6.03316315e-02,  4.39226329e-02],
         [-3.63487937e-02,  1.82505716e-02,  3.94832641e-02,
          -6.58039227e-02, -6.66236430e-02],
         [-5.74417273e-03, -7.99451768e-02,  5.12560755e-02,
           3.94600406e-02, -2.46788301e-02],
         [ 5.72248884e-02, -3.22301127e-02,  2.30030087e-03,
           1.92903932e-02, -6.68419749e-02]],

        [[-1.35112956e-01, -7.02422932e-02, -5.45260869e-02,
          -1.03700615e-03,  4.09581959e-02],
         [-5.07000089e-02,  1.06910113e-04,  5.70897013e-02,
          -4.18453626e-02, -1.25114219e-02],
         [ 2.33923700e-02, -1.92863587e-03, -1.02242157e-01,
           2.28542238e-02, -8.31637308e-02],
         [ 3.64285186e-02,  9.70057696e-02,  1.07216530e-01,
           7.12155029e-02, -4.60929200e-02],
         [-7.69048110e-02,  7.43025541e-02,  3.63725312e-02,
           8.59385580e-02,  6.90869167e-02]],

        [[ 4.47308011e-02, -1.49737541e-02, -4.05175388e-02,
          -8.80785286e-02,  7.51685724e-02],
         [ 3.08685470e-02, -8.65650177e-02, -9.09366235e-02,
          -4.72878776e-02,  3.89897265e-02],
         [ 5.53732589e-02,  4.71105427e-03,  5.94299547e-02,
          -1.03450149e-01, -7.16221407e-02],
         [-3.23758082e-04,  1.13191210e-01, -3.44132185e-02,
           8.00361782e-02,  4.48701791e-02],
         [-9.21484157e-02, -6.33721501e-02,  4.97555248e-02,
          -4.34488580e-02,  5.93317784e-02]],

        [[ 1.12445816e-01,  2.12040320e-02, -1.08877659e-01,
          -4.12037373e-02, -1.52254878e-02],
         [ 3.03835869e-02, -5.26388660e-02, -1.07463613e-01,
          -8.00382271e-02, -8.98186117e-02],
         [ 2.67345496e-02,  8.73929262e-02,  9.74402577e-02,
           2.76717376e-02, -1.84500702e-02],
         [-2.07858402e-02,  2.43985597e-02, -4.23058160e-02,
          -2.52536386e-02, -1.19480416e-02],
         [-7.50520155e-02, -4.16894555e-02, -2.63045784e-02,
          -5.87085150e-02, -4.15685028e-02]],

        [[-8.37162137e-02, -3.24495658e-02,  1.51124671e-02,
          -2.63952222e-02, -7.29596019e-02],
         [-8.42339247e-02,  4.28772345e-02,  8.43843445e-02,
           1.63392778e-02, -5.14819399e-02],
         [ 2.45891698e-02, -4.80631068e-02, -6.71970695e-02,
          -4.62156534e-02, -9.15185455e-03],
         [ 1.00516155e-02, -4.00311463e-02,  5.94538897e-02,
          -8.72850642e-02, -1.08042080e-03],
         [ 2.27781758e-02,  7.72222504e-02,  6.85289204e-02,
           4.95036319e-02,  6.41074255e-02]]],


       [[[-3.53852883e-02, -1.13462145e-02,  5.16992211e-02,
           2.87048146e-02,  5.12823509e-03],
         [-1.81804057e-02,  6.64788857e-02,  5.16289622e-02,
           1.62293851e-01,  1.39466465e-01],
         [-8.46210420e-02, -3.65962349e-02,  1.85991277e-03,
          -1.77980326e-02,  5.04046381e-02],
         [-1.85853094e-02, -1.39987901e-01, -1.56178355e-01,
          -1.36556223e-01, -1.60274655e-01],
         [-3.15992124e-02, -2.78543821e-03, -8.26229230e-02,
          -1.45555243e-01, -1.96898952e-02]],

        [[-1.20236389e-02, -1.65513307e-02, -2.91991681e-02,
          -1.24629438e-02,  5.00536822e-02],
         [-5.35272807e-02, -5.14406301e-02, -6.74521327e-02,
          -2.71588638e-02,  6.92717284e-02],
         [-6.43716231e-02, -3.14051211e-02, -6.23794384e-02,
           4.60173823e-02, -1.70273762e-02],
         [-3.30306813e-02,  6.90986291e-02,  3.18829864e-02,
          -8.47648904e-02,  2.08658334e-02],
         [ 1.20661757e-03,  7.24399090e-02, -2.24741846e-02,
           7.91624412e-02, -1.95852630e-02]],

        [[-5.20297699e-02,  1.31168328e-02,  6.72924973e-04,
           6.26827255e-02, -5.15562333e-02],
         [-2.60992683e-02,  6.18717745e-02,  2.14123409e-02,
           7.37279207e-02, -7.68542141e-02],
         [ 4.57855165e-02,  5.24282344e-02, -8.28406736e-02,
           7.13606412e-03,  7.12608770e-02],
         [-1.83410663e-02, -1.04530804e-01,  5.35292886e-02,
           6.58735409e-02, -5.03068008e-02],
         [-8.06675553e-02,  2.74433065e-02, -5.60167655e-02,
           3.81888151e-02, -2.27997042e-02]],

        [[ 7.09604621e-02, -6.04801252e-02,  6.29134476e-02,
          -6.08427860e-02,  7.93536454e-02],
         [ 7.97319114e-02, -2.67561637e-02,  6.41885400e-02,
           6.62693456e-02,  5.15397228e-02],
         [-3.61832641e-02,  3.36774178e-02,  1.12098970e-01,
           1.03356823e-01,  8.92862156e-02],
         [-6.19481280e-02, -1.81599874e-02,  1.78928822e-02,
          -4.60347533e-02, -2.42928900e-02],
         [-3.74132432e-02,  8.50783009e-03, -1.18177220e-01,
          -1.28134042e-01, -8.68865252e-02]],

        [[ 3.30628343e-02, -4.23637889e-02,  2.25201584e-02,
           1.01863280e-01,  7.68436864e-02],
         [ 2.33440623e-02,  5.16823865e-03,  1.03747420e-01,
           5.61891086e-02, -5.96720651e-02],
         [ 7.91524071e-03,  6.72753230e-02, -5.37757128e-02,
           1.45006608e-02,  3.96988839e-02],
         [ 5.93559891e-02, -1.08762182e-01, -7.88638219e-02,
          -9.01125148e-02, -1.05085507e-01],
         [-3.13795693e-02,  9.89520340e-04, -7.78589174e-02,
          -9.29415319e-03,  2.35897638e-02]],

        [[-4.25756648e-02, -2.82714013e-02,  8.37656185e-02,
           4.16748710e-02, -3.52947339e-02],
         [-3.62221487e-02, -9.60958377e-03, -8.77937078e-02,
           5.11670951e-03, -7.45235085e-02],
         [-4.82329465e-02,  6.86521381e-02,  9.49012674e-03,
          -2.44260244e-02,  1.27226254e-02],
         [ 3.49011868e-02,  1.16433809e-02, -6.64758682e-02,
          -2.69394647e-02, -4.56824414e-02],
         [-1.91686340e-02,  7.60406181e-02,  6.49984628e-02,
           3.76590788e-02, -4.17077765e-02]]],


       [[[-2.31540157e-03, -1.32552594e-01, -2.05834433e-01,
          -1.78190649e-01, -2.57312387e-01],
         [ 9.54911560e-02, -1.53425545e-01, -2.60585248e-01,
          -3.89099754e-02, -5.68118617e-02],
         [ 1.12678625e-01, -6.50899261e-02, -1.70694739e-01,
          -1.37355307e-03, -6.11472083e-03],
         [ 9.23945531e-02,  3.58258374e-02,  1.09427311e-01,
           6.49260357e-02,  6.93388060e-02],
         [ 1.33662254e-01,  5.39996326e-02,  1.81814164e-01,
           2.06243485e-01,  9.03494582e-02]],

        [[-6.64251745e-02, -6.56808317e-02, -3.69491540e-02,
          -7.37857493e-03,  8.25489834e-02],
         [ 1.01275213e-01,  9.97963697e-02,  4.08948166e-03,
           7.68942684e-02,  8.72976184e-02],
         [ 7.51850978e-02,  6.82289749e-02, -2.99997628e-02,
           7.85232633e-02, -3.80663984e-02],
         [ 5.73921539e-02, -7.02396035e-02, -8.52626339e-02,
          -1.68164372e-02, -5.42153157e-02],
         [-6.87561408e-02, -1.94692612e-02,  4.78547588e-02,
           2.67011635e-02,  6.33765757e-02]],

        [[-5.00012981e-03,  5.58633804e-02,  5.55406474e-02,
          -5.40035255e-02, -9.23563838e-02],
         [-9.79100168e-02, -7.38634393e-02,  7.28634596e-02,
           6.04777224e-03,  3.30984294e-02],
         [-1.35491505e-01,  7.73294866e-02, -3.44482437e-02,
           5.91190485e-03,  6.41900450e-02],
         [-1.01386257e-01,  8.37109685e-02,  2.23643295e-02,
           1.66230947e-02,  2.19216850e-02],
         [ 2.64980271e-02,  1.46094216e-02, -6.06926158e-02,
          -5.74849993e-02, -6.36556521e-02]],

        [[ 3.00764795e-02, -2.92464066e-02, -1.16761416e-01,
          -1.33423120e-01, -5.49818240e-02],
         [-1.11566976e-01, -1.79606583e-02, -1.02088615e-01,
           4.52929502e-03, -6.90826625e-02],
         [-6.41597882e-02, -1.15002401e-01, -4.77933735e-02,
          -5.59316725e-02, -1.27690628e-01],
         [-6.89239651e-02, -1.44182831e-01, -6.04360700e-02,
          -8.35398212e-02, -1.01765439e-01],
         [ 3.74735184e-02,  6.74738130e-03, -5.29297488e-03,
           3.61277498e-02, -2.44717288e-04]],

        [[ 9.76340249e-02,  3.91988717e-02, -1.67366400e-01,
          -8.09706971e-02, -5.29745109e-02],
         [-3.73587944e-02, -1.71100360e-03, -1.42571151e-01,
          -9.55701843e-02, -4.97228540e-02],
         [-2.65253661e-03, -8.77605900e-02, -8.00801590e-02,
          -1.05246818e-02, -7.49173164e-02],
         [ 3.11306529e-02,  1.25858430e-02, -1.04779065e-01,
           5.42945899e-02,  3.75459567e-02],
         [-3.51427346e-02,  4.53413650e-02,  5.86482882e-02,
           1.49936363e-01,  3.85368690e-02]],

        [[-1.08198319e-02,  1.47135369e-02, -4.71865479e-03,
           5.06923161e-02, -3.02804653e-02],
         [ 2.74288259e-03,  8.76033679e-02, -4.08457071e-02,
           4.10198756e-02,  6.40372559e-02],
         [-4.19068113e-02, -1.04027828e-02,  6.84421277e-03,
          -4.16022800e-02,  8.24900642e-02],
         [-8.54941458e-02,  7.15436786e-02,  3.60593721e-02,
          -5.25303595e-02,  6.41377792e-02],
         [-6.53829202e-02, -2.12736223e-02, -1.01703620e-02,
          -7.04688206e-02, -2.51245294e-02]]],


       ...,


       [[[ 3.89948748e-02,  2.43548602e-02, -3.22834332e-03,
           9.48569737e-03, -1.37442350e-01],
         [-1.92806683e-02,  7.75447041e-02,  1.81645732e-02,
          -9.89561453e-02,  9.44019631e-02],
         [-2.06918959e-02,  2.68278643e-02, -1.95720360e-01,
          -1.63235635e-01,  1.04677550e-01],
         [-1.06518283e-01, -6.81713521e-02, -1.84580833e-01,
          -2.50903144e-02,  3.03296763e-02],
         [ 1.70871876e-02, -1.12239458e-01, -2.79057324e-02,
           3.93969826e-02,  9.45535228e-02]],

        [[-3.63608599e-02,  2.06622407e-02, -1.78911835e-02,
          -5.93741313e-02, -2.27777660e-02],
         [-1.85452215e-02,  6.25835313e-03, -1.81826092e-02,
           4.76981066e-02,  9.39453542e-02],
         [ 6.90042377e-02,  7.09977075e-02, -4.66655940e-02,
           6.90560415e-02,  8.11429024e-02],
         [-3.76301743e-02,  1.02265039e-02, -3.06665190e-02,
           4.39849868e-02, -7.17081130e-02],
         [ 3.58132198e-02, -7.24708289e-02, -5.96216787e-03,
          -5.06356470e-02, -7.86164775e-03]],

        [[ 1.18803540e-02, -8.78969487e-03,  3.21077183e-02,
           4.10773642e-02,  5.69823273e-02],
         [ 9.10992771e-02, -3.97925116e-02,  1.11896358e-02,
          -9.74149071e-03,  4.75863628e-02],
         [-9.34784394e-03, -9.99203883e-03,  4.23273407e-02,
          -2.15395913e-02,  4.23348807e-02],
         [ 3.63996923e-02, -4.08613496e-02, -1.67620194e-03,
           1.46668270e-01,  2.40657944e-02],
         [-9.45666060e-02,  3.39814723e-02,  1.01039968e-01,
           7.25331381e-02, -1.29831344e-01]],

        [[-5.08991778e-02, -7.75172710e-02,  1.70959663e-02,
           5.61650433e-02,  9.61136166e-03],
         [ 5.34063727e-02,  1.85466986e-02, -4.53156456e-02,
          -9.39387232e-02, -1.03776820e-01],
         [-1.60003472e-02, -4.39765304e-02, -7.59728719e-03,
          -1.25840545e-01, -8.60989746e-03],
         [ 9.79599776e-04,  2.68651061e-02, -1.48377180e-01,
          -1.20817266e-01,  2.38867328e-02],
         [-9.85056236e-02, -9.86011326e-02, -3.81767973e-02,
           6.77424297e-02,  8.18785280e-02]],

        [[-3.70676070e-02,  3.45741473e-02,  7.02775493e-02,
          -1.95454489e-02, -7.27417842e-02],
         [-4.84643206e-02,  2.57264525e-02, -7.13644847e-02,
           9.82767064e-03, -2.42627435e-03],
         [ 3.79995778e-02,  4.56069559e-02,  1.44324712e-02,
          -1.58988595e-01, -6.16802163e-02],
         [ 7.49461651e-02, -8.14174116e-02, -5.53094931e-02,
          -1.41108289e-01,  3.43292356e-02],
         [-5.54045066e-02, -4.66093840e-03, -3.79234813e-02,
           8.75898376e-02,  1.67663723e-01]],

        [[-3.72023694e-02,  7.75528699e-03,  1.39618535e-02,
          -1.12658525e-02,  1.81142241e-02],
         [ 3.57504003e-02, -7.92951062e-02, -5.82463406e-02,
          -2.43389569e-02, -1.36082331e-02],
         [ 3.25086936e-02, -5.39809205e-02,  6.59716278e-02,
           2.35162117e-02, -7.90625811e-02],
         [-3.56669761e-02, -5.28131723e-02,  8.35513622e-02,
           9.88879353e-02, -9.78395529e-03],
         [ 4.68535647e-02,  1.03597842e-01,  7.99483284e-02,
          -1.04686189e-02, -6.55831546e-02]]],


       [[[-2.39394251e-02, -9.15318429e-02,  7.11350217e-02,
           7.08598867e-02,  1.35759087e-02],
         [ 6.44951165e-02,  4.79895100e-02,  1.07598484e-01,
           1.22734338e-01,  1.48859113e-01],
         [-4.57463830e-05,  9.09343511e-02,  9.55867022e-02,
           3.87284011e-02, -6.18514642e-02],
         [ 1.87850017e-02, -3.53643522e-02, -1.34723932e-01,
          -1.39990717e-01, -2.11224258e-01],
         [-3.26937363e-02, -8.30873773e-02, -1.10424936e-01,
          -4.06050831e-02, -4.62058112e-02]],

        [[-2.72380486e-02, -2.61819325e-02, -1.01582110e-02,
           1.05598383e-02, -3.75615992e-02],
         [ 6.66617230e-03,  1.34808663e-02,  1.90377119e-03,
          -6.45474792e-02, -1.32475328e-02],
         [ 2.45829336e-02, -8.42496927e-04, -8.45313445e-02,
           5.25911897e-02, -6.89074844e-02],
         [-4.12166677e-03, -8.96628201e-02, -5.78782847e-03,
          -1.45322317e-02,  3.38351242e-02],
         [-5.89934811e-02, -5.83684966e-02, -1.31936837e-02,
           3.47935520e-02, -4.55876403e-02]],

        [[ 1.67816840e-02,  4.57699373e-02,  5.31671867e-02,
          -1.44438166e-02, -2.46845726e-02],
         [ 4.74140458e-02, -3.61760557e-02,  5.27881412e-03,
          -9.49996524e-03,  5.35042770e-02],
         [-5.06099388e-02, -1.48873460e-02, -8.24170560e-02,
          -9.94639006e-03,  3.37523930e-02],
         [ 5.68188354e-02, -3.43377143e-02, -2.51834467e-02,
           5.58626465e-02, -6.14650771e-02],
         [-4.75735478e-02,  4.75384705e-02, -7.06775039e-02,
          -4.66119274e-02, -9.60546434e-02]],

        [[ 7.92339072e-02,  6.59505725e-02, -5.62475547e-02,
          -9.34787095e-02, -5.85887730e-02],
         [-7.36406669e-02, -1.07660189e-01,  2.99194939e-02,
           5.39238984e-03,  7.28279129e-02],
         [ 9.82081369e-02, -5.97385829e-03,  1.67854071e-01,
           2.41195783e-02,  5.61828464e-02],
         [ 1.47154957e-01,  7.51393288e-02,  1.45862609e-01,
           3.52465659e-02, -4.28561457e-02],
         [ 9.04588960e-03, -8.46745148e-02, -1.14456818e-01,
          -5.78293018e-02, -1.63929656e-01]],

        [[ 4.76405816e-03,  5.53843305e-02, -1.41746625e-01,
           7.27357045e-02,  8.03603530e-02],
         [ 8.22121184e-03, -1.04071386e-01,  1.54092349e-02,
           3.69039029e-02,  1.76691189e-02],
         [-1.25599811e-02,  8.05705190e-02,  1.60982817e-01,
           1.53284132e-01,  9.18114036e-02],
         [ 5.92681430e-02,  5.27648702e-02, -1.92522965e-02,
           2.93016881e-02, -6.29762560e-02],
         [-2.18050573e-02, -7.13708699e-02, -4.31597931e-03,
          -4.59035635e-02, -1.43590197e-01]],

        [[-9.86993983e-02,  6.84102327e-02,  2.05768887e-02,
          -3.55736874e-02,  3.70843746e-02],
         [ 5.74706458e-02,  8.93352702e-02, -6.03572056e-02,
           3.10040247e-02, -7.66955093e-02],
         [-8.42688158e-02,  6.59099370e-02,  1.94159150e-02,
           3.13927084e-02,  8.87082331e-03],
         [-9.48299617e-02,  2.03355551e-02,  1.75241753e-02,
          -6.60083443e-02,  8.41847155e-04],
         [ 4.74916697e-02, -6.48685917e-02, -2.40388364e-02,
           8.57149735e-02, -4.10872884e-03]]],


       [[[ 7.75901079e-02, -1.63879953e-02, -7.47793093e-02,
          -6.27883598e-02,  4.52919444e-03],
         [-6.04167581e-02, -7.26137161e-02, -2.00221300e-01,
           5.33076636e-02,  3.58338803e-02],
         [-8.48936066e-02, -2.12116480e-01, -1.05673261e-01,
           9.46007892e-02, -1.24575878e-02],
         [ 4.93209157e-03,  1.81381609e-02,  4.85231392e-02,
           1.36510670e-01, -9.88620669e-02],
         [ 5.99704087e-02,  6.89063072e-02, -6.48319861e-03,
          -3.10640093e-02, -8.03011507e-02]],

        [[ 7.44722858e-02,  8.54443237e-02,  4.70593311e-02,
           1.09759811e-02, -8.68228672e-04],
         [ 4.98198494e-02, -3.67853530e-02, -1.45748695e-02,
          -6.75143152e-02,  1.07899085e-01],
         [ 2.09130161e-02, -3.75530869e-02, -6.32000044e-02,
           4.18941602e-02, -9.54669435e-03],
         [ 3.66649926e-02, -3.09690256e-02, -4.09856401e-02,
           1.42418779e-02,  1.32137639e-02],
         [-6.18579313e-02,  6.01244904e-02, -5.79481088e-02,
          -4.60275747e-02, -2.10973769e-02]],

        [[-8.12168494e-02,  1.03745311e-02, -6.28340570e-03,
           1.05654627e-01,  5.83959557e-02],
         [-1.52639057e-02,  1.93885658e-02,  1.41768917e-01,
          -5.93910255e-02, -2.28602085e-02],
         [-8.43714178e-02,  1.18534930e-01,  1.61859199e-01,
          -7.20943660e-02,  1.16135497e-02],
         [ 4.04713443e-03,  1.37850016e-01,  3.27183530e-02,
           1.36049353e-02,  1.25253794e-03],
         [-1.55079011e-02, -3.55168283e-02, -6.82391301e-02,
           1.67524200e-02, -6.65984824e-02]],

        [[ 3.42030101e-03, -4.05620923e-03, -1.27331376e-01,
          -1.06047317e-02, -2.68861167e-02],
         [ 2.57942993e-02, -1.07372127e-01, -5.04446924e-02,
          -4.05709669e-02,  1.20650686e-01],
         [-5.11321910e-02, -4.03106660e-02, -3.29284146e-02,
          -2.89437249e-02,  1.19643696e-02],
         [-5.36910333e-02, -1.23234689e-01, -1.26948049e-02,
          -7.36733228e-02, -1.89971563e-03],
         [-9.28261504e-02,  5.85897714e-02,  3.23859490e-02,
           2.20803078e-02, -9.38738883e-02]],

        [[ 1.13427676e-01, -8.47825259e-02, -8.43917355e-02,
          -6.23602457e-02,  8.67393240e-02],
         [-1.07599646e-02, -8.54400545e-02, -6.89626783e-02,
           9.65544879e-02,  1.04662150e-01],
         [-4.22531888e-02, -6.28826469e-02,  5.79139516e-02,
           1.26947358e-01, -3.75838834e-03],
         [-4.16086540e-02, -1.08220488e-01, -3.54935601e-02,
          -3.16113643e-02, -8.54761302e-02],
         [ 5.45488894e-02,  4.46798429e-02, -3.73334112e-03,
           4.11550067e-02, -1.37923032e-01]],

        [[-5.54889254e-02,  5.69011569e-02,  4.90046963e-02,
           8.25237297e-03, -7.20916539e-02],
         [-1.54532690e-03, -2.48307101e-02,  7.46824592e-02,
          -3.62035371e-02, -7.31294835e-03],
         [ 5.76513261e-02,  6.73549920e-02,  2.08815257e-03,
          -6.23262394e-03, -2.28608716e-02],
         [ 2.95537189e-02,  2.36369967e-02,  1.89960822e-02,
           2.55264528e-02, -1.13825509e-02],
         [-5.18109463e-02, -5.96951768e-02, -6.57161325e-02,
          -4.41015065e-02,  5.56629002e-02]]]], dtype=float32), array([ 0.01716349, -0.04517891, -0.03539126, -0.08027172,  0.00743912,
       -0.05743647, -0.0289148 , -0.04737989, -0.06792735, -0.09307134,
        0.03511889, -0.04436339, -0.10877929, -0.06580794, -0.03119493,
       -0.05302784], dtype=float32), array([[-0.0459316 , -0.0266223 ,  0.0106995 , ...,  0.03689882,
         0.06525829,  0.04559837],
       [-0.02264463, -0.00552432,  0.04914628, ...,  0.02601365,
        -0.00101799,  0.00561334],
       [-0.04997595, -0.0574672 , -0.07570087, ..., -0.01395939,
         0.06227499, -0.02804592],
       ...,
       [ 0.0617466 ,  0.0622138 ,  0.0459383 , ...,  0.0070406 ,
         0.05210234,  0.04978086],
       [ 0.041074  , -0.02283994, -0.01881008, ...,  0.01240125,
         0.00992527,  0.04851068],
       [ 0.06259407,  0.06342545, -0.00974333, ...,  0.05641746,
         0.04444951, -0.04407656]], dtype=float32), array([ 2.3817485e-02,  8.1566228e-03,  3.7478123e-02, -4.8839737e-02,
       -1.3443253e-02,  1.6708823e-02,  3.7630018e-02, -4.6864435e-02,
       -9.9366531e-03, -2.2479368e-02, -1.3276383e-02,  2.8353132e-02,
        1.7053198e-02,  1.2777022e-02,  3.7670322e-02,  5.6383245e-02,
       -3.5144929e-02,  1.1563249e-02, -4.1474123e-02,  3.0491961e-02,
       -1.2947539e-02,  3.3320200e-02,  5.9289280e-02,  1.1185753e-03,
        4.8991531e-04,  4.9611237e-02,  3.9960545e-02,  1.6348740e-02,
        2.8175170e-02,  1.4387926e-03,  6.9477265e-03, -6.0504694e-03,
       -9.0304669e-03,  7.3627860e-04, -3.0894704e-02,  2.7863640e-02,
       -1.7502015e-02, -3.2080319e-02,  5.9106521e-02, -4.1233961e-02,
        9.2273084e-03, -3.8023427e-02, -5.1147405e-02,  4.3551498e-03,
        4.1213874e-02, -3.2534171e-02, -3.6154818e-02,  6.7959498e-03,
        6.4892106e-02,  5.1472526e-02,  1.3191323e-02,  1.9960485e-02,
       -3.8920289e-03,  4.7676452e-02, -8.6978003e-03, -1.6737456e-02,
       -2.3360725e-02, -5.7284802e-02, -9.8469099e-03, -6.8431725e-03,
        3.9036978e-02, -3.0978484e-02, -3.3060284e-03, -1.2257801e-02,
       -1.5929552e-02,  6.0225382e-02,  1.8642774e-02,  1.1594694e-02,
       -6.3280568e-02, -3.5885092e-02, -6.2243290e-02,  5.8043960e-02,
        1.8531043e-02,  2.5404381e-02, -1.6738188e-02, -4.6276059e-02,
        8.7121865e-03,  3.2008097e-02,  3.2112792e-02, -5.9014685e-02,
       -1.8558431e-02,  4.8064131e-02, -3.8332779e-02,  8.8001601e-03,
        3.4455184e-02, -2.3884766e-02, -2.2356154e-02, -4.0216584e-02,
       -4.0599953e-02, -1.8395199e-02, -3.0130951e-02,  4.8783381e-02,
       -1.1550333e-02, -2.1409361e-02,  5.5557713e-02, -6.1666634e-02,
       -6.6974042e-03,  4.2569738e-02, -6.1534163e-02, -3.8583374e-05,
       -4.6277273e-02, -1.5239812e-02, -5.0152536e-02,  3.3510167e-02,
        4.9204417e-02,  3.2435175e-02,  4.6516065e-02,  1.8939685e-02,
       -2.4418633e-02,  1.6935386e-02,  5.0114229e-02,  6.4176597e-02,
        3.5223413e-02,  1.7964557e-02, -4.4787407e-02,  4.5130491e-02,
        6.1624646e-02,  1.7031195e-02,  4.8656799e-02, -9.2665153e-03],
      dtype=float32), array([[-0.08750764, -0.03047487,  0.01767944, ..., -0.04887396,
         0.05538851,  0.07821158],
       [-0.10675377,  0.03601316,  0.149463  , ..., -0.00655855,
        -0.04108634, -0.07161469],
       [-0.00395257,  0.04908793, -0.12234634, ...,  0.08476505,
         0.0007834 ,  0.01336808],
       ...,
       [-0.09777005,  0.01317401,  0.09430818, ...,  0.10373265,
        -0.08083665,  0.0031458 ],
       [-0.0529244 ,  0.0316264 , -0.02392025, ..., -0.06271676,
        -0.05097401,  0.03191631],
       [-0.00894951, -0.0756072 , -0.07876518, ..., -0.03728645,
         0.01641021, -0.03489521]], dtype=float32), array([ 0.09584994,  0.04221774,  0.02197973,  0.10807192, -0.01326732,
       -0.04707115,  0.07758943,  0.01106538,  0.04388265, -0.0500394 ,
       -0.03284005, -0.02207511,  0.03276344,  0.00060676,  0.04169812,
        0.06819626, -0.02693619,  0.06280502,  0.03497082,  0.09775006,
       -0.0546229 , -0.00091137, -0.01644734,  0.07252376, -0.05107398,
       -0.00445145, -0.03229877,  0.02017279, -0.0244888 , -0.06573695,
        0.07403111, -0.04818093,  0.09956533, -0.06896365, -0.01986294,
       -0.05550965,  0.07054106, -0.071799  , -0.00063593,  0.07364186,
       -0.05745496,  0.00062981, -0.01316587,  0.07712574, -0.02971458,
       -0.07673817,  0.09481185, -0.03428107, -0.06049798,  0.11344615,
        0.08433723,  0.07482652, -0.05049867,  0.02912336, -0.07059287,
        0.06884165, -0.00427522,  0.02291008, -0.02488894,  0.00647402,
       -0.06391235,  0.04777909, -0.07314117,  0.03864034, -0.0192    ,
       -0.0693728 , -0.02853787,  0.09479286,  0.08156419, -0.06597809,
       -0.00361255,  0.08046584, -0.03041236,  0.10816417, -0.08961792,
        0.12044966, -0.00022241,  0.05925147,  0.06056222,  0.09070114,
       -0.06938107,  0.08376967,  0.03038895,  0.04949407], dtype=float32), array([[ 2.16809481e-01,  3.45905684e-02, -1.52836755e-01,
        -1.64413065e-01,  5.04655913e-02, -6.46167025e-02,
         2.23169237e-01, -1.68839619e-01, -1.18906446e-01,
         8.37679207e-03,  1.38034269e-01,  1.48862630e-01,
         1.79774668e-02, -1.46636739e-01, -1.72577232e-01,
         5.06185442e-02,  8.99179280e-02, -1.84422016e-01,
        -7.78793842e-02, -2.32270315e-01, -6.64618760e-02,
        -2.90598180e-02, -1.57840937e-01,  8.63941908e-02,
        -1.58064544e-01,  8.69953856e-02,  5.79610430e-02,
         6.52839392e-02, -1.03599869e-01,  3.05875480e-01,
        -5.14380857e-02, -1.08892910e-01, -5.65931499e-02,
        -1.17032370e-02,  3.09456792e-02, -1.79581285e-01,
        -7.23221600e-02, -7.57940114e-02, -1.54518276e-01,
         2.73492187e-01, -4.88555618e-02,  1.05445318e-01,
         1.63917039e-02, -6.56379610e-02, -4.01468687e-02,
        -9.63988975e-02,  1.39145821e-01, -7.44684711e-02,
         4.16870899e-02, -2.22164974e-01, -7.25372136e-02,
        -9.22604799e-02,  8.31684545e-02, -1.20361872e-01,
        -4.78990227e-02, -5.70923984e-02,  1.54006064e-01,
         1.18338257e-01, -5.72153963e-02, -1.46936834e-01,
         3.11477594e-02, -1.16790868e-02,  1.56054676e-01,
        -6.26265332e-02,  3.77327241e-02, -9.19442326e-02,
        -1.40912846e-01, -9.10882726e-02,  1.76195741e-01,
        -3.76369455e-03,  6.62762076e-02,  8.37843679e-03,
         1.63754541e-02, -8.51620063e-02, -9.88715738e-02,
        -1.55450299e-01,  6.94636330e-02, -2.25683171e-02,
         1.45242944e-01,  2.12246954e-01, -8.04132298e-02,
         1.35108635e-01, -6.41500056e-02,  9.75905731e-03],
       [ 1.03313968e-01, -1.55127630e-01,  1.21469330e-02,
        -1.14554539e-01,  3.50355431e-02,  8.58297274e-02,
        -1.20231651e-01,  1.98514447e-01, -9.01190117e-02,
        -4.01540548e-02, -4.09308402e-03, -2.04599619e-01,
         1.59957767e-01, -6.37509227e-02,  8.50472897e-02,
        -8.65089297e-02, -1.70943756e-02, -1.08684696e-01,
         1.25675171e-04,  1.54342607e-01, -3.05647533e-02,
         1.32517815e-01, -1.88533843e-01,  1.22195901e-02,
         1.41892433e-01,  7.11929575e-02,  1.15686111e-01,
         1.12351872e-01,  5.27475551e-02, -1.58606574e-01,
        -3.29567716e-02, -4.22201715e-02, -5.48814721e-02,
         1.84322167e-02,  8.31904188e-02,  5.03621176e-02,
        -3.47605422e-02, -8.75010341e-02,  5.43051250e-02,
        -1.61544025e-01,  1.07478304e-02,  5.30408919e-02,
        -1.62277147e-01,  1.59495641e-02, -1.52804442e-02,
        -3.54844391e-01,  2.06338540e-02,  5.75468242e-02,
        -6.70186710e-04,  2.23920777e-01,  3.06907892e-01,
        -7.24196583e-02, -9.25707147e-02,  2.04614758e-01,
         1.30884066e-01,  8.59132037e-02, -2.04692662e-01,
         9.24538150e-02, -1.00444593e-02,  1.53108537e-01,
        -1.13428690e-01,  7.00388923e-02, -2.82088481e-02,
         1.27944956e-02, -6.49633643e-04, -1.95052009e-02,
        -1.24107502e-01,  5.92767447e-02, -1.27332389e-01,
        -3.34609076e-02,  3.84118073e-02,  2.32383907e-02,
        -5.63670509e-02,  2.41719142e-01, -1.48097584e-02,
         2.68969350e-02, -1.16728656e-02, -9.27420408e-02,
        -1.79265857e-01, -9.62305814e-02,  7.89277330e-02,
        -1.77323610e-01,  1.09393494e-02, -8.21818262e-02],
       [ 1.39900446e-01, -1.04449868e-01,  2.98872679e-01,
        -6.03784993e-02, -4.07830402e-02, -5.77273965e-02,
        -8.60471353e-02,  3.81215848e-02,  1.91398896e-02,
         4.54093888e-02, -1.89525392e-02, -3.85786444e-02,
        -3.27040479e-02, -1.07071325e-01,  1.49196088e-01,
         1.55458108e-01, -1.92767195e-02, -2.04066947e-01,
         4.99599501e-02,  2.03205575e-03,  9.52021927e-02,
        -7.31759283e-05,  4.95940894e-02,  1.06675252e-01,
         8.79302397e-02, -7.13255536e-03,  3.25216614e-02,
        -8.44399165e-03, -1.01848178e-01,  1.50360271e-01,
        -5.83260413e-03,  2.71144137e-02, -9.75591131e-03,
        -1.80690259e-01, -3.91394421e-02, -2.04144299e-01,
        -1.37588859e-01,  9.42078233e-02, -2.48435121e-02,
         6.40687793e-02,  2.59226244e-02, -5.32474294e-02,
        -1.07470512e-01, -1.70505028e-02,  2.49580070e-01,
         1.35681689e-01,  9.62702036e-02,  9.76494178e-02,
         4.97180372e-02,  2.04738617e-01, -2.29730010e-01,
         6.76121414e-02,  2.34304182e-02, -1.91469848e-01,
        -8.70782044e-03, -1.18840672e-02, -1.00074567e-01,
         1.81184206e-02,  1.47566482e-01, -1.47943392e-01,
         7.35826939e-02,  2.40492914e-02, -9.05353725e-02,
         1.21406533e-01,  5.08252159e-02, -4.29567024e-02,
         9.44053084e-02,  1.32572623e-02,  1.40872568e-01,
         9.28999335e-02, -1.06644802e-01, -2.11243667e-02,
         5.39980887e-04,  2.67209932e-02,  6.26299111e-03,
        -2.95654088e-02,  5.08991554e-02,  7.68437982e-02,
        -2.29002625e-01, -8.37998539e-02, -1.03238828e-01,
        -1.41184703e-01,  9.86858830e-02,  1.30598322e-02],
       [-5.07913530e-02,  6.06018156e-02, -1.55997619e-01,
         1.03926718e-01,  4.10055965e-02,  4.83629741e-02,
        -8.31486508e-02, -8.18811059e-02,  8.76000822e-02,
        -9.36268792e-02, -9.79699641e-02, -3.63817476e-02,
        -5.82586676e-02,  1.25843761e-02,  3.98900837e-01,
         1.03324153e-01, -5.78571483e-02, -1.10045373e-01,
        -6.30975962e-02, -1.26044005e-01, -2.50346474e-02,
         1.59622863e-01, -4.90698032e-02,  8.85187238e-02,
        -1.62030175e-01,  4.97932434e-02,  5.79117090e-02,
        -3.87467928e-02, -3.68028991e-02, -1.13773264e-01,
        -1.44719392e-01,  4.28677090e-02,  7.04731494e-02,
         2.38288656e-01, -5.14542274e-02, -2.42649931e-02,
        -7.41095692e-02,  6.53728917e-02, -1.05787925e-01,
         2.48514280e-01, -2.63018464e-03, -4.63065840e-02,
        -1.28845721e-01,  9.08723250e-02, -1.97581261e-01,
         3.41851986e-03,  2.63084978e-01,  1.86869409e-02,
         8.32172781e-02,  2.69241124e-01, -3.11393607e-02,
        -5.65787107e-02, -1.08791500e-01, -5.33528216e-02,
        -5.98459272e-03, -3.34702954e-02, -5.00169061e-02,
        -3.46031711e-02, -7.85429180e-02, -1.96198270e-01,
        -3.28829922e-02,  8.72163102e-02, -1.13629013e-01,
        -4.95346934e-02,  1.06152765e-01,  1.44395232e-01,
         1.21298067e-01, -1.20483451e-02,  1.43892318e-01,
         2.12922432e-02,  2.93803066e-02, -5.82499541e-02,
         5.73821515e-02, -1.32514507e-01,  6.07385896e-02,
         1.35997579e-01, -2.79685352e-02, -5.55975176e-02,
         2.34885335e-01, -6.54897392e-02,  2.31673904e-02,
        -1.93476170e-01, -8.39565322e-02, -8.38733558e-03],
       [-1.37674809e-01, -8.83539021e-02,  5.31837828e-02,
        -8.13480541e-02,  1.52931035e-01,  4.51945998e-02,
        -1.26588687e-01, -2.24380475e-02, -8.92990828e-02,
        -2.17250716e-02,  7.86326230e-02, -9.32756215e-02,
         1.41208917e-01,  1.18475683e-01, -2.09895089e-01,
         6.37542829e-02, -5.60952686e-02,  2.50901401e-01,
        -2.39012893e-02,  2.57622629e-01,  7.43611753e-02,
        -7.74885789e-02,  1.60507858e-01,  7.30809523e-03,
         1.08158000e-01, -6.10389933e-02,  2.25849487e-02,
        -6.59296662e-02,  8.32605287e-02,  6.14356855e-03,
         1.00953154e-01, -7.41165131e-02,  1.19006008e-01,
        -6.26326427e-02, -3.60351317e-02,  1.26898304e-01,
         2.88678240e-02,  2.30914410e-02,  3.75689298e-01,
        -2.87969619e-01,  2.37126611e-02, -8.00808743e-02,
         1.16871126e-01, -3.83769050e-02, -9.02749002e-02,
         1.23673677e-01, -2.66899556e-01,  7.67158568e-02,
        -4.37208302e-02, -1.46011963e-01, -4.10697097e-03,
        -1.45821534e-02, -2.28281803e-02,  8.61947760e-02,
        -1.51343364e-02, -4.05138955e-02,  2.69926786e-02,
        -1.90290902e-02, -1.75995231e-02,  1.91229895e-01,
        -7.39829391e-02,  8.49322081e-02,  8.65601078e-02,
        -1.44475475e-01,  1.00442305e-01,  9.84036624e-02,
        -5.25801554e-02,  3.91964912e-02, -1.14225842e-01,
         5.62992692e-02, -4.12592553e-02,  9.95948017e-02,
        -7.56720752e-02, -1.87751904e-01,  7.38735124e-02,
        -1.29069045e-01,  2.75457893e-02, -9.50830639e-04,
        -1.61381677e-01, -8.17659721e-02,  7.90685490e-02,
        -2.42620483e-02,  2.91798078e-02,  6.33093044e-02],
       [-1.22279927e-01,  2.91315287e-01, -1.40813515e-01,
         9.90642011e-02, -3.22185010e-02,  7.37382323e-02,
         1.89277872e-01,  8.03622529e-02,  1.67195965e-02,
         1.14572613e-05, -7.64878839e-02,  6.60908893e-02,
         6.84292912e-02,  1.09962627e-01,  9.09709930e-02,
         5.89714609e-02,  3.39908451e-02,  1.21512026e-01,
         2.50467025e-02, -1.67881757e-01, -7.48572275e-02,
         9.28326398e-02, -1.22142628e-01, -1.28965424e-02,
        -6.21828660e-02,  7.62288719e-02, -2.35478934e-02,
         1.88106671e-01,  9.05583724e-02,  1.83544494e-02,
         3.59653197e-02,  1.02685235e-01,  1.27281874e-01,
         2.90965647e-01, -9.68942642e-02, -1.24655768e-01,
         1.03415877e-01,  7.97929540e-02, -6.06103577e-02,
         2.63544847e-04,  5.56570664e-02, -2.09990311e-02,
         5.00497743e-02,  9.89932418e-02, -1.43639237e-01,
         8.63035172e-02,  1.03442408e-01,  1.01940118e-01,
         9.36045945e-02, -1.74594268e-01, -7.84422532e-02,
         1.35226650e-02, -4.68445942e-02,  1.68640222e-02,
        -1.13884047e-01, -1.15961090e-01, -4.88176122e-02,
         7.44160637e-02, -7.96676427e-02, -8.66225436e-02,
        -1.93044115e-02, -7.72979334e-02, -2.22318415e-02,
        -6.49262518e-02, -6.95337355e-02,  9.72754210e-02,
         2.74610929e-02,  7.69519657e-02,  5.37130162e-02,
        -1.01680860e-01,  1.33957425e-02,  5.97573705e-02,
         2.88830381e-02, -1.19990937e-01, -1.98336449e-02,
        -5.67518994e-02, -5.50231412e-02, -6.10371530e-02,
         2.06232429e-01, -7.80999735e-02, -6.97483541e-03,
         1.61229149e-01,  2.82153524e-02, -5.49134007e-03],
       [ 6.68850308e-03,  1.64748266e-01,  2.56640799e-02,
        -2.26034857e-02,  6.82050064e-02,  7.05795214e-02,
         1.48217157e-02,  1.92512795e-01, -8.19827802e-03,
        -3.13672191e-03,  4.93364669e-02, -1.03107849e-02,
         9.48096439e-02,  1.97050989e-01, -1.16178080e-01,
         1.04170078e-02,  4.92116511e-02,  1.83639377e-02,
        -8.92573316e-03,  4.04407643e-02,  1.72909833e-02,
         1.80806722e-02, -1.55241683e-01, -8.73261169e-02,
        -1.37525082e-01,  8.67857412e-02,  6.54782504e-02,
         1.38103202e-01,  7.72160441e-02,  3.06134850e-01,
         1.78313673e-01, -4.41367701e-02,  1.89774126e-01,
        -1.24907129e-01, -8.76816660e-02, -1.57948062e-01,
        -5.44894719e-03,  1.58802103e-02, -9.60369781e-02,
        -6.33240789e-02,  2.89093964e-02,  2.25428492e-03,
        -1.05343178e-01,  1.95597202e-01,  1.59250513e-01,
        -4.76863794e-02, -2.36092225e-01, -9.07555372e-02,
        -7.05791265e-02, -2.93766290e-01, -1.09284855e-01,
        -5.20597622e-02, -3.59667372e-03,  1.94828492e-02,
         6.59689680e-02,  2.59662438e-02, -4.61096428e-02,
         1.27409643e-03,  5.48090413e-02,  8.25008750e-02,
         1.62643433e-01,  2.27298886e-02,  2.14236394e-01,
        -1.73035040e-01, -5.24048358e-02, -8.34138393e-02,
        -5.28350696e-02,  4.99335444e-03, -3.05465534e-02,
         1.43701788e-02, -6.61899615e-03, -2.14116257e-02,
         7.81819150e-02,  6.12195842e-02,  7.39287362e-02,
        -2.46673152e-01, -6.11556359e-02,  9.03879553e-02,
        -2.52344906e-01, -1.66853055e-01,  1.02843933e-01,
         6.52111322e-02,  6.35160133e-02,  4.39947806e-02],
       [ 5.91383427e-02, -3.80479991e-02,  8.33824277e-02,
        -1.36694431e-01, -3.21239159e-02,  1.10221300e-02,
        -1.40536427e-01,  2.53261509e-03,  7.82574341e-02,
         2.85596075e-03,  2.20318690e-01, -1.28120437e-01,
         6.06303252e-02,  6.11566380e-02, -6.63468912e-02,
         1.53697804e-02,  3.45578343e-02, -5.40723465e-02,
        -3.44171785e-02,  7.46462345e-02,  6.96977228e-02,
        -1.40198171e-01,  2.75293946e-01, -1.80852786e-02,
         2.38615960e-01,  8.03009570e-02,  2.82708015e-02,
        -1.92483217e-01, -9.17578191e-02, -2.46573955e-01,
        -2.39261657e-01,  1.14090499e-02, -1.77720636e-01,
        -1.12658702e-01,  3.45398150e-02,  5.15276045e-02,
         5.84550388e-02, -8.80478695e-02,  1.28364237e-02,
         2.33674958e-01, -2.13352381e-03, -6.11783862e-02,
        -1.34871811e-01, -1.47497296e-01, -1.04759365e-01,
        -1.68272167e-01, -9.35200006e-02, -1.13060467e-01,
        -1.54663520e-02,  1.36615738e-01,  1.33075148e-01,
         8.50255266e-02, -5.69693148e-02, -1.68100715e-01,
         6.01490773e-02, -5.90214739e-03,  2.46214092e-01,
        -1.23074844e-01,  3.51491347e-02, -1.47014096e-01,
        -4.94272597e-02,  5.88943716e-03,  3.06868833e-02,
         3.02386105e-01, -5.69970086e-02,  4.87007387e-02,
        -8.34774077e-02, -9.09836292e-02, -1.46419361e-01,
        -9.31547284e-02,  1.03475131e-01,  2.60180347e-02,
        -1.09825775e-01,  3.49552594e-02, -6.95504025e-02,
         1.40900373e-01, -9.60275456e-02, -1.12532347e-01,
         2.81009734e-01,  1.77839771e-01, -5.79829328e-02,
         7.23182783e-02, -9.03597027e-02, -2.80918907e-02],
       [-9.83309448e-02, -3.58299576e-02, -4.16462347e-02,
         2.98319489e-01, -1.07419342e-01, -8.95656347e-02,
         2.92582717e-02, -8.00274834e-02, -3.06096766e-02,
         7.79383779e-02, -1.01144694e-01,  2.55272001e-01,
        -2.50999201e-02, -1.16080627e-01, -5.04940888e-03,
         1.14026830e-01,  3.82286012e-02,  1.57762989e-01,
         1.50080146e-02, -1.33902162e-01, -2.38501485e-02,
        -1.97064690e-02, -9.42822918e-02, -6.17838874e-02,
        -8.97927359e-02,  1.14242071e-02,  8.10628831e-02,
         1.25877947e-01,  2.40451004e-02,  9.15963575e-02,
         1.38402835e-01,  9.88700017e-02,  5.08628450e-02,
         8.66629370e-03,  6.26632720e-02,  7.99659491e-02,
        -6.13908172e-02, -7.80739337e-02,  4.83396761e-02,
        -4.19806913e-02, -9.94848311e-02, -8.25746879e-02,
        -6.18847720e-02,  1.05219305e-01, -3.91171351e-02,
         2.68220425e-01,  1.84759960e-01, -4.88389470e-02,
        -4.18757461e-02,  1.17468990e-01, -9.88348573e-03,
         7.93550834e-02, -6.12466000e-02,  8.30077156e-02,
         3.06649525e-02,  2.21360177e-01, -2.81506516e-02,
        -7.77540915e-03, -1.39329806e-01,  3.11654378e-02,
        -6.88521042e-02,  2.15840414e-02, -7.84553140e-02,
        -1.05810314e-01,  1.29107917e-02, -6.82429224e-02,
        -1.33906364e-01, -4.13422287e-02,  6.49993420e-02,
         9.73841399e-02, -8.17605928e-02, -6.00648373e-02,
        -7.50972852e-02,  1.43109426e-01, -8.72030705e-02,
         2.31718943e-01, -4.81946580e-02,  1.02384157e-01,
        -6.92347810e-02,  1.52565330e-01,  7.64271915e-02,
        -3.93095091e-02,  2.68866774e-02, -4.69204821e-02],
       [-1.41194716e-01,  4.20775339e-02, -8.24263394e-02,
         5.22024669e-02,  1.28314227e-01,  6.32515475e-02,
        -5.25380895e-02, -8.95514935e-02, -6.02822565e-02,
        -1.28866052e-02,  3.97278517e-02, -4.08350937e-02,
        -7.93749169e-02, -8.57764557e-02, -4.58012074e-02,
         1.02975145e-02, -2.83757225e-02,  1.58632666e-01,
         6.03908300e-02,  1.97110638e-01, -1.02140643e-01,
        -4.25975248e-02,  1.12449519e-01, -6.82836249e-02,
        -8.72248262e-02, -9.61029381e-02, -1.95607673e-02,
        -2.01511219e-01,  6.27979487e-02, -1.95611164e-01,
         4.46483791e-02, -9.76007655e-02, -1.25813752e-01,
         2.19554976e-01,  6.89931437e-02,  1.06424563e-01,
        -3.78616042e-02, -8.42771381e-02,  1.71371207e-01,
         7.85769746e-02,  1.01778522e-01,  7.51817152e-02,
         1.81616619e-01, -8.66418555e-02, -1.02526717e-01,
         8.04659054e-02, -2.72545099e-01, -8.25326368e-02,
         6.23034202e-02, -1.07258923e-01,  4.27148454e-02,
         1.05815812e-03,  7.34581873e-02, -1.64389554e-02,
        -4.66136746e-02,  4.52017635e-02,  2.20773309e-01,
         5.03464751e-02, -6.44608289e-02, -1.48468348e-03,
        -6.58441707e-02,  8.68688300e-02, -1.02606304e-01,
         1.59863234e-01, -2.34912690e-02,  9.50645879e-02,
         9.57260877e-02, -2.93989759e-02, -3.62177640e-02,
         3.24370991e-03, -1.01571076e-01, -8.74915794e-02,
        -1.01435363e-01, -1.95328027e-01,  7.91222453e-02,
         7.86351413e-02,  9.55352560e-02,  7.18847290e-03,
         2.20768973e-01,  1.67609215e-01,  5.02027050e-02,
         7.22018583e-03, -1.31152943e-01,  9.64045748e-02]], dtype=float32), array([-0.08058229, -0.0493855 , -0.03887606,  0.03175206, -0.11027296,
        0.08231122, -0.0826979 , -0.09558322,  0.00139627, -0.11595725],
      dtype=float32)], 270), ([array([[[[ 0.02962495,  0.09516934,  0.07514393, -0.30978677,
          -0.351212  ],
         [ 0.13602133,  0.2858641 ,  0.05258849, -0.20396294,
          -0.41432777],
         [ 0.02569401,  0.23676278,  0.04906542, -0.10755844,
          -0.40635145],
         [ 0.13992931,  0.43475747,  0.37033886,  0.04365986,
          -0.20553833],
         [ 0.11412231,  0.20409152,  0.23688988,  0.21955542,
           0.2708168 ]]],


       [[[-0.00999397, -0.05557111, -0.10651413, -0.16033027,
          -0.16449454],
         [ 0.05256855,  0.13550045,  0.05245359, -0.13462967,
          -0.08291946],
         [ 0.02778333, -0.11449952,  0.0283242 , -0.06998078,
          -0.14334193],
         [ 0.07057516, -0.02557733,  0.06848204, -0.19999807,
          -0.05177324],
         [ 0.16045116,  0.03079312, -0.01688335, -0.08668962,
          -0.18984881]]],


       [[[ 0.1651723 ,  0.08999585,  0.10160807, -0.0702031 ,
           0.30836436],
         [-0.09835584, -0.24100971, -0.04130806,  0.05100462,
           0.13387313],
         [-0.09981139, -0.1254781 , -0.2827243 ,  0.20250018,
           0.21188489],
         [-0.08844033, -0.22026004, -0.12302326,  0.11438195,
           0.06074716],
         [-0.06303154, -0.23432656,  0.05211297,  0.15828837,
           0.08891957]]],


       [[[ 0.03089068,  0.02459081,  0.24161796,  0.1339951 ,
          -0.06732405],
         [-0.01989628, -0.02607693,  0.21141824,  0.318389  ,
           0.24354252],
         [ 0.33370957,  0.36013374,  0.16681841, -0.12602635,
           0.16422641],
         [-0.06992821, -0.19374007, -0.14923634, -0.1995606 ,
           0.1485133 ],
         [ 0.03027906, -0.0766974 , -0.13857597, -0.31626466,
          -0.30979714]]],


       [[[-0.18123458, -0.07694662,  0.17289823,  0.12800555,
          -0.12602217],
         [-0.12407191,  0.09537619, -0.0984332 ,  0.05652279,
           0.07772072],
         [ 0.1822616 ,  0.3603519 ,  0.16712266,  0.05687057,
           0.13153203],
         [ 0.33870867,  0.20496295,  0.21029311, -0.25247216,
          -0.09579044],
         [ 0.11481048,  0.13663954, -0.19901875, -0.2549859 ,
          -0.07558472]]],


       [[[-0.05204578, -0.03347451, -0.14785008, -0.17273259,
          -0.04891991],
         [ 0.13704562, -0.06750444, -0.07502311, -0.2427313 ,
           0.11640781],
         [-0.22588643, -0.18971592,  0.09357677, -0.20241776,
          -0.08096937],
         [ 0.1280474 , -0.20548682, -0.21717821, -0.16637124,
           0.17797872],
         [-0.11951892, -0.08337784, -0.20068038,  0.15697892,
           0.21256082]]]], dtype=float32), array([ 0.17263167,  0.10005612,  0.04115271,  0.03004377, -0.02406153,
        0.15720119], dtype=float32), array([[[[-0.08249124, -0.0893983 , -0.0242642 , -0.12480047,
          -0.15082148],
         [ 0.01672578,  0.04671866, -0.03546526,  0.06400637,
           0.0465213 ],
         [ 0.16011348,  0.11586948,  0.02366669,  0.07252294,
          -0.00352695],
         [-0.02203133,  0.02020288,  0.14756486, -0.05583213,
          -0.04249161],
         [-0.16840534, -0.03367126, -0.00451842, -0.03986681,
          -0.03490251]],

        [[-0.03056933, -0.01504777,  0.01382912,  0.03626382,
           0.01549771],
         [-0.0725509 , -0.08487842,  0.00601075, -0.06664408,
           0.03398291],
         [-0.05140935,  0.01429537,  0.0543616 , -0.0639278 ,
          -0.07657669],
         [-0.0168591 , -0.08116753,  0.05725648,  0.038573  ,
          -0.03771965],
         [ 0.04115277, -0.03474594,  0.00629597,  0.0167468 ,
          -0.08130787]],

        [[-0.14107582, -0.0795401 , -0.04948422, -0.01205459,
           0.036445  ],
         [-0.06945712, -0.00821768,  0.05159112, -0.04573375,
          -0.02200688],
         [ 0.01781604,  0.00932405, -0.09568548,  0.05083924,
          -0.07391626],
         [ 0.01581028,  0.08413836,  0.07330116,  0.06054312,
          -0.04415834],
         [-0.04944252,  0.08702984,  0.01397036,  0.08219121,
           0.06178522]],

        [[ 0.01351924, -0.02808265, -0.02395225, -0.082219  ,
           0.0709888 ],
         [ 0.06386973, -0.07200818, -0.07139657, -0.04557497,
           0.01052702],
         [ 0.03208385, -0.00650432,  0.03320752, -0.10741868,
          -0.08149681],
         [ 0.04455189,  0.1393212 , -0.03494023,  0.0791936 ,
           0.05799826],
         [-0.05503815, -0.04260219,  0.07805539, -0.05716897,
           0.04499815]],

        [[ 0.08729649,  0.02092431, -0.10567527, -0.0566037 ,
          -0.03882486],
         [ 0.05749092, -0.05531217, -0.0847245 , -0.08037959,
          -0.1230469 ],
         [ 0.03168837,  0.08273167,  0.09606791,  0.01687765,
          -0.05273523],
         [ 0.02124366,  0.06482714, -0.01223621, -0.01304276,
          -0.01058676],
         [-0.09717183, -0.0581919 ,  0.0069544 , -0.07659106,
          -0.0744864 ]],

        [[-0.09116001, -0.04776778, -0.00568749, -0.04341181,
          -0.08648933],
         [-0.09996168,  0.02801291,  0.05933671,  0.00609723,
          -0.0579078 ],
         [-0.00193709, -0.07634502, -0.07694203, -0.05571466,
          -0.02439576],
         [-0.00996656, -0.05605198,  0.04542714, -0.09473052,
          -0.01225152],
         [ 0.00167486,  0.06176099,  0.05752717,  0.04983464,
           0.06288932]]],


       [[[-0.01422558,  0.0011315 ,  0.05441522, -0.01582916,
          -0.0318314 ],
         [-0.06708618,  0.0289664 ,  0.05615116,  0.172748  ,
           0.13036491],
         [-0.17068924, -0.11565647, -0.06821755, -0.0308379 ,
           0.07545905],
         [ 0.00872349, -0.15004171, -0.17319733, -0.08247852,
          -0.10389372],
         [ 0.0283802 ,  0.04370579, -0.03091572, -0.08553362,
           0.00842965]],

        [[-0.00812361, -0.01485188, -0.02309322, -0.0101944 ,
           0.04050685],
         [-0.05657366, -0.0540044 , -0.07338809, -0.02986285,
           0.06981898],
         [-0.05924952, -0.03044526, -0.0728825 ,  0.05369049,
           0.00633059],
         [-0.01260658,  0.08829396,  0.0378265 , -0.0702979 ,
           0.03518544],
         [ 0.00238583,  0.07803198, -0.02084526,  0.07857776,
          -0.0152071 ]],

        [[-0.08477829, -0.01141967, -0.02862247,  0.06473641,
          -0.03690869],
         [-0.03613357,  0.07698888,  0.03420411,  0.08850705,
          -0.09742406],
         [ 0.04839957,  0.09155218, -0.0255936 ,  0.02435015,
           0.04346499],
         [-0.04115341, -0.11150175,  0.07534976,  0.06364004,
          -0.06212465],
         [-0.10491333, -0.00120663, -0.07770437,  0.03132869,
          -0.03279269]],

        [[ 0.05911656, -0.09299242, -0.00272234, -0.08998837,
           0.09433484],
         [ 0.11236148,  0.00213294,  0.07169197,  0.05920427,
           0.09456839],
         [-0.07107055,  0.01129379,  0.11793414,  0.1180473 ,
           0.08512436],
         [-0.15292135, -0.0992503 , -0.00340995, -0.05109824,
          -0.05996139],
         [-0.0761595 , -0.01600997, -0.10748067, -0.10195223,
          -0.05348957]],

        [[ 0.04023118, -0.05253414,  0.00538877,  0.09197074,
           0.0917197 ],
         [ 0.03029057,  0.00169836,  0.10036628,  0.08444357,
           0.0187143 ],
         [-0.07912889, -0.02592019, -0.11173201, -0.00350864,
           0.0541872 ],
         [-0.01702579, -0.16843468, -0.10453632, -0.10333189,
          -0.1166402 ],
         [-0.0318696 ,  0.01132329, -0.06955035,  0.010598  ,
           0.04721075]],

        [[-0.03815139, -0.00951069,  0.08607423,  0.06160944,
          -0.03506362],
         [-0.04770368, -0.00188583, -0.08567219,  0.00728118,
          -0.08775639],
         [-0.05210717,  0.07472744,  0.01207128, -0.03981896,
           0.00610741],
         [ 0.04608987,  0.03197217, -0.05569937, -0.02047404,
          -0.03150254],
         [-0.01527068,  0.07780714,  0.06874739,  0.03686833,
          -0.05127966]]],


       [[[-0.05395151, -0.12243566, -0.18222515, -0.19381602,
          -0.22896236],
         [ 0.08701908, -0.1446241 , -0.20888013, -0.04895486,
          -0.08070549],
         [ 0.15785646,  0.04440308, -0.060817  ,  0.02722951,
           0.00160078],
         [ 0.14148273,  0.05669123,  0.12236977,  0.09897202,
           0.09804647],
         [ 0.1564698 ,  0.03237386,  0.12144395,  0.19222434,
           0.11822861]],

        [[-0.05134223, -0.06749054, -0.02708589, -0.00184157,
           0.07620531],
         [ 0.11009554,  0.09740595,  0.01776745,  0.07832199,
           0.07633895],
         [ 0.06112121,  0.05807532, -0.01145591,  0.08872853,
          -0.03474792],
         [ 0.06755927, -0.06090484, -0.07753167, -0.01559889,
          -0.04076854],
         [-0.05006759,  0.00442735,  0.0585302 ,  0.02783292,
           0.08428675]],

        [[-0.00171585,  0.0730506 ,  0.06779953, -0.04058995,
          -0.06118222],
         [-0.09276125, -0.08113326,  0.06410059,  0.01366579,
           0.0551662 ],
         [-0.12056278,  0.05514378, -0.05731775,  0.00867583,
           0.05906971],
         [-0.07904123,  0.07239696,  0.03322334,  0.01975932,
           0.02810248],
         [ 0.02907159,  0.03437572, -0.0117911 , -0.03222004,
          -0.0471914 ]],

        [[-0.04455628, -0.06426954, -0.12701984, -0.11294506,
          -0.02531509],
         [-0.12436476, -0.03571743, -0.08466849, -0.00086018,
          -0.07750985],
         [-0.07597411, -0.1150831 , -0.05234191, -0.06496168,
          -0.11947514],
         [ 0.00363413, -0.07176973, -0.03615816, -0.07753807,
          -0.10325775],
         [ 0.07880147,  0.01947824,  0.01021136,  0.04514736,
           0.00816492]],

        [[ 0.02958314,  0.00214741, -0.16898753, -0.05116008,
          -0.02047474],
         [-0.03487369,  0.00416887, -0.10731181, -0.1173213 ,
          -0.07387694],
         [-0.00659609, -0.04232362, -0.04859587, -0.02125634,
          -0.0811525 ],
         [ 0.11055867,  0.07913579, -0.1069726 ,  0.04001249,
           0.04889633],
         [ 0.01490146,  0.03079109, -0.01729163,  0.10201064,
           0.02323478]],

        [[ 0.01832645,  0.02933781, -0.01328079,  0.05755535,
          -0.01301401],
         [ 0.02471478,  0.09797309, -0.0419963 ,  0.04224708,
           0.06285968],
         [-0.03082065, -0.02475639,  0.00198639, -0.0506004 ,
           0.07540665],
         [-0.09804419,  0.05625559,  0.02683288, -0.06541253,
           0.0647677 ],
         [-0.0775146 , -0.01948165,  0.00149979, -0.05872144,
          -0.01857507]]],


       ...,


       [[[ 0.01607837,  0.00783092, -0.01141364, -0.02966207,
          -0.10708879],
         [-0.05973412,  0.07449546,  0.01250474, -0.0911007 ,
           0.11010002],
         [-0.04607391,  0.02058673, -0.1747008 , -0.13729358,
           0.13065505],
         [-0.1055392 , -0.05448474, -0.17376687, -0.01883901,
           0.06468629],
         [ 0.03100396, -0.11064701, -0.0429021 ,  0.06610698,
           0.13861069]],

        [[-0.03869532,  0.01334184, -0.02190713, -0.05750122,
          -0.0138602 ],
         [-0.02434587, -0.00093867, -0.02361132,  0.04922444,
           0.10596701],
         [ 0.06078716,  0.06211473, -0.05876951,  0.06820364,
           0.09488117],
         [-0.03980915,  0.0027905 , -0.03824422,  0.04868617,
          -0.05535584],
         [ 0.0325673 , -0.07348044, -0.00720889, -0.05472491,
          -0.00522646]],

        [[-0.01488731, -0.01626756,  0.00433386,  0.04283229,
           0.05455299],
         [ 0.09018709, -0.05990125,  0.02485713,  0.00650253,
           0.01700131],
         [ 0.00053518, -0.0035307 ,  0.07295703, -0.03004548,
          -0.00863143],
         [ 0.02480023, -0.02631372,  0.02510212,  0.13403629,
           0.00886807],
         [-0.09597436,  0.03567709,  0.09640945,  0.06924059,
          -0.13539886]],

        [[-0.10151084, -0.09766217,  0.02129973,  0.03210749,
          -0.00171447],
         [ 0.02131861,  0.00895435, -0.05876772, -0.1160825 ,
          -0.11828429],
         [-0.04675876, -0.05807104, -0.03943084, -0.12150537,
           0.00081449],
         [-0.00805444,  0.03402191, -0.14090343, -0.08884849,
           0.04693614],
         [-0.08007323, -0.09273779, -0.02835638,  0.08023918,
           0.08055741]],

        [[-0.05074439,  0.03460089,  0.08397571, -0.03605985,
          -0.08115967],
         [-0.07490099,  0.02989913, -0.06966396, -0.0188132 ,
           0.01832689],
         [ 0.01438884,  0.03925804, -0.00413073, -0.12505825,
          -0.0135628 ],
         [ 0.08282688, -0.07869631, -0.04985532, -0.1002498 ,
           0.06220628],
         [-0.03914935,  0.0162723 , -0.02408655,  0.08602557,
           0.14853549]],

        [[-0.01835814,  0.0075661 ,  0.02239878, -0.00929482,
           0.00507739],
         [ 0.03604212, -0.08374652, -0.0588605 , -0.04555959,
          -0.02358687],
         [ 0.0258324 , -0.05484463,  0.07536455,  0.00736828,
          -0.08711687],
         [-0.03623609, -0.04928802,  0.08187328,  0.07906083,
          -0.01533045],
         [ 0.0349672 ,  0.08813096,  0.0693305 , -0.01948869,
          -0.07191243]]],


       [[[-0.00848324, -0.11186199,  0.04396334,  0.10597106,
           0.03101288],
         [ 0.10107256,  0.05866814,  0.09097291,  0.13100545,
           0.12096293],
         [ 0.00829412,  0.04890328,  0.00783222, -0.00801983,
          -0.07400014],
         [-0.02376557, -0.05544968, -0.19875893, -0.17506102,
          -0.19497931],
         [-0.04895859, -0.06085754, -0.11052004, -0.01106322,
           0.01225064]],

        [[-0.02155572, -0.01811764, -0.00451855,  0.01358721,
          -0.03625593],
         [ 0.01225906,  0.02239829,  0.00334318, -0.06435288,
          -0.0187121 ],
         [ 0.03194823,  0.00302977, -0.09218019,  0.04901619,
          -0.07266165],
         [ 0.01373851, -0.07278456,  0.00265957, -0.00345838,
           0.04075842],
         [-0.04613451, -0.04185351, -0.00660591,  0.03848014,
          -0.03739425]],

        [[ 0.01730253,  0.04123429,  0.06087606, -0.0034261 ,
          -0.01853071],
         [ 0.04376691, -0.03532936,  0.02252555, -0.00426128,
           0.06115234],
         [-0.07501725, -0.02520418, -0.06186927,  0.01601325,
           0.06609953],
         [ 0.03357496, -0.04924688, -0.01344154,  0.0769989 ,
          -0.06053212],
         [-0.051434  ,  0.01515553, -0.07770208, -0.03726988,
          -0.09705602]],

        [[ 0.10009275,  0.07557883, -0.06027202, -0.0854272 ,
          -0.03698338],
         [-0.06929256, -0.09089394,  0.04279395,  0.03156704,
           0.08982293],
         [ 0.07832325,  0.00184892,  0.1893122 ,  0.03124327,
           0.05966441],
         [ 0.10731482,  0.04848007,  0.10325973,  0.00500847,
          -0.05001133],
         [-0.05162402, -0.1334988 , -0.15713972, -0.08770401,
          -0.15551473]],

        [[ 0.01912123,  0.06685505, -0.13535956,  0.08316156,
           0.10211874],
         [ 0.00279961, -0.09509919,  0.02995866,  0.06695608,
           0.03068051],
         [-0.02134421,  0.05900222,  0.09810487,  0.10746636,
           0.05529702],
         [-0.00034369,  0.0042489 , -0.08155996, -0.02460279,
          -0.07222765],
         [-0.07478233, -0.07185237, -0.00362632, -0.05687017,
          -0.11128107]],

        [[-0.09404092,  0.08132754,  0.0297674 , -0.04774314,
           0.0371092 ],
         [ 0.04626593,  0.08935869, -0.06060714,  0.0186218 ,
          -0.07544442],
         [-0.08065506,  0.06374042,  0.02054884,  0.02891255,
           0.01224239],
         [-0.08823688,  0.04111607,  0.03760476, -0.04975497,
           0.00991789],
         [ 0.06202433, -0.04071783,  0.00428203,  0.10111834,
          -0.00455428]]],


       [[[ 0.1133225 , -0.04075323, -0.10983972, -0.09911192,
           0.01433456],
         [-0.01050989, -0.09560055, -0.2531697 ,  0.02743476,
           0.03834987],
         [-0.00977946, -0.20734753, -0.129662  ,  0.05498065,
          -0.05390276],
         [ 0.03159666,  0.0040125 ,  0.06671522,  0.18270831,
          -0.1302351 ],
         [ 0.04044498,  0.0586734 , -0.01232181,  0.0297832 ,
          -0.02954003]],

        [[ 0.0799587 ,  0.08860429,  0.03986503,  0.00423751,
           0.00768452],
         [ 0.05741454, -0.03254801, -0.01939506, -0.0780587 ,
           0.09757097],
         [ 0.03308978, -0.03229471, -0.06615837,  0.02746121,
          -0.02640767],
         [ 0.03018537, -0.02741024, -0.04629266,  0.00521101,
           0.02501279],
         [-0.06227768,  0.06092625, -0.06523985, -0.06307085,
          -0.00109738]],

        [[-0.0926696 , -0.00359446, -0.01159971,  0.10039781,
           0.05271565],
         [-0.04248364, -0.01474359,  0.13211924, -0.0719985 ,
          -0.04429435],
         [-0.09402853,  0.11231899,  0.14386664, -0.1306662 ,
          -0.00040998],
         [ 0.04555945,  0.14606796,  0.01235251, -0.02915752,
          -0.01728188],
         [ 0.04254568, -0.00305124, -0.05767294,  0.00981351,
          -0.1072851 ]],

        [[-0.0018422 , -0.03500659, -0.16682136, -0.03460938,
          -0.03567084],
         [ 0.03568134, -0.13385813, -0.08500963, -0.05716634,
           0.1309042 ],
         [-0.04128663, -0.08097562, -0.06501952, -0.01349053,
           0.02005966],
         [-0.03742898, -0.1361715 ,  0.00234883, -0.07035368,
          -0.0195335 ],
         [-0.10559473,  0.07231449,  0.10140058,  0.03239366,
          -0.11811836]],

        [[ 0.12616152, -0.08939756, -0.11776288, -0.08653429,
           0.08008938],
         [ 0.02099488, -0.09171636, -0.09515981,  0.08373496,
           0.10649533],
         [-0.01404853, -0.06468358,  0.07894818,  0.14285561,
          -0.00092218],
         [-0.025667  , -0.09844884,  0.00870959,  0.01379909,
          -0.07970748],
         [ 0.04881044,  0.05442977,  0.02945795,  0.03786922,
          -0.12522621]],

        [[-0.06201473,  0.04769283,  0.04755642,  0.00977881,
          -0.06891913],
         [-0.0104053 , -0.01848114,  0.08209325, -0.03490184,
          -0.0062529 ],
         [ 0.06482744,  0.08059113,  0.01212876, -0.00990282,
          -0.02169474],
         [ 0.04940453,  0.00514966,  0.02503684,  0.02214362,
          -0.01071426],
         [-0.04578624, -0.07841831, -0.06975271, -0.05122527,
           0.03905535]]]], dtype=float32), array([ 0.00332457, -0.04068029, -0.01884682, -0.08002391,  0.00335125,
       -0.06104023, -0.03113819, -0.04499206, -0.06138123, -0.10661346,
        0.03617135, -0.04166026, -0.10293065, -0.06928562, -0.02217773,
       -0.05897449], dtype=float32), array([[-0.04738835, -0.02487748,  0.02894334, ...,  0.04306788,
         0.05826186,  0.04276254],
       [-0.02926463, -0.02857861,  0.0475584 , ...,  0.01812391,
        -0.00978319, -0.01426009],
       [-0.04248432, -0.05101403, -0.07931058, ..., -0.05805567,
         0.05074406, -0.03618782],
       ...,
       [ 0.06196217,  0.06303412,  0.04216009, ..., -0.00489579,
         0.06011296,  0.05566068],
       [ 0.04460461, -0.01352983, -0.00879391, ...,  0.02664217,
         0.01824352,  0.05201583],
       [ 0.05956554,  0.06246452, -0.01269808, ...,  0.07203332,
         0.05376609, -0.02936118]], dtype=float32), array([ 2.8083470e-02,  1.1446471e-02,  3.0708190e-02, -5.2943025e-02,
       -4.6945680e-03,  1.8063307e-02,  4.5134883e-02, -3.9732713e-02,
       -1.0370250e-02, -1.9964907e-02, -2.7246743e-02,  2.5926299e-02,
        1.5984667e-02,  2.0168843e-02,  3.7036847e-02,  5.7261843e-02,
       -3.9054599e-02,  1.0943525e-02, -3.8916081e-02,  2.9949015e-02,
       -1.6221793e-02,  3.6409397e-02,  6.0007162e-02,  7.3018462e-05,
        4.3444554e-03,  5.3134918e-02,  4.7348838e-02,  2.4108769e-02,
        2.4768336e-02, -6.1412406e-04,  7.8126425e-03, -4.4998992e-03,
       -7.7481545e-03, -1.1607678e-04, -2.9983655e-02,  3.0462841e-02,
       -1.5405104e-02, -3.1442039e-02,  5.9380274e-02, -3.5107635e-02,
        5.3055086e-03, -3.6222264e-02, -5.0907388e-02, -2.6134781e-03,
        4.3804307e-02, -3.1923387e-02, -3.5191305e-02,  4.8278845e-04,
        6.4921178e-02,  4.8372246e-02,  2.0384459e-02,  1.2004000e-02,
       -3.7683190e-03,  4.5214955e-02,  2.4805353e-03, -1.4539256e-02,
       -2.1858424e-02, -5.3421244e-02, -1.1311670e-02, -1.1746757e-02,
        4.4227310e-02, -2.3634277e-02, -8.6953128e-03, -8.5133743e-03,
       -1.5151667e-02,  5.7128809e-02,  1.9350383e-02,  4.3763989e-03,
       -6.3255087e-02, -2.8298819e-02, -5.9135363e-02,  5.5906348e-02,
        1.8049788e-02,  2.6133036e-02, -1.8841391e-02, -4.1341547e-02,
        5.9776581e-03,  3.1459663e-02,  3.0126814e-02, -5.5239953e-02,
       -1.7660519e-02,  6.0711049e-02, -3.7803661e-02,  1.0322716e-02,
        3.8138013e-02, -2.3643861e-02, -2.5941145e-02, -4.0012963e-02,
       -3.9713725e-02, -2.4347184e-02, -2.6517741e-02,  4.0466871e-02,
       -1.0922863e-02, -2.1178668e-02,  5.5007461e-02, -6.1472699e-02,
       -6.7736087e-03,  4.5091502e-02, -5.9752185e-02,  4.3916283e-03,
       -4.9191799e-02, -1.8336389e-02, -4.5341637e-02,  3.3666279e-02,
        5.3405005e-02,  2.9674737e-02,  5.4870460e-02,  1.9351022e-02,
       -2.8445495e-02,  1.5787674e-02,  5.4448634e-02,  6.8540871e-02,
        3.3868648e-02,  2.1024315e-02, -4.4598471e-02,  4.4773970e-02,
        6.0881056e-02,  1.6663894e-02,  4.7929689e-02, -6.5683499e-03],
      dtype=float32), array([[-0.13280712, -0.01655748,  0.06756748, ..., -0.05408268,
         0.06429159,  0.04255658],
       [-0.08577969,  0.01780113,  0.15780042, ..., -0.0133429 ,
        -0.04738816, -0.07696982],
       [ 0.00530782,  0.03712213, -0.15491661, ...,  0.08872779,
         0.00287251,  0.00894961],
       ...,
       [-0.08776101,  0.0051757 ,  0.11158246, ...,  0.07491429,
        -0.09066711, -0.03203326],
       [-0.07631971,  0.02555566, -0.01785178, ..., -0.07680815,
        -0.05141441,  0.02129752],
       [-0.01020157, -0.0620672 , -0.05984269, ..., -0.03524679,
         0.01865593, -0.03487407]], dtype=float32), array([ 0.09673107,  0.02659381,  0.03849028,  0.10504913, -0.0214719 ,
       -0.03300696,  0.06701449,  0.02775432,  0.05000377, -0.04976477,
       -0.03680706, -0.02434547,  0.0346387 ,  0.00182297,  0.05609671,
        0.06217384, -0.02760749,  0.05604573,  0.03674306,  0.11237655,
       -0.05401304,  0.00402682, -0.00264105,  0.08231688, -0.03766256,
       -0.00288402, -0.03176835,  0.01131856, -0.02442444, -0.07853511,
        0.07617465, -0.02813706,  0.10499287, -0.07652302, -0.0230097 ,
       -0.06535629,  0.07334608, -0.06844924,  0.01214496,  0.06524868,
       -0.05655935, -0.0046088 , -0.01228431,  0.09495508, -0.02703346,
       -0.08490985,  0.09872783, -0.03773951, -0.06117765,  0.13381623,
        0.08822506,  0.09039827, -0.04948498,  0.04124948, -0.06356013,
        0.06069421, -0.00924816,  0.01543706, -0.01577915,  0.0102615 ,
       -0.06392042,  0.04857004, -0.08086806,  0.0435934 , -0.01638451,
       -0.06597056, -0.03118828,  0.09555156,  0.06515831, -0.0695826 ,
        0.01581806,  0.07681651, -0.03167888,  0.11720189, -0.09176984,
        0.10984043,  0.00351782,  0.06087681,  0.07930408,  0.0936086 ,
       -0.05490226,  0.07338371,  0.0302565 ,  0.05609362], dtype=float32), array([[ 2.14256868e-01,  3.58696394e-02, -1.42789707e-01,
        -1.32893145e-01,  5.44524752e-02, -1.24564573e-01,
         2.28214577e-01, -1.91225335e-01, -1.45374864e-01,
         1.42216915e-02,  7.56649598e-02,  1.81410968e-01,
         3.27727757e-02, -1.69767991e-01, -1.34700626e-01,
         9.30877775e-02,  9.36992615e-02, -1.34007305e-01,
        -8.93380344e-02, -2.44249433e-01, -6.62370771e-02,
        -3.70115973e-02, -2.14391172e-01,  9.34272856e-02,
        -1.74216688e-01,  8.67569819e-02,  4.25468907e-02,
         8.49673152e-02, -1.05366200e-01,  3.31336975e-01,
         2.41165943e-02, -9.37752351e-02, -8.77099857e-02,
        -4.68835309e-02,  2.90572513e-02, -1.63111612e-01,
        -5.64225614e-02, -7.27021769e-02, -2.13217467e-01,
         2.67668098e-01, -5.74648082e-02,  1.05692960e-01,
         5.17973527e-02, -1.26878276e-01, -1.06833763e-02,
        -5.22921123e-02,  1.34383291e-01, -7.10244179e-02,
         4.26334813e-02, -2.88177490e-01, -8.02927166e-02,
        -9.72328037e-02,  8.66945460e-02, -1.42283916e-01,
        -5.25201038e-02, -6.84018135e-02,  1.01999283e-01,
         1.32965654e-01, -7.58395642e-02, -1.86635554e-01,
         4.88877259e-02, -2.74510980e-02,  7.06528798e-02,
        -1.00292094e-01,  6.46013469e-02, -1.06156848e-01,
        -1.15632176e-01, -1.14958405e-01,  1.41503647e-01,
        -3.38541670e-03,  5.49508557e-02,  1.54291904e-02,
        -4.59821010e-03, -9.29087028e-02, -9.89714563e-02,
        -1.17086031e-01,  5.60418405e-02, -2.66816579e-02,
         7.92693719e-02,  1.85088471e-01, -1.12336032e-01,
         8.64082873e-02, -6.50550351e-02,  1.06445830e-02],
       [ 1.07639559e-01, -9.55713838e-02,  7.80700818e-02,
        -5.83461262e-02,  2.03234181e-02,  6.93651438e-02,
        -9.75683257e-02,  2.39326894e-01, -1.13097139e-01,
        -4.09396589e-02, -1.37542346e-02, -1.79734603e-01,
         1.68935984e-01, -4.04309593e-02,  1.10351153e-01,
        -8.26457664e-02, -1.70966703e-02, -8.32321569e-02,
         2.53878045e-03,  1.67807981e-01, -3.55823524e-02,
         1.40874460e-01, -2.11949021e-01,  2.38154121e-02,
         1.31474942e-01,  7.10635111e-02,  9.72096771e-02,
         9.26231444e-02,  5.33078685e-02, -2.19070643e-01,
        -4.08005640e-02, -8.22207704e-02, -7.32776001e-02,
         2.92896181e-02,  8.31629634e-02,  6.97165877e-02,
        -2.05617081e-02, -8.25215504e-02,  2.77701509e-03,
        -1.22531995e-01,  5.90857351e-03,  3.81700322e-02,
        -1.78254366e-01, -5.48003614e-02, -1.39602143e-02,
        -3.76742482e-01, -3.57751152e-03,  5.52543290e-02,
        -4.50218824e-04,  2.49329284e-01,  2.84255117e-01,
        -1.14041224e-01, -8.30694214e-02,  1.92507491e-01,
         1.17840059e-01,  7.63247311e-02, -2.30724081e-01,
         7.20558316e-02,  1.52667204e-03,  1.77602291e-01,
        -1.89109966e-01,  6.28193170e-02, -2.23197602e-02,
         5.67476228e-02,  3.25553771e-03, -3.28216478e-02,
        -1.27623886e-01,  7.33023584e-02, -1.00623913e-01,
        -2.98156496e-02,  5.70289120e-02,  2.10889839e-02,
        -5.48831411e-02,  2.53879368e-01, -1.09184142e-02,
         8.80511105e-02, -2.44150385e-02, -8.27487260e-02,
        -2.99547464e-01, -6.97401986e-02,  4.86842655e-02,
        -2.13558823e-01,  9.56556480e-03, -8.43382403e-02],
       [ 1.04301296e-01, -1.32103875e-01,  3.20737660e-01,
        -6.62399605e-02, -3.38223465e-02, -8.17348585e-02,
        -6.94570169e-02,  6.05964325e-02,  1.82182267e-02,
         4.02491391e-02, -4.81958501e-03, -1.95842013e-02,
         2.54096612e-02, -1.57915026e-01,  1.38101250e-01,
         1.60948828e-01, -1.89144295e-02, -1.41883418e-01,
         4.83274907e-02,  7.75138885e-02,  9.53400359e-02,
        -5.27736582e-02,  5.43603078e-02,  1.44719750e-01,
         1.12344593e-01, -1.45277451e-03,  5.80713637e-02,
         5.45021240e-03, -9.99301150e-02,  1.36778429e-01,
         7.79678971e-02,  3.67711149e-02, -1.91801339e-02,
        -1.66914880e-01, -4.18402702e-02, -1.17593393e-01,
        -1.00196220e-01,  9.22272950e-02,  1.01508740e-02,
         1.05167203e-01,  2.49724891e-02,  1.94695545e-03,
        -8.23971629e-02, -1.06592171e-01,  2.80560315e-01,
         8.68566409e-02,  1.50003403e-01,  6.92560673e-02,
         4.98554558e-02,  2.51372904e-01, -1.26208022e-01,
         1.24409929e-01, -8.10977537e-03, -1.95517078e-01,
        -1.74171235e-02,  2.15352457e-02, -6.85336590e-02,
         3.42963971e-02,  1.19425513e-01, -1.02883153e-01,
         5.18796258e-02,  2.56037954e-02, -3.18598598e-02,
         1.45371810e-01,  4.64734063e-02, -3.97789814e-02,
         3.26941237e-02,  6.49478137e-02,  5.97270615e-02,
         9.31343585e-02, -9.69410241e-02, -1.82924289e-02,
        -7.17256870e-03,  5.93996719e-02,  8.07537138e-03,
        -4.90304716e-02,  3.26345824e-02,  6.24095239e-02,
        -1.91618219e-01, -8.00472051e-02, -9.12267491e-02,
        -1.62761629e-01,  1.00769684e-01,  1.84257384e-02],
       [-9.80890915e-03,  6.83690459e-02, -1.43118367e-01,
         7.92392939e-02,  1.53504247e-02,  3.84502336e-02,
        -1.72058180e-01, -2.85131205e-02,  1.21329866e-01,
        -1.01388536e-01, -8.40021595e-02, -5.65352738e-02,
        -5.48262037e-02,  3.05909012e-02,  3.67517591e-01,
         7.08747655e-02, -6.12163730e-02, -5.29506244e-02,
        -4.99512590e-02, -1.09517932e-01, -2.04532444e-02,
         1.95841983e-01,  1.08658813e-03,  7.67064989e-02,
        -9.69592109e-02,  5.29051498e-02,  8.44028965e-02,
        -6.62666410e-02, -4.04978134e-02, -1.24020919e-01,
        -1.35948598e-01,  2.19904259e-02,  6.23217970e-02,
         1.52895927e-01, -5.50068356e-02, -9.22914818e-02,
        -7.30614066e-02,  6.60858378e-02, -1.33624032e-01,
         3.08336526e-01, -8.82304274e-03, -4.87823151e-02,
        -1.52245164e-01,  1.36977538e-01, -1.52369425e-01,
        -1.35398973e-02,  1.56924441e-01,  1.52383652e-02,
         7.80362487e-02,  2.80552238e-01, -5.68531379e-02,
        -8.21415558e-02, -1.17272697e-01, -9.62518603e-02,
         8.38367455e-03, -5.19760437e-02, -8.87208283e-02,
        -5.46406507e-02, -4.19783443e-02, -1.50924399e-01,
         3.07532046e-02,  8.09210241e-02, -1.26903549e-01,
        -3.51294540e-02,  5.56160398e-02,  1.64737031e-01,
         1.10184796e-01, -7.58630931e-02,  1.27341509e-01,
         2.01007426e-02,  6.68907091e-02, -5.86645119e-02,
         3.45070250e-02, -9.67448056e-02,  5.80588616e-02,
         1.71648383e-01, -3.77804525e-02, -5.74313328e-02,
         1.72480211e-01, -1.28442347e-01, -8.75327364e-03,
        -1.25073433e-01, -8.94768462e-02, -1.10472543e-02],
       [-1.12946510e-01,  3.04062385e-02,  1.84251554e-02,
        -1.43289389e-02,  2.19393432e-01,  1.25795975e-01,
        -1.35905772e-01,  4.02013306e-03, -9.82169360e-02,
        -2.35628188e-02, -4.62618917e-02, -9.47726741e-02,
         5.01385331e-02,  8.64646956e-02, -1.72387838e-01,
         3.38015966e-02, -6.17702417e-02,  2.98977047e-01,
        -4.95785587e-02,  3.52866232e-01,  7.28877485e-02,
        -4.57462817e-02,  8.25356692e-04,  1.81210823e-02,
        -1.73540681e-03, -6.13682903e-02,  1.05912723e-02,
        -1.09514028e-01,  8.53834003e-02,  4.43599224e-02,
         1.60233170e-01, -6.08842857e-02,  8.87097195e-02,
         1.52470702e-02, -3.42294760e-02,  1.79231510e-01,
         4.62725163e-02,  2.11819410e-02,  3.09167683e-01,
        -1.20339662e-01,  2.78430115e-02, -3.24749351e-02,
         1.56801343e-01, -4.60609943e-02, -5.07004149e-02,
         8.60126615e-02, -3.14651102e-01,  6.64648116e-02,
        -4.52267155e-02, -2.28603289e-01, -4.15736064e-03,
        -8.52170587e-02,  2.26313770e-02,  1.12070918e-01,
        -5.83220050e-02, -1.87781397e-02,  1.49590924e-01,
         4.51579466e-02,  2.63114721e-02,  2.51139879e-01,
        -1.11349728e-02,  3.68019603e-02,  5.77121750e-02,
        -8.66373926e-02,  1.03979386e-01,  9.46413279e-02,
         5.80178834e-02,  1.73296500e-02, -3.67436148e-02,
         5.56146614e-02, -8.98956656e-02,  9.96275246e-02,
        -8.54976848e-02, -1.43098727e-01,  7.12065324e-02,
        -3.82886454e-02,  4.84264195e-02,  6.11877367e-02,
        -1.15864702e-01, -7.40967393e-02,  1.87370226e-01,
         9.48870648e-03, -1.81636102e-02,  6.62714243e-02],
       [-2.11746112e-01,  1.89640537e-01, -1.33617744e-01,
         1.25973612e-01, -4.19104844e-02,  1.28957301e-01,
         1.97618902e-01,  8.55843946e-02,  9.90888551e-02,
        -2.28075907e-04, -6.24334142e-02,  1.18131660e-01,
         5.55229783e-02,  9.97042209e-02,  8.50146711e-02,
         6.27841577e-02,  3.38620655e-02,  6.34215623e-02,
         5.67338876e-02, -2.19288096e-01, -7.62800202e-02,
         3.66223417e-02, -1.39609858e-01, -2.58823577e-02,
        -1.42242447e-01,  7.58688524e-02, -3.01142540e-02,
         2.35634848e-01,  9.17428285e-02, -7.56797716e-02,
        -4.22896519e-02,  3.99045274e-02,  1.44844353e-01,
         2.73618847e-01, -9.71094444e-02, -1.19498119e-01,
         5.58906756e-02,  7.89635405e-02, -7.25818053e-02,
        -4.21624221e-02,  6.38406947e-02, -1.24478443e-02,
        -5.76142315e-03,  1.63006052e-01, -2.10663810e-01,
         1.47515655e-01,  1.19425565e-01,  9.39709470e-02,
         9.61773396e-02, -1.85008153e-01, -1.39060542e-01,
         4.44086157e-02, -1.14740364e-01,  9.79532301e-02,
        -1.14374131e-01, -6.81623071e-02, -6.78956285e-02,
         5.15916049e-02, -8.99596959e-02, -9.27498639e-02,
        -1.17294654e-01, -6.47971183e-02,  5.51512465e-02,
        -6.10040240e-02, -6.48840740e-02,  9.40034837e-02,
         2.89320722e-02,  1.66067049e-01,  5.20507991e-02,
        -9.64686498e-02,  8.54817778e-03,  5.77901192e-02,
         1.06963165e-01, -8.96497741e-02, -2.01889407e-02,
        -4.09610122e-02, -5.64837381e-02, -7.52695203e-02,
         2.25587353e-01, -5.23859635e-02, -7.97455460e-02,
         1.11068189e-01,  2.72758398e-02, -9.18446388e-03],
       [ 1.21604018e-01,  1.87982559e-01, -1.81270409e-02,
         7.28732615e-04,  1.77294575e-02,  9.35333446e-02,
        -3.78647596e-02,  1.14768974e-01, -1.82478372e-02,
         3.35557712e-03,  4.32613455e-02, -4.10247557e-02,
         2.68441979e-02,  2.30846018e-01, -8.35887492e-02,
        -7.63691310e-03,  3.60063054e-02,  5.06021008e-02,
        -2.50575934e-02, -2.80244295e-02,  2.00676583e-02,
         2.83660684e-02, -1.13769330e-01, -1.31935224e-01,
        -1.52257413e-01,  8.63761604e-02,  1.12767138e-01,
         1.66124523e-01,  7.99199343e-02,  3.47341597e-01,
         1.72775179e-01, -4.11485210e-02,  2.60989457e-01,
        -1.60238206e-01, -7.71726444e-02, -1.31295785e-01,
        -2.29249969e-02,  1.51048079e-02, -1.48213014e-01,
        -1.07657529e-01,  1.94157958e-02, -6.98439330e-02,
        -9.42335948e-02,  1.30497053e-01,  1.13960348e-01,
         1.12334331e-02, -2.73598105e-01, -7.66950175e-02,
        -7.14385360e-02, -3.25108618e-01, -1.04289323e-01,
        -1.09340258e-01, -4.80446629e-02,  9.01763421e-03,
         6.55894578e-02,  5.45367859e-02, -4.13684770e-02,
        -4.03106548e-02,  4.39720079e-02,  1.25299618e-01,
         2.56336391e-01,  5.56030534e-02,  1.46888688e-01,
        -1.64843634e-01, -6.45271093e-02, -7.94134885e-02,
        -8.50677043e-02, -4.90868464e-02, -5.82966022e-02,
         1.44116785e-02, -3.20953242e-02, -1.80012230e-02,
         6.80460557e-02, -5.33749089e-02,  7.57444948e-02,
        -2.27761924e-01, -9.26080123e-02,  8.96265432e-02,
        -2.87684143e-01, -2.00615555e-01,  9.74475667e-02,
         1.57921657e-01,  7.64335841e-02,  4.19618003e-02],
       [-6.63026795e-03, -4.37093191e-02,  1.16438985e-01,
        -1.04614429e-01, -5.51287159e-02, -1.71409827e-02,
        -1.23429492e-01,  2.63150409e-02,  4.99213226e-02,
        -7.82808010e-03,  3.01579982e-01, -1.23711333e-01,
         5.43379337e-02,  6.11834861e-02, -1.05345756e-01,
         3.55982175e-03,  3.42530645e-02, -9.29870680e-02,
        -3.11119668e-02,  2.94956807e-02,  7.00467080e-02,
        -1.67251125e-01,  3.77334237e-01, -4.88243401e-02,
         3.01104397e-01,  7.70260692e-02,  8.48766137e-03,
        -2.09042758e-01, -9.67088267e-02, -2.71646619e-01,
        -2.51258522e-01, -2.53930725e-02, -1.35556251e-01,
        -7.56627619e-02,  3.49482261e-02,  2.54979618e-02,
         4.05742973e-02, -8.44594762e-02,  3.09530590e-02,
         1.12556837e-01,  7.19550392e-03, -9.26848128e-02,
        -1.65079847e-01, -1.85816720e-01, -8.63068998e-02,
        -1.17027596e-01, -1.08932331e-01, -1.02123328e-01,
        -1.79617796e-02,  1.28928155e-01,  1.01681128e-01,
         1.00000612e-01, -5.42918444e-02, -1.95397899e-01,
         9.10263658e-02, -1.44069679e-02,  2.15167493e-01,
        -1.02390304e-01,  2.68180529e-03, -1.62516087e-01,
        -8.29994902e-02,  2.00267825e-02,  7.52913393e-03,
         3.04421365e-01, -2.53602378e-02,  3.16899270e-02,
        -5.53298295e-02, -9.54329669e-02, -1.12000257e-01,
        -1.02428295e-01,  1.21930189e-01,  2.41531264e-02,
        -1.02285683e-01,  2.42906511e-02, -6.83495924e-02,
         1.06696375e-01, -9.29544717e-02, -1.31961584e-01,
         2.10091814e-01,  1.43029287e-01, -1.65363386e-01,
         3.71698029e-02, -7.85870701e-02, -2.78661344e-02],
       [-9.69848707e-02, -9.61546823e-02, -6.07867278e-02,
         1.43992960e-01, -1.06657483e-01, -9.66333672e-02,
         6.54916242e-02, -1.20788135e-01, -6.59733638e-02,
         7.42647424e-02, -8.82022977e-02,  2.31494710e-01,
        -4.10694908e-03, -7.58434013e-02, -4.24476676e-02,
         1.07836477e-01,  5.58654107e-02,  4.13029306e-02,
         1.57604404e-02, -1.49932176e-01, -2.26832181e-02,
        -3.10284621e-03, -6.51853159e-02, -5.08930124e-02,
        -8.71210843e-02,  1.05051938e-02,  5.56543767e-02,
         1.14151694e-01,  1.62376203e-02,  1.89788565e-01,
         7.43487477e-02,  2.30342254e-01, -2.64884643e-02,
         3.05444393e-02,  6.03928789e-02, -5.40819541e-02,
        -5.16772568e-02, -8.01044703e-02,  2.68553227e-01,
        -1.65068954e-01, -9.61551219e-02, -9.73661318e-02,
        -7.12456405e-02,  2.37038851e-01, -9.82519612e-02,
         1.03944406e-01,  2.00439066e-01, -4.58803996e-02,
        -4.06334400e-02,  1.27173334e-01, -3.97598706e-02,
         1.94755316e-01,  4.76736575e-03,  5.23136184e-02,
         3.25108767e-02,  1.23113811e-01, -3.75602469e-02,
        -7.45429248e-02, -1.50793269e-01, -7.41373375e-02,
        -6.22863173e-02, -3.08670849e-03, -1.20428102e-02,
        -8.67540911e-02,  5.13623618e-02, -4.47891131e-02,
        -1.38103753e-01, -3.16828154e-02,  7.37263784e-02,
         9.55511481e-02, -1.08426444e-01, -6.64871261e-02,
        -8.04295242e-02,  9.64502543e-02, -9.00428742e-02,
         7.16428831e-02,  9.19781905e-03,  7.87589177e-02,
         4.80621569e-02,  2.13543341e-01,  2.12223411e-01,
        -5.28635941e-02,  3.00992932e-02, -5.65157682e-02],
       [-1.34106219e-01,  2.67953668e-02, -1.35703012e-01,
         8.87783608e-06,  1.73682243e-01,  5.00406735e-02,
        -7.60488305e-03, -1.20779507e-01, -4.33458686e-02,
         4.91861859e-03,  1.06368914e-01, -9.75510329e-02,
        -7.45313708e-03, -8.49178657e-02, -5.42466640e-02,
         5.31180985e-02, -2.74807904e-02,  9.66387168e-02,
         6.39867932e-02,  1.89424664e-01, -1.03463270e-01,
        -1.88948144e-03,  1.42032579e-01, -4.65148501e-02,
        -1.06150089e-02, -9.92339700e-02, -2.12484021e-02,
        -1.91519290e-01,  7.25280344e-02, -1.95287585e-01,
        -1.50697371e-02, -1.09607324e-01, -8.20199773e-02,
         2.31419295e-01,  6.69250116e-02,  1.28010496e-01,
        -5.06370254e-02, -8.91244784e-02,  1.66779026e-01,
         1.07803866e-01,  1.06890857e-01,  9.93252769e-02,
         2.04854414e-01,  4.05603554e-03, -9.60798785e-02,
         1.54601395e-01, -1.22136533e-01, -6.15780018e-02,
         6.72262236e-02, -2.26972485e-03,  1.12258606e-01,
        -1.69288591e-02,  9.86451358e-02,  2.60277241e-02,
        -2.32736375e-02,  5.98321743e-02,  2.38169491e-01,
         1.06281854e-01, -4.46824655e-02, -5.23903854e-02,
        -8.13800246e-02,  1.27890974e-01, -9.29371640e-02,
         2.41626278e-02, -6.55293390e-02,  9.56649855e-02,
         4.29998189e-02, -2.58084480e-02, -2.17536781e-02,
         6.71475474e-03, -6.89059645e-02, -8.79989639e-02,
        -1.11684531e-01, -1.71265826e-01,  7.90437534e-02,
         3.17286998e-02,  1.01342499e-01,  1.34860855e-02,
         3.56132299e-01,  2.01688975e-01,  7.37266615e-02,
         1.77324302e-02, -1.05057396e-01,  1.07102819e-01]], dtype=float32), array([-0.1561002 , -0.02374   ,  0.00871559,  0.02984443, -0.11832822,
        0.0853652 , -0.06126815, -0.11367755, -0.03264276, -0.07606403],
      dtype=float32)], 270), ([array([[[[ 0.0561183 ,  0.11382436,  0.0514796 , -0.32258153,
          -0.39199385],
         [ 0.15162975,  0.3039337 ,  0.06226914, -0.1925825 ,
          -0.44273394],
         [-0.06518958,  0.20327996,  0.02460637, -0.02381271,
          -0.30431685],
         [ 0.05252881,  0.38967565,  0.3700861 ,  0.18045036,
          -0.09709352],
         [ 0.15689243,  0.24702108,  0.25255668,  0.26005524,
           0.29043302]]],


       [[[ 0.02592572, -0.02772777, -0.08656825, -0.12529285,
          -0.165979  ],
         [ 0.10607765,  0.16887614,  0.0503982 , -0.13636982,
          -0.09171385],
         [ 0.10088471, -0.07894826,  0.00552156, -0.09582487,
          -0.1529902 ],
         [ 0.15108094, -0.0102755 ,  0.04229512, -0.210361  ,
          -0.05986917],
         [ 0.23711401,  0.04190332, -0.02782516, -0.07849731,
          -0.17234086]]],


       [[[ 0.10497618,  0.06233646,  0.1084761 , -0.06210982,
           0.28593084],
         [-0.13070671, -0.23370156,  0.00973272,  0.10029505,
           0.13071616],
         [-0.09631521, -0.12192067, -0.2475861 ,  0.2759728 ,
           0.24485475],
         [-0.0609651 , -0.20763262, -0.10322424,  0.17879711,
           0.07833302],
         [-0.03542946, -0.20962939,  0.09924439,  0.23963737,
           0.07614213]]],


       [[[ 0.10454596,  0.05573941,  0.24778213,  0.14410636,
          -0.00259797],
         [-0.01605715, -0.03830605,  0.21482347,  0.33322504,
           0.30157146],
         [ 0.31265974,  0.3281846 ,  0.13523245, -0.11098354,
           0.22626044],
         [-0.09194507, -0.20805271, -0.164866  , -0.19655266,
           0.18886146],
         [ 0.01302007, -0.12457155, -0.17224295, -0.33042267,
          -0.30223525]]],


       [[[-0.16329716, -0.02826261,  0.19953907,  0.11826944,
          -0.17621309],
         [-0.11797529,  0.14439073, -0.09933183,  0.04350055,
           0.06128605],
         [ 0.20194201,  0.34530112,  0.14131263,  0.04314067,
           0.12236459],
         [ 0.32849804,  0.18858063,  0.14428669, -0.27482873,
          -0.08498736],
         [ 0.10129841,  0.1226051 , -0.22037663, -0.22484699,
          -0.00675183]]],


       [[[-0.06629832, -0.02735114, -0.13468413, -0.14621888,
          -0.04958619],
         [ 0.11911309, -0.07204316, -0.07480884, -0.2360513 ,
           0.13331032],
         [-0.2515452 , -0.20289814,  0.09189574, -0.19591945,
          -0.0418535 ],
         [ 0.10227482, -0.2096179 , -0.20820804, -0.14500342,
           0.22198986],
         [-0.14553912, -0.10233861, -0.20280051,  0.17260416,
           0.22496955]]]], dtype=float32), array([ 0.16610847,  0.09850611,  0.01148829,  0.04989838, -0.03975118,
        0.14516836], dtype=float32), array([[[[-1.02524020e-01, -1.13479353e-01, -6.50931671e-02,
          -1.82800084e-01, -1.49419963e-01],
         [ 2.92299837e-02,  4.75141853e-02, -9.56502184e-02,
           1.53229106e-02,  1.88200045e-02],
         [ 1.85231701e-01,  1.53583273e-01, -3.07653584e-02,
           3.40099782e-02, -5.67954443e-02],
         [ 2.51250574e-03,  1.60670076e-02,  1.37921229e-01,
          -5.90478666e-02, -1.06620520e-01],
         [-1.52381599e-01,  1.09868972e-02,  9.85518768e-02,
           1.60347931e-02, -3.91696990e-02]],

        [[-2.80024782e-02, -3.94371804e-03,  2.02587489e-02,
           3.11544668e-02,  1.04167238e-02],
         [-6.96800351e-02, -7.06328377e-02,  1.19063270e-03,
          -7.70509541e-02,  2.80776899e-02],
         [-4.30175886e-02,  3.05436999e-02,  5.50534762e-02,
          -6.73117191e-02, -8.48774388e-02],
         [-1.94351617e-02, -7.39850253e-02,  7.05499575e-02,
           5.76531067e-02, -4.02532406e-02],
         [ 4.28679138e-02, -3.99156176e-02,  1.44751724e-02,
           3.36278863e-02, -8.14293548e-02]],

        [[-1.10362798e-01, -7.73642361e-02, -7.17626959e-02,
          -1.85068212e-02,  3.06819733e-02],
         [-4.84531298e-02, -2.42448989e-02,  4.20599617e-02,
          -5.62108196e-02, -2.76959129e-02],
         [ 7.72197079e-03, -1.42890308e-02, -1.03777669e-01,
           1.64503455e-02, -8.80932808e-02],
         [ 1.59140527e-02,  9.20441225e-02,  6.84991032e-02,
           2.94816606e-02, -4.39876840e-02],
         [-4.29077186e-02,  1.19367301e-01, -1.19217508e-03,
           5.85254692e-02,  4.88068908e-02]],

        [[ 2.85579148e-03, -3.33159380e-02, -3.20608467e-02,
          -9.13047567e-02,  6.50243834e-02],
         [ 1.94730498e-02, -6.56714514e-02, -8.15183148e-02,
          -5.22947274e-02,  3.62885073e-02],
         [ 4.93912548e-02, -1.12068057e-02,  1.60594247e-02,
          -1.11412488e-01, -6.39001429e-02],
         [ 4.30878699e-02,  1.15690425e-01, -5.25477752e-02,
           7.50227496e-02,  3.68170664e-02],
         [-6.34198189e-02, -5.04953116e-02,  7.09831193e-02,
          -7.16992766e-02,  2.53722761e-02]],

        [[ 5.88405021e-02,  9.56065115e-03, -9.78946984e-02,
          -5.95713556e-02, -3.67735773e-02],
         [ 3.80794853e-02, -1.13543856e-03, -1.06662780e-01,
          -9.95833874e-02, -1.05403155e-01],
         [ 5.81975766e-02,  8.78392383e-02,  8.54529887e-02,
           2.98827719e-02, -2.97043994e-02],
         [ 3.08972597e-02,  3.45315002e-02, -1.28375357e-02,
          -5.19712688e-03, -4.63177189e-02],
         [-8.29847902e-02, -4.16324399e-02,  3.06870118e-02,
          -7.06691369e-02, -6.67632371e-02]],

        [[-8.01134929e-02, -4.83426824e-02, -2.03296775e-03,
          -3.18483524e-02, -8.15493837e-02],
         [-9.21413600e-02,  2.84407772e-02,  7.14134350e-02,
           1.52636636e-02, -5.37930764e-02],
         [ 5.90564683e-03, -6.21482246e-02, -6.89036921e-02,
          -5.03862016e-02, -1.13969957e-02],
         [-1.53047347e-03, -5.05012088e-02,  4.96502705e-02,
          -8.21638703e-02,  7.98874162e-03],
         [ 1.48101756e-02,  6.70358539e-02,  5.82946055e-02,
           4.95114066e-02,  6.79456666e-02]]],


       [[[ 2.71512754e-02,  2.23151501e-02, -5.31718461e-03,
          -3.44045982e-02,  5.36591932e-02],
         [-7.71528259e-02,  6.19838387e-03, -3.00029628e-02,
           6.10769950e-02,  1.16006039e-01],
         [-1.38280898e-01, -8.01674351e-02,  8.92290566e-03,
           1.02822874e-02,  5.32901846e-02],
         [-1.20445276e-02, -1.54080719e-01, -1.52709007e-01,
          -7.93133304e-02, -1.31747603e-01],
         [-1.92560963e-02,  1.64582338e-02, -6.16692454e-02,
          -1.37631968e-01,  8.90641939e-03]],

        [[-1.13685215e-02, -1.11781824e-02, -3.76492888e-02,
          -3.51881348e-02,  2.96973437e-02],
         [-6.00665547e-02, -5.32359816e-02, -6.69047385e-02,
          -2.81411074e-02,  5.63527308e-02],
         [-7.22505674e-02, -3.50092463e-02, -6.06021993e-02,
           5.52204214e-02, -2.06437670e-02],
         [-3.17432806e-02,  7.69068748e-02,  4.03266251e-02,
          -7.97038153e-02,  1.08127147e-02],
         [-3.96128045e-03,  7.22783059e-02, -1.41153364e-02,
           8.02577958e-02, -2.58779433e-02]],

        [[-6.41330257e-02, -1.18657211e-02, -5.33439964e-03,
           1.08760178e-01, -2.12673228e-02],
         [-1.19515127e-02,  6.79381639e-02,  3.32798511e-02,
           9.53813493e-02, -5.84301911e-02],
         [ 4.81674932e-02,  8.49897265e-02, -6.27573505e-02,
          -1.02510136e-02,  6.36672080e-02],
         [-2.26797201e-02, -9.04800668e-02,  3.49798985e-02,
           4.19262946e-02, -6.44139946e-02],
         [-6.87643066e-02,  1.91948973e-02, -8.23431686e-02,
           7.59378299e-02, -1.07792430e-02]],

        [[ 9.43526253e-02, -7.91689306e-02,  3.07546388e-02,
          -5.43995835e-02,  1.24276422e-01],
         [ 1.33979708e-01, -1.28760992e-04,  5.94876073e-02,
           8.35345685e-02,  1.12551130e-01],
         [-4.96322587e-02,  6.78048655e-03,  7.49426261e-02,
           8.09590593e-02,  9.04275104e-02],
         [-8.91669393e-02, -2.76771523e-02,  6.93798438e-02,
          -3.62666813e-03, -1.39821079e-02],
         [-5.00387996e-02,  1.77301187e-02, -9.96254310e-02,
          -1.34122834e-01, -1.03179321e-01]],

        [[ 6.36199415e-02, -2.89667025e-02,  2.89328881e-02,
           1.07109986e-01,  1.36121601e-01],
         [ 2.50633284e-02, -1.34924054e-03,  6.94133267e-02,
           5.99563345e-02, -1.86791010e-02],
         [-3.91216800e-02,  2.47971155e-02, -8.13414380e-02,
           2.22189073e-02,  4.20257114e-02],
         [ 4.99643125e-02, -1.04799308e-01, -2.37672217e-02,
          -6.37731850e-02, -1.17824644e-01],
         [-1.42402956e-02,  3.33821960e-02, -7.00158477e-02,
          -6.24082796e-02,  3.59419471e-04]],

        [[-5.93956336e-02, -4.33823429e-02,  7.14655742e-02,
           4.63901982e-02, -4.44710702e-02],
         [-5.13954423e-02, -1.22691244e-02, -8.08280706e-02,
           1.25564402e-02, -7.86712840e-02],
         [-4.77643870e-02,  7.77500644e-02,  2.90529639e-03,
          -2.16100719e-02,  8.69977195e-03],
         [ 3.95594388e-02,  1.06301820e-02, -8.01631510e-02,
          -2.72930358e-02, -5.16415611e-02],
         [-2.01434549e-02,  4.74590845e-02,  6.09431267e-02,
           4.64911647e-02, -5.51600046e-02]]],


       [[[-3.32519449e-02, -1.68316916e-01, -2.06929028e-01,
          -2.38999799e-01, -2.94314057e-01],
         [ 1.26888752e-01, -8.34329352e-02, -1.29845262e-01,
          -7.56456107e-02, -1.02721252e-01],
         [ 1.66651979e-01,  5.56237809e-02, -5.52429073e-02,
          -6.57200813e-03, -3.64590175e-02],
         [ 1.09281816e-01,  3.52723934e-02,  1.26395032e-01,
           4.39081006e-02,  8.23840275e-02],
         [ 1.82166681e-01,  1.16820343e-01,  1.39612645e-01,
           1.62822485e-01,  1.13603212e-01]],

        [[-4.15903144e-02, -6.43291846e-02, -2.12950017e-02,
           5.91047714e-03,  6.58919588e-02],
         [ 1.01984888e-01,  9.03051794e-02,  3.11709698e-02,
           9.40736309e-02,  6.61531091e-02],
         [ 7.61949867e-02,  6.69395551e-02,  1.47356524e-03,
           9.22195241e-02, -5.11063300e-02],
         [ 5.72668277e-02, -6.31674975e-02, -6.44878820e-02,
          -2.56454870e-02, -7.18408227e-02],
         [-6.64302856e-02, -1.02138566e-02,  5.98582178e-02,
           2.70251669e-02,  5.05348593e-02]],

        [[-5.02019422e-03,  6.05726242e-02,  3.37682143e-02,
          -7.00256303e-02, -4.45816442e-02],
         [-8.47750083e-02, -7.03947693e-02,  4.95545119e-02,
           3.23486626e-02,  1.14423618e-01],
         [-9.24373120e-02,  6.79633319e-02, -5.96099384e-02,
           2.76632048e-02,  8.59718472e-02],
         [-7.72069618e-02,  7.14192390e-02,  6.20480739e-02,
           6.91596121e-02,  5.16502820e-02],
         [ 2.86005791e-02,  1.27871819e-02, -3.14587280e-02,
          -2.80853435e-02, -2.54224855e-02]],

        [[-6.20861202e-02, -8.54282528e-02, -1.18175432e-01,
          -1.21048734e-01, -8.18663165e-02],
         [-1.55968711e-01, -3.91328298e-02, -9.40195993e-02,
          -3.97118330e-02, -1.11237220e-01],
         [-7.13493600e-02, -5.93152046e-02, -2.38180272e-02,
          -9.02101249e-02, -1.23469085e-01],
         [-3.73922773e-02, -8.46635774e-02, -2.33873557e-02,
          -7.63712898e-02, -9.62024629e-02],
         [ 4.75897752e-02, -1.11039644e-02, -1.71805006e-02,
           3.82858999e-02,  1.50966914e-02]],

        [[ 4.83883992e-02, -2.71660183e-03, -1.40223965e-01,
          -6.26446754e-02, -6.48146197e-02],
         [-3.36618684e-02,  1.34149166e-02, -8.63152370e-02,
          -1.28706172e-01, -9.62322354e-02],
         [ 7.59317772e-03, -8.10024142e-03, -1.68741103e-02,
          -1.94732361e-02, -4.75311391e-02],
         [ 8.60859305e-02,  6.91125244e-02, -9.05117393e-02,
           3.82417478e-02,  3.62746790e-02],
         [-1.42504787e-02,  3.33344713e-02,  2.19655205e-02,
           1.41628131e-01,  2.26220507e-02]],

        [[ 1.98987462e-02,  3.25391665e-02, -1.97948460e-02,
           6.59645498e-02,  2.90779304e-03],
         [ 2.50189155e-02,  8.97757635e-02, -5.81878126e-02,
           6.66650608e-02,  6.89033642e-02],
         [-4.36176769e-02, -3.47743183e-02,  9.23294760e-03,
          -2.79789884e-02,  7.20963180e-02],
         [-1.07229039e-01,  7.13164136e-02,  4.66239229e-02,
          -6.39749765e-02,  5.73257320e-02],
         [-6.68070316e-02, -1.82375107e-02, -3.93317780e-03,
          -6.40864670e-02, -2.13046353e-02]]],


       ...,


       [[[ 6.85490891e-02, -5.26334532e-03,  1.28773078e-02,
           4.77208383e-02, -1.11463182e-01],
         [-3.22688632e-02,  2.62837894e-02,  8.54680315e-03,
          -7.60322362e-02,  8.22313875e-02],
         [-4.78336997e-02, -2.46093888e-02, -1.88213482e-01,
          -1.01336084e-01,  1.26627967e-01],
         [-1.06293604e-01, -6.78500906e-02, -1.51498929e-01,
           5.26164509e-02,  5.18952459e-02],
         [ 3.06254774e-02, -1.09913610e-01,  3.51532474e-02,
           1.06186911e-01,  9.96531397e-02]],

        [[-3.65402438e-02,  1.66731328e-02, -2.40776800e-02,
          -5.12488522e-02, -8.14018212e-03],
         [-1.68980975e-02,  3.35861696e-03, -1.65871046e-02,
           5.42391688e-02,  1.11932091e-01],
         [ 5.93661703e-02,  6.24146201e-02, -5.05060628e-02,
           6.93158209e-02,  1.02836765e-01],
         [-3.56836319e-02,  6.05526846e-03, -3.64191681e-02,
           5.75502925e-02, -4.32975702e-02],
         [ 3.93821970e-02, -7.60361627e-02, -1.03522921e-02,
          -3.50730792e-02,  6.65623182e-03]],

        [[-3.66035700e-02, -2.90761162e-02,  1.40977083e-02,
           5.87875396e-02,  6.85686320e-02],
         [ 7.15770274e-02, -6.31884560e-02,  3.71965989e-02,
           1.50166508e-02,  1.79448705e-02],
         [-4.36319085e-03, -3.53375194e-03,  8.25076699e-02,
          -6.14546752e-03,  2.61370670e-02],
         [ 3.59131582e-02, -1.30130760e-02,  1.19863506e-02,
           1.40248805e-01,  2.52897963e-02],
         [-8.27947780e-02,  8.38075578e-02,  9.76448879e-02,
           5.51275276e-02, -1.04161106e-01]],

        [[-7.12503642e-02, -8.82097930e-02,  1.07341493e-02,
           2.10490152e-02, -4.23000101e-03],
         [ 5.33619784e-02,  2.45787129e-02, -4.46984991e-02,
          -9.48167667e-02, -8.27356800e-02],
         [-3.18673775e-02, -7.41719976e-02, -4.44627441e-02,
          -1.11369848e-01, -3.22868320e-04],
         [-1.88715383e-02,  1.31192682e-02, -1.43476769e-01,
          -9.55689922e-02,  1.80401374e-02],
         [-9.91520211e-02, -1.09378941e-01, -4.92553785e-02,
           8.12320635e-02,  8.36315379e-02]],

        [[-3.09957024e-02,  2.55432781e-02,  5.76501265e-02,
          -3.10739148e-02, -7.38086030e-02],
         [-3.79643291e-02,  2.57668253e-02, -8.13059956e-02,
           1.48027355e-03,  4.01485041e-02],
         [-2.49787513e-03,  5.15929144e-03, -9.38185211e-03,
          -1.18914753e-01, -4.02889848e-02],
         [ 6.09863475e-02, -9.34627727e-02, -2.20600888e-02,
          -9.78916511e-02,  4.94932011e-02],
         [-4.76772040e-02,  9.82293626e-04,  5.24708244e-04,
           1.33470356e-01,  1.42801836e-01]],

        [[-3.77061628e-02,  1.13680195e-02,  2.13336889e-02,
