num_rounds: 10
num_clients: 10
batch_size: 20
num_classes: 10
num_clients_per_round_fit: 3
num_clients_per_round_eval: 9
config_fit:
  lr: 0.01
  momentum: 0.9
  local_epochs: 1

Using custom strategy
[2023-11-22 13:27:43,400][flwr][INFO] - Starting Flower simulation, config: ServerConfig(num_rounds=10, round_timeout=None)
[2023-11-22 13:27:45,514][flwr][INFO] - Flower VCE: Ray initialized with resources: {'memory': 7545521767.0, 'node:__internal_head__': 1.0, 'object_store_memory': 2147483648.0, 'node:127.0.0.1': 1.0, 'CPU': 8.0}
[2023-11-22 13:27:45,515][flwr][INFO] - Flower VCE: Resources for each Virtual Client: {'num_cpus': 2, 'num_gpus': 0.0}
[2023-11-22 13:27:45,524][flwr][INFO] - Flower VCE: Creating VirtualClientEngineActorPool with 4 actors
[2023-11-22 13:27:45,524][flwr][INFO] - Initializing global parameters
[2023-11-22 13:27:45,524][flwr][INFO] - Requesting initial parameters from one random client
[2023-11-22 13:27:46,459][flwr][INFO] - Received initial parameters from one random client
[2023-11-22 13:27:46,459][flwr][INFO] - Evaluating initial parameters
[2023-11-22 13:27:47,162][flwr][INFO] - initial parameters (loss, other metrics): 182.25885605812073, {'accuracy': 0.1114}
[2023-11-22 13:27:47,162][flwr][INFO] - FL starting
[2023-11-22 13:27:47,162][flwr][DEBUG] - fit_round 1: strategy sampled 3 clients (out of 10)
[2023-11-22 13:27:50,009][flwr][DEBUG] - fit_round 1 received 3 results and 0 failures
aggregate fit
Aggregate Results: 
3
[([array([[[[-0.12076871, -0.1422853 , -0.23044643, -0.2156044 ,
           0.1079853 ],
         [ 0.1124532 ,  0.04609578, -0.09076001,  0.05118698,
           0.28059638],
         [-0.11591887, -0.15596917, -0.01784497,  0.17390127,
           0.30840605],
         [-0.07038386,  0.26972285,  0.08901011,  0.16773832,
           0.09983318],
         [ 0.02196719,  0.33012414,  0.33459637,  0.28561887,
           0.27064958]]],


       [[[-0.12262187,  0.19580495,  0.02993532, -0.02102726,
          -0.05604515],
         [-0.16878305,  0.19562967,  0.2610215 ,  0.11749616,
          -0.08824515],
         [-0.04548071,  0.3111079 ,  0.14113154, -0.1146309 ,
          -0.09486128],
         [-0.09799073,  0.20785603,  0.23089817,  0.05473546,
           0.15231304],
         [ 0.15716057,  0.16532525, -0.02231694,  0.10415572,
          -0.18257083]]],


       [[[ 0.15333073, -0.13409524,  0.00630011, -0.19795248,
           0.00547988],
         [-0.00463032,  0.26494458,  0.17016608, -0.00061576,
           0.10547547],
         [-0.15525155, -0.13491787, -0.06226152, -0.09017401,
          -0.06983917],
         [ 0.05589288,  0.10900442,  0.16886479,  0.14045557,
          -0.12137078],
         [-0.10543634, -0.0991508 ,  0.08812102, -0.20217665,
          -0.21582142]]],


       [[[ 0.252852  ,  0.20320365,  0.14750323,  0.09739667,
          -0.29059756],
         [ 0.06909724,  0.37065125,  0.39191687,  0.29938817,
          -0.01676203],
         [-0.20821656, -0.06220591,  0.21246745,  0.18910088,
           0.3284602 ],
         [-0.1564284 , -0.2717595 ,  0.14932686,  0.07220869,
          -0.00374926],
         [-0.2455702 , -0.2260889 , -0.00521744,  0.0113189 ,
           0.22512046]]],


       [[[-0.0016039 , -0.19090123, -0.0752487 ,  0.05214823,
          -0.26312816],
         [ 0.21872395,  0.12476075,  0.05739183,  0.09840416,
          -0.14958107],
         [-0.07801809,  0.24331896,  0.19518563,  0.15725954,
           0.31609595],
         [ 0.23633023, -0.04719102,  0.30279613,  0.1512702 ,
           0.24532993],
         [ 0.03221449, -0.06546366, -0.04187012, -0.26604486,
          -0.18932411]]],


       [[[-0.03999159,  0.18171033,  0.18364297,  0.19148032,
          -0.00322074],
         [ 0.03308696, -0.07025529,  0.18186721, -0.04554661,
           0.05075935],
         [-0.26510414,  0.05182439,  0.01696454,  0.23290533,
           0.2228747 ],
         [-0.24804816, -0.1900508 ,  0.0864282 ,  0.17150472,
          -0.1256069 ],
         [-0.02805352, -0.05176912,  0.06737411,  0.2611001 ,
          -0.07960001]]]], dtype=float32), array([ 0.03086921,  0.00801142,  0.08409399, -0.0450804 ,  0.19927372,
        0.1268313 ], dtype=float32), array([[[[-5.63470833e-03, -1.63930133e-01, -1.82163134e-01,
          -1.31509721e-01,  9.53312144e-02],
         [-1.72617119e-02, -3.70844789e-02, -1.19884960e-01,
           2.60558221e-02,  1.26770869e-01],
         [ 9.81065333e-02,  5.87687269e-02,  8.55839401e-02,
           1.86176375e-02, -1.61081906e-02],
         [ 9.46670547e-02,  4.92219441e-02,  3.73449251e-02,
           1.03797831e-01, -7.20179081e-02],
         [-6.42168298e-02, -8.41947570e-02, -9.35809836e-02,
          -4.82529961e-02,  1.00736059e-02]],

        [[ 5.68908565e-02,  7.40866959e-02, -1.33157358e-01,
          -1.18901782e-01, -9.81008410e-02],
         [-3.84524092e-02, -5.14612421e-02, -1.05472282e-01,
           2.96308589e-03, -4.67024092e-03],
         [ 6.77981004e-02,  2.05854867e-02,  8.81322101e-03,
          -4.62452173e-02, -8.41351226e-03],
         [-8.00479017e-03, -1.99040268e-02,  7.43525382e-03,
           6.82658628e-02,  1.13412969e-01],
         [-8.81698579e-02, -3.14182304e-02, -1.53623875e-02,
           4.90527637e-02,  6.96092248e-02]],

        [[-5.28341718e-02, -5.36184423e-02,  8.94538593e-03,
          -1.60196479e-02, -9.08072740e-02],
         [ 2.42252871e-02, -7.68328309e-02, -7.90943876e-02,
           2.78596170e-02,  2.40033232e-02],
         [-8.65628421e-02,  5.84858768e-02, -2.39568334e-02,
          -6.37682006e-02, -3.75452302e-02],
         [ 2.56739631e-02,  3.68322060e-02,  6.00215979e-02,
           2.59459373e-02,  5.79590462e-02],
         [ 7.50503794e-04,  5.54311723e-02, -6.13809638e-02,
          -5.16800024e-02,  4.99806926e-02]],

        [[-1.06855974e-01,  8.70527774e-02, -8.98413658e-02,
          -1.16768569e-01,  3.94402491e-03],
         [-2.65628230e-02, -8.86211246e-02, -2.00147461e-02,
          -1.42197892e-01,  3.64195853e-02],
         [-9.66893360e-02, -1.32019401e-01, -1.67056955e-02,
          -6.14780113e-02,  4.78613600e-02],
         [-1.42882476e-02, -4.63908305e-03,  1.07740276e-01,
           1.07870884e-01,  7.78899416e-02],
         [-2.59796809e-02,  1.10284932e-01, -1.25668442e-03,
          -5.02611101e-02,  4.20248471e-02]],

        [[ 9.30312835e-03, -4.25022282e-02, -1.12677403e-01,
          -1.50095567e-01, -1.07075967e-01],
         [-5.35116866e-02, -7.22855926e-02, -6.71680048e-02,
          -1.58896953e-01, -4.72657122e-02],
         [ 5.70936352e-02,  1.55002465e-02, -1.69487149e-02,
          -4.29440737e-02,  3.24666053e-02],
         [ 1.48487419e-01,  8.94444138e-02,  7.40156472e-02,
          -1.06513817e-02, -2.85766888e-02],
         [ 1.45445634e-02, -9.72431060e-03,  1.72909759e-02,
          -1.17357681e-02,  8.97367746e-02]],

        [[-8.36339444e-02, -2.80862655e-02, -4.35640439e-02,
          -6.32695928e-02,  3.99326421e-02],
         [ 2.98929140e-02, -6.14780746e-02,  1.78472400e-02,
          -5.82929514e-02,  4.06409465e-02],
         [-3.72859389e-02, -1.10558167e-01,  1.78264380e-02,
           3.96466628e-02, -5.51008545e-02],
         [ 3.73897776e-02, -8.60825479e-02, -4.81630228e-02,
           9.69748795e-02,  4.87476699e-02],
         [-5.64231817e-03,  2.67761406e-02, -1.23989489e-02,
          -8.97938665e-03,  2.49252431e-02]]],


       [[[-1.21202409e-01, -5.33292117e-03,  5.76120205e-02,
           5.56580983e-02,  4.27203365e-02],
         [-8.53924453e-02,  8.90787095e-02,  1.31273702e-01,
           1.42934145e-02, -4.63854298e-02],
         [-4.26728129e-02,  1.62778914e-01,  8.71815532e-02,
          -1.04253469e-02, -1.78110544e-02],
         [ 9.44815949e-02,  8.42581838e-02, -6.78091049e-02,
          -1.09244011e-01, -8.74123350e-02],
         [-6.03018068e-02, -1.36848167e-01, -1.17787570e-01,
          -1.58179086e-02, -1.48159042e-02]],

        [[-9.90476012e-02, -4.95420098e-02, -3.28906402e-02,
          -5.02647134e-03,  1.83672942e-02],
         [-1.08520068e-01, -9.63164784e-05,  4.60196324e-02,
          -2.17634682e-02,  1.13556832e-01],
         [-1.21479690e-01,  4.13498208e-02,  1.42728202e-02,
           9.81269702e-02,  6.58771321e-02],
         [-1.88141894e-02, -1.72842219e-02, -6.19800761e-02,
          -4.45769802e-02, -3.05365417e-02],
         [-5.51215634e-02, -6.58534421e-03, -3.86284553e-02,
          -2.25199498e-02,  4.50568460e-03]],

        [[-1.75101086e-02,  2.98345126e-02,  2.05959193e-02,
          -3.79106961e-02, -3.16459499e-02],
         [-3.81661206e-02, -8.89874175e-02, -3.10833771e-02,
          -4.53758687e-02,  1.33556314e-03],
         [ 4.19169962e-02, -5.74531071e-02,  7.01040998e-02,
          -6.75464347e-02, -4.51150537e-02],
         [ 4.88815978e-02,  2.17090752e-02, -3.40146907e-02,
           5.94917312e-03,  5.09497635e-02],
         [-9.25890952e-02, -5.36238365e-02, -5.23403287e-02,
          -1.21556474e-02,  6.38555214e-02]],

        [[-7.80673102e-02,  8.31903592e-02,  9.35161859e-02,
          -9.18163266e-03, -9.61802676e-02],
         [ 1.27385221e-02, -9.49025974e-02,  2.84585990e-02,
           3.64690982e-02,  5.80216870e-02],
         [-1.21636815e-01, -3.04057039e-02, -1.08391896e-01,
           7.41843646e-03,  1.46028399e-02],
         [-2.15716500e-04, -1.64127760e-02, -5.73159233e-02,
           1.07597478e-03,  1.30424043e-02],
         [ 3.08905412e-02,  1.73580814e-02,  1.47519587e-02,
          -7.46739097e-03, -6.12380840e-02]],

        [[-1.03517193e-02, -8.50448757e-03,  4.28070351e-02,
          -3.03418818e-03, -5.46277873e-02],
         [-1.39717549e-01, -3.19965333e-02,  2.34300457e-02,
           4.79894206e-02,  1.00724101e-01],
         [ 1.42316502e-02,  4.33945730e-02,  8.29106197e-03,
           8.73796567e-02,  2.04696674e-02],
         [-1.27041442e-02,  2.95009799e-02, -2.89200917e-02,
          -2.08296087e-02,  2.15042457e-02],
         [-1.74764637e-03, -3.22402865e-02, -1.03493035e-01,
          -5.76208644e-02, -1.31335333e-01]],

        [[ 3.91386785e-02,  1.84858181e-02, -1.66603103e-02,
           8.07672963e-02,  1.24422694e-02],
         [ 6.00219779e-02, -3.23548093e-02,  3.15326825e-02,
           8.62344280e-02,  2.38158181e-02],
         [ 2.72776559e-02, -3.24875414e-02, -7.05723166e-02,
          -4.38751988e-02, -9.11493823e-02],
         [-5.68469204e-02,  5.52971065e-02,  3.58189605e-02,
          -2.05975659e-02, -6.71318099e-02],
         [-6.79892823e-02,  1.89150814e-02, -7.41223097e-02,
          -8.17126855e-02, -2.95919180e-02]]],


       [[[-4.39771637e-02, -1.67506397e-01, -6.92881942e-02,
          -8.58772323e-02, -5.81386946e-02],
         [-1.14976980e-01, -7.10698441e-02, -3.24363299e-02,
           4.46399450e-02, -2.26843804e-02],
         [-7.92483315e-02,  1.30190060e-01,  1.39369294e-01,
           9.20815766e-02, -5.21601811e-02],
         [ 8.89860466e-02,  8.87025520e-02,  3.62132825e-02,
          -1.02716222e-01, -3.07011674e-03],
         [ 8.84527564e-02, -3.34547758e-02, -4.72155884e-02,
          -5.22713251e-02, -7.30711967e-03]],

        [[ 1.73220523e-02, -8.49776249e-03, -1.09818950e-01,
          -1.00974180e-02, -3.86566222e-02],
         [-5.57395779e-02, -1.44436106e-01, -1.02797642e-01,
          -3.46927382e-02, -6.01964779e-02],
         [-8.23467523e-02, -2.09358856e-02,  1.03730842e-01,
           7.73998350e-02, -4.02936377e-02],
         [-4.49877456e-02,  1.24411613e-01,  1.45412177e-01,
           4.11471836e-02, -1.07410826e-01],
         [ 8.43361393e-02, -5.83959511e-03, -2.02780850e-02,
          -2.97549982e-02,  3.46122459e-02]],

        [[-2.57606599e-02,  7.24891946e-02,  8.74660816e-03,
           2.27731206e-02,  8.35816115e-02],
         [-8.22981223e-02,  4.71345410e-02,  1.33890277e-02,
           6.65688962e-02, -4.86416183e-02],
         [ 1.18564228e-02, -3.74975130e-02,  1.44824628e-02,
           5.64032495e-02,  5.29420227e-02],
         [ 3.20419408e-02,  4.18259017e-02,  7.51367509e-02,
           2.67075133e-02, -4.79307771e-02],
         [ 3.75726633e-02,  5.55837043e-02,  1.98777616e-02,
          -6.78527802e-02, -6.65701367e-03]],

        [[ 5.31485304e-03, -6.89077424e-03, -3.55199836e-02,
           3.72421630e-02, -2.75207236e-02],
         [-1.34373620e-01, -1.30946666e-01, -8.54211822e-02,
          -1.98624358e-02, -4.32841517e-02],
         [-1.25860780e-01, -9.07864571e-02, -1.52297959e-01,
           5.98945841e-03,  3.47244553e-02],
         [-9.40371156e-02, -3.91220534e-03,  5.33730611e-02,
          -4.65587573e-03,  1.05335966e-01],
         [-4.39782292e-02,  7.94865249e-04,  5.90978377e-02,
           3.91408578e-02, -4.41448353e-02]],

        [[ 3.03785205e-02, -1.21581502e-01, -2.13450156e-02,
           4.90202829e-02, -7.20039606e-02],
         [-8.42248201e-02, -1.07096694e-01, -1.09699126e-02,
          -8.54145437e-02, -3.14244011e-04],
         [-1.50909126e-01,  1.35225739e-04,  1.31160542e-01,
           1.29693925e-01,  3.42863053e-03],
         [ 7.81334341e-02,  7.18173087e-02,  6.78168982e-02,
           5.58433868e-03, -6.27190620e-02],
         [-3.73805873e-02,  9.29069798e-03,  1.66196991e-02,
          -8.93396661e-02, -5.68605475e-02]],

        [[ 2.23013572e-02, -1.37965158e-02,  4.26799096e-02,
           3.49006429e-02,  3.19001358e-03],
         [ 4.73897755e-02, -8.42577815e-02, -3.68312635e-02,
          -7.08491504e-02, -1.31086810e-02],
         [-1.12953052e-01,  3.71794701e-02, -1.83120593e-02,
          -3.98125313e-03, -5.04203420e-03],
         [-7.54567087e-02,  1.06789600e-02, -6.50988370e-02,
           2.48866212e-02, -1.44039067e-02],
         [ 3.59037481e-02,  1.15583479e-01, -6.26318231e-02,
          -3.94258387e-02,  7.58852810e-02]]],


       ...,


       [[[ 3.02369967e-02, -3.02097239e-02, -9.00516808e-02,
          -5.15383258e-02, -7.74031654e-02],
         [-2.63629332e-02, -1.51241690e-01,  4.28587757e-02,
           5.68547435e-02,  3.03889299e-03],
         [-9.39351469e-02, -4.30208556e-02,  1.20009311e-01,
           1.40547082e-01, -8.57525598e-03],
         [-2.45303642e-02,  1.52945846e-01,  8.67495313e-02,
           7.53616989e-02, -7.99576119e-02],
         [ 1.22669324e-01,  1.95472986e-01,  8.59271958e-02,
           9.24922153e-02, -4.24376540e-02]],

        [[ 3.04245185e-02,  6.43465593e-02, -2.28083320e-02,
          -1.14943415e-01, -2.02789977e-02],
         [ 6.15211800e-02, -5.05608581e-02, -1.97171699e-02,
          -4.85368036e-02,  8.11418593e-02],
         [-8.13035816e-02, -6.16944395e-02,  3.27081420e-02,
           7.11306930e-02, -4.01354805e-02],
         [-8.59418660e-02,  6.44238368e-02,  1.24281861e-01,
           1.91848613e-02, -5.23985270e-03],
         [ 3.35675180e-02, -2.77091237e-03,  3.90060581e-02,
           2.61638295e-02,  5.67718735e-03]],

        [[ 5.13182692e-02, -6.43067807e-02, -6.88278452e-02,
           5.76024055e-02, -5.67417815e-02],
         [-1.60479769e-02,  6.79081827e-02, -6.67991936e-02,
          -3.89560536e-02,  5.67572303e-02],
         [-6.16990738e-02, -5.80147207e-02,  1.96074834e-03,
           2.62953304e-02, -3.88223007e-02],
         [-8.76861736e-02, -5.84571064e-02, -1.13563631e-02,
          -3.40855122e-02,  4.18742523e-02],
         [-3.51851573e-03, -4.09554504e-03, -6.78829625e-02,
          -6.65832534e-02,  9.69918892e-02]],

        [[ 4.52613980e-02, -3.20449695e-02,  1.38189935e-03,
          -1.34986714e-01, -1.67003274e-01],
         [ 2.44355272e-03, -5.69191948e-02,  2.89486535e-02,
           3.94269936e-02, -1.44453213e-01],
         [-3.93739231e-02, -7.29041770e-02, -3.79416570e-02,
          -1.05020609e-02, -4.12153527e-02],
         [-5.23790419e-02, -9.72111970e-02, -4.94357906e-02,
           6.39277026e-02,  4.77463752e-02],
         [-4.77621146e-02,  4.37538512e-02, -6.56500086e-02,
           5.08779548e-02,  6.70434833e-02]],

        [[ 6.43589422e-02, -8.18440542e-02, -1.19446672e-01,
          -1.67696252e-01, -1.33850783e-01],
         [-1.52539434e-02,  1.76162145e-03, -6.50673313e-03,
          -6.26727194e-02,  7.06746280e-02],
         [-7.62391239e-02,  8.98489729e-03, -6.37377873e-02,
           6.46115318e-02, -2.32818499e-02],
         [-1.79012830e-03, -1.04575558e-02,  3.41961831e-02,
           9.47127715e-02, -9.32138693e-03],
         [ 7.53327459e-02,  5.40265515e-02,  8.00419897e-02,
           2.71239374e-02,  9.53722075e-02]],

        [[ 4.37727123e-02, -6.95021227e-02,  1.20608788e-02,
          -1.21260397e-02,  3.27642635e-02],
         [-1.92722548e-02,  4.42025810e-02,  5.63112972e-03,
          -9.54069721e-04, -9.79478359e-02],
         [-6.01644516e-02,  1.68708041e-02,  4.69079018e-02,
           4.40325923e-02, -7.80534148e-02],
         [ 4.45538908e-02, -2.38549262e-02,  6.56954274e-02,
           4.29383069e-02,  6.21884875e-02],
         [ 7.57595524e-02,  9.66976807e-02, -7.19662681e-02,
          -7.52802053e-03, -2.68734209e-02]]],


       [[[ 3.77275236e-02, -3.16018090e-02,  8.40409249e-02,
           5.69875017e-02,  1.08770445e-01],
         [-7.20353127e-02,  3.80091816e-02,  3.28256637e-02,
           1.00703709e-01, -1.09288000e-01],
         [ 8.06439444e-02,  1.14233308e-01,  2.35578734e-02,
           1.40559103e-03, -1.23754181e-01],
         [ 4.21117358e-02, -5.76951802e-02, -4.37999219e-02,
          -1.65240124e-01, -1.24721721e-01],
         [ 9.98639688e-03, -3.89739126e-02,  3.68918590e-02,
          -1.23093463e-02, -8.20225328e-02]],

        [[ 5.54971658e-02, -1.37030229e-03, -9.33611766e-02,
           4.86713983e-02,  1.22103550e-01],
         [ 4.33071591e-02,  4.72769625e-02,  7.03395158e-02,
           2.60082679e-03,  9.43299234e-02],
         [ 8.77090991e-02,  7.83021227e-02, -2.90695820e-02,
           6.33657798e-02, -6.12439625e-02],
         [ 2.94656567e-02, -9.01246518e-02, -6.92653805e-02,
          -1.03834406e-01, -9.41440314e-02],
         [ 1.26022976e-02, -9.26022902e-02, -9.13955793e-02,
          -6.96825013e-02, -1.78256184e-02]],

        [[-6.46620542e-02, -5.64062670e-02,  5.95424362e-02,
           8.70495364e-02,  5.73108792e-02],
         [-8.29391032e-02, -3.52561399e-02, -3.26812640e-02,
          -3.26480865e-02,  6.41366467e-02],
         [ 6.48349151e-02,  8.26428458e-02, -4.99308528e-03,
          -2.15587839e-02, -5.54142781e-02],
         [-2.90691145e-02, -5.55176809e-02, -7.14737098e-06,
          -6.35429546e-02,  3.52364853e-02],
         [ 8.31226632e-02, -6.96902303e-03,  6.28012866e-02,
          -4.12195176e-02,  2.04160027e-02]],

        [[ 6.67651445e-02,  3.93188894e-02,  6.04653805e-02,
           1.55526102e-01,  1.01186953e-01],
         [-9.14120823e-02, -6.93958700e-02,  1.19447317e-02,
          -2.98551060e-02, -3.66178267e-02],
         [-2.26924941e-02, -6.50929287e-02,  2.78640334e-02,
           5.54015450e-02, -5.17814979e-02],
         [ 3.12211458e-03, -2.79317684e-02, -5.00356369e-02,
          -4.47761863e-02, -4.42126021e-02],
         [-2.89313169e-03, -1.02880485e-01, -1.36869773e-01,
          -9.37076584e-02, -1.22897036e-01]],

        [[ 4.71798666e-02,  6.11876920e-02, -9.12360847e-02,
           1.52728101e-02,  1.35540575e-01],
         [-6.70390502e-02, -8.32136795e-02,  7.76683986e-02,
           1.02530129e-01,  2.13719700e-02],
         [ 1.33866845e-02,  6.63636625e-02,  1.51383858e-02,
           5.21710478e-02, -4.33819927e-02],
         [ 5.33496356e-03,  4.75333408e-02, -9.94227454e-02,
          -1.18621960e-01, -6.38397262e-02],
         [ 5.52728325e-02,  3.36161219e-02, -5.03516346e-02,
          -3.76823992e-02, -3.31710093e-02]],

        [[-2.05075294e-02,  2.99469978e-02,  5.31568229e-02,
           1.27025425e-01,  9.57752094e-02],
         [ 6.64411625e-03,  6.28437772e-02, -4.59240600e-02,
           3.68251018e-02, -8.41667969e-03],
         [-4.91416268e-02, -1.84787866e-02,  4.36948724e-02,
          -1.12234475e-02, -8.61688852e-02],
         [ 2.77886167e-02,  3.56697217e-02, -1.52894901e-02,
          -1.39909768e-02, -6.69102222e-02],
         [ 2.51025874e-02, -5.19256890e-02, -9.15989727e-02,
          -1.58573724e-02, -9.01455805e-02]]],


       [[[ 1.70843825e-02, -4.40607332e-02,  1.35414615e-01,
           6.76063448e-02, -8.18413422e-02],
         [ 2.95463149e-02,  1.41003281e-01,  1.19502746e-01,
           1.45744145e-01,  2.81598233e-02],
         [-1.38315246e-01, -1.06868640e-01, -6.49883151e-02,
          -7.97258317e-02, -4.37072739e-02],
         [-2.10047781e-01, -2.22492173e-01, -2.17491046e-01,
          -2.23330725e-02,  7.93211907e-03],
         [ 5.17704971e-02,  2.21914351e-02, -1.12953536e-01,
          -2.29256619e-02, -6.54207543e-02]],

        [[ 4.47680503e-02, -5.32429367e-02, -8.00271779e-02,
           6.87628239e-02,  2.56990455e-02],
         [ 7.15829898e-03, -1.70214791e-02,  9.90871340e-02,
          -2.03758050e-02,  6.17642887e-02],
         [ 1.63909122e-02, -3.61232013e-02,  4.16736789e-02,
          -2.22990867e-02, -3.57635953e-02],
         [-1.40404254e-01, -7.43460506e-02, -1.08148403e-01,
          -8.78713802e-02, -1.05869636e-01],
         [ 7.35407986e-04,  4.10299632e-04, -1.67652696e-01,
          -2.62016673e-02, -7.96816275e-02]],

        [[-1.11878775e-02,  4.92709279e-02, -7.61381239e-02,
           2.06879470e-02, -7.11336806e-02],
         [-5.29062189e-02,  7.83063248e-02,  5.19536957e-02,
          -3.39120813e-02,  3.49059366e-02],
         [ 1.82669405e-02, -3.35228667e-02,  6.00920245e-02,
           6.78293705e-02, -1.28123090e-02],
         [ 3.18143591e-02, -4.58593480e-02,  3.51419970e-02,
           9.01783165e-03,  8.25287402e-02],
         [ 6.26273826e-02, -4.26140465e-02, -7.23040942e-03,
           4.50221412e-02, -7.74605349e-02]],

        [[-7.64017105e-02, -5.05076200e-02, -3.18531729e-02,
           3.75784971e-02,  1.81205245e-03],
         [-5.84972240e-02, -1.22508546e-02, -1.06471866e-01,
           5.68901487e-02, -7.40097314e-02],
         [ 1.30277604e-01,  5.71431592e-02,  4.96348180e-02,
           8.05476829e-02,  6.07172884e-02],
         [-7.63772056e-02,  3.22314464e-02,  8.89187679e-02,
           6.40438497e-02, -5.46402484e-03],
         [-1.11884736e-01, -9.06731486e-02, -1.53616786e-01,
          -1.37236312e-01, -8.82634893e-02]],

        [[-8.90325010e-02, -1.24608174e-01,  5.27947256e-03,
          -2.36020866e-03, -2.60431562e-02],
         [-5.34250587e-02,  8.76949430e-02, -1.47860916e-02,
           7.21764192e-02,  7.60036260e-02],
         [-2.79835030e-03,  4.99157570e-02,  1.04707517e-01,
           9.88950804e-02,  6.11667968e-02],
         [-7.58386701e-02, -4.33520302e-02, -1.34233400e-01,
          -1.25033677e-01, -2.62405053e-02],
         [-2.56043542e-02, -7.70623162e-02, -2.96963304e-02,
          -1.23556599e-01, -5.63286692e-02]],

        [[-1.39384633e-02,  5.61403334e-02, -6.56187832e-02,
           1.60226822e-02, -9.23194885e-02],
         [-9.46185142e-02,  1.14005785e-02,  1.27607025e-02,
           5.00006194e-04, -6.58144504e-02],
         [ 6.99167922e-02, -5.46056181e-02,  6.64089248e-02,
           2.10115146e-02,  2.65699457e-02],
         [-7.75491372e-02,  6.41001165e-02,  8.21025893e-02,
          -3.75006385e-02,  1.43868625e-02],
         [-9.83901247e-02, -2.97323614e-02, -1.85649609e-03,
          -5.33523373e-02, -9.34103951e-02]]]], dtype=float32), array([ 0.0334916 ,  0.01759959, -0.0352786 ,  0.01345579, -0.03825733,
        0.00848086,  0.08023378,  0.02127766, -0.00189988, -0.08166922,
        0.00347881, -0.06673359,  0.01019776, -0.02005582, -0.04535111,
        0.05129194], dtype=float32), array([[-0.01463478,  0.0355129 , -0.07305941, ...,  0.06095535,
        -0.04338449,  0.06096583],
       [ 0.03087332, -0.03747631, -0.00358505, ...,  0.03645315,
        -0.03003571,  0.00032362],
       [ 0.02652443, -0.0450691 , -0.08913217, ..., -0.05881628,
        -0.07868668,  0.01026296],
       ...,
       [ 0.03265438, -0.06398607,  0.05125454, ..., -0.03689683,
         0.04463433, -0.03412815],
       [ 0.0035134 , -0.01637942, -0.03886873, ..., -0.02520116,
         0.01337498, -0.00349979],
       [-0.04966176,  0.00655276, -0.01897939, ..., -0.00704516,
         0.00916209, -0.03856063]], dtype=float32), array([ 0.0525156 ,  0.06794045,  0.03740507, -0.03361942,  0.02244405,
       -0.00039241,  0.03263914,  0.04749659, -0.03382587,  0.03682199,
        0.01337821, -0.01433017, -0.00157565,  0.01099081,  0.05724922,
        0.00067314,  0.01539063, -0.03093027,  0.05521118,  0.02286791,
        0.03159767, -0.03212838, -0.04631903, -0.0359429 ,  0.05683387,
        0.00066401,  0.01305325,  0.00418131, -0.02250085,  0.01384863,
       -0.02463804, -0.02596148,  0.03806119, -0.0049064 ,  0.00684986,
        0.02037922,  0.04008355, -0.02886924, -0.02092682, -0.06210806,
       -0.05571051, -0.02829602,  0.00683373, -0.0183642 ,  0.04474178,
        0.05439567, -0.03430374,  0.07330875,  0.0356306 ,  0.019564  ,
        0.0277669 , -0.00201693,  0.05667819, -0.02286768,  0.04089765,
       -0.03855903,  0.05694843, -0.01804503,  0.00066728,  0.00891936,
        0.01127288, -0.01121826, -0.0341977 , -0.02280364,  0.03304927,
        0.06439796,  0.03436591,  0.00476797, -0.02056087,  0.00902267,
        0.03515612, -0.05436186,  0.05763819, -0.00727195, -0.01513133,
       -0.00344153, -0.03435508,  0.04705057,  0.03169293, -0.06115861,
       -0.03024197,  0.04966523,  0.05032259,  0.05957115, -0.05768294,
        0.01385047, -0.02233149,  0.04677135,  0.04131354, -0.03927316,
       -0.02891107, -0.00207923, -0.05412063, -0.03518108, -0.01831028,
       -0.01821813, -0.01366512,  0.00196759, -0.00340113, -0.03648619,
       -0.04695312,  0.04336954, -0.05410666,  0.03007403,  0.01818679,
       -0.00548425,  0.03457619, -0.01116125, -0.01905604, -0.00159223,
       -0.00423972, -0.06167407, -0.0011928 , -0.05730344,  0.07399479,
       -0.02873206, -0.00738039,  0.02204047,  0.03840712,  0.03199506],
      dtype=float32), array([[-0.01544814,  0.04212454, -0.03789917, ..., -0.0899431 ,
         0.01974073,  0.01196272],
       [ 0.06964655,  0.03536291, -0.03668393, ..., -0.01587365,
         0.06495422,  0.07317429],
       [ 0.0479339 , -0.0905688 , -0.07944402, ...,  0.07725741,
         0.03006798,  0.03585419],
       ...,
       [ 0.06132827, -0.08588126, -0.03268766, ...,  0.05302471,
        -0.01215988, -0.09220356],
       [-0.0566102 , -0.00547899,  0.03639778, ..., -0.06057904,
         0.07513407, -0.00592915],
       [ 0.0312919 ,  0.08506206,  0.0286673 , ...,  0.04532336,
        -0.02165303,  0.03313288]], dtype=float32), array([-0.08923776, -0.05057013, -0.04608188,  0.05827027, -0.08891113,
       -0.075902  ,  0.11533589, -0.04781334,  0.07382652,  0.02783876,
        0.09396338, -0.05791046,  0.0572022 ,  0.05777777,  0.07340283,
       -0.03795637, -0.05897024,  0.07035182, -0.02412252, -0.04892037,
       -0.03358595,  0.05256682, -0.00265875,  0.02251403, -0.07736943,
        0.09101838,  0.04050268, -0.01917322, -0.01242468,  0.03075769,
        0.06049106,  0.07149661, -0.00013386, -0.02905855,  0.02058119,
       -0.06007769, -0.03918472,  0.06071376, -0.00079796, -0.0866356 ,
        0.03721811, -0.02186133,  0.05840041, -0.0734239 ,  0.06544486,
        0.03385919,  0.05671045, -0.0450029 , -0.00866272,  0.05909895,
        0.09077213, -0.04459436,  0.04902821, -0.00700466,  0.06203715,
       -0.02450051, -0.03816028,  0.09140978,  0.04407437, -0.03825226,
        0.06381754, -0.07245318, -0.04760964,  0.02019213, -0.0261579 ,
       -0.0269605 ,  0.05626241, -0.06204901,  0.04080725, -0.07929578,
        0.05445937,  0.06092795, -0.02665958,  0.05876019,  0.0091156 ,
       -0.02502697,  0.12117213,  0.07451481,  0.08342074,  0.10835442,
       -0.08532184, -0.05005066, -0.00554912,  0.00927129], dtype=float32), array([[-8.91231075e-02,  7.40031302e-02,  1.87448524e-02,
         1.23340055e-01,  7.23823905e-02,  1.81949139e-01,
        -8.93333331e-02, -2.05522895e-01,  3.74234915e-02,
        -4.23106626e-02,  5.72900884e-02,  8.64485428e-02,
        -1.65573120e-01,  1.34407714e-01, -1.37831494e-01,
        -9.74260643e-02, -2.14375541e-01,  2.25366522e-02,
        -5.10833636e-02, -1.18876519e-02,  6.03057165e-03,
         1.57275066e-01, -1.73614398e-01,  5.85779324e-02,
        -5.42022884e-02, -6.37103319e-02,  4.22275700e-02,
         2.34121806e-03, -1.06865942e-01, -3.26599106e-02,
        -9.66956764e-02,  7.54645169e-02, -9.89915207e-02,
        -4.18153033e-02, -1.28705557e-02, -6.49485141e-02,
        -2.12440677e-02, -1.06375299e-01, -2.15990134e-02,
        -5.01360893e-02, -7.12853223e-02, -8.58988538e-02,
        -8.12127739e-02, -1.46040604e-01, -4.38699760e-02,
         3.30202579e-02, -1.59941912e-01, -2.40695197e-03,
        -1.54623970e-01, -7.97146261e-02,  9.08205435e-02,
         7.65705332e-02,  1.87681824e-01,  2.45583475e-01,
        -1.70195531e-02,  2.84624044e-02, -2.73519419e-02,
        -1.88855588e-01,  4.90977382e-03,  2.75865763e-01,
         1.92596614e-02, -2.38070264e-03,  2.51869798e-01,
        -2.43169907e-03,  7.96961039e-02, -5.34015633e-02,
        -1.37513317e-03, -9.39537659e-02,  4.69529144e-02,
        -9.81782526e-02,  3.26458454e-01,  2.09898949e-02,
        -9.95114222e-02,  7.33291879e-02, -8.22411105e-02,
         9.21567203e-04, -1.29950494e-01,  2.21116524e-02,
         2.50149183e-02, -2.92588994e-02, -4.54323143e-02,
         1.55990850e-02,  8.30092207e-02,  8.35399255e-02],
       [-5.91268577e-02,  2.20050812e-02,  9.56969559e-02,
        -1.72718257e-01,  6.55467212e-02, -1.70812473e-01,
         1.64259627e-01,  5.61053911e-03, -1.65382363e-02,
         4.89730239e-02, -1.12809554e-01,  6.05483027e-03,
         1.47831336e-01,  6.71754330e-02, -1.72133327e-01,
        -9.48707908e-02, -5.87221012e-02, -1.29484951e-01,
        -3.74488123e-02, -1.20788254e-01, -9.91776213e-02,
         3.80630195e-02,  1.26451939e-01,  9.89035368e-02,
         5.33804595e-02,  1.18128039e-01,  2.13427711e-02,
        -5.23819868e-03,  2.31526956e-01, -1.48792222e-01,
        -6.18148446e-02, -1.53425455e-01, -1.32365584e-01,
        -1.27442002e-01,  4.94547226e-02, -1.11576617e-01,
         1.81078911e-01, -1.76438823e-01, -6.21888451e-02,
         7.80112296e-02, -1.06164657e-01, -1.22746542e-01,
         1.54088810e-02,  9.98262092e-02,  3.40131955e-04,
        -7.62994736e-02,  1.90580860e-01,  8.81923065e-02,
         1.83158875e-01,  9.12247226e-02,  2.04742655e-01,
         6.09009266e-02, -1.36227757e-01,  6.67023379e-03,
         1.72238484e-01, -5.13793863e-02, -1.19485676e-01,
        -1.62273794e-01, -9.85756442e-02, -2.08066508e-01,
        -1.69541344e-01, -8.34119767e-02, -1.43589959e-01,
         6.41121864e-02,  8.50718543e-02,  7.97237530e-02,
         1.76023990e-02,  1.27825335e-01, -6.78270459e-02,
         3.50346826e-02, -1.89298332e-01,  9.66068134e-02,
        -1.27413198e-01, -2.33569577e-01, -2.69367509e-02,
        -1.34172380e-01,  2.79112041e-01, -4.59937528e-02,
         2.22080573e-02, -4.09672298e-02, -1.30586291e-03,
         5.28788306e-02, -1.12989798e-01,  1.79022029e-01],
       [-2.38420926e-02,  1.17246974e-02,  1.06854208e-01,
        -2.04062268e-01, -1.04600027e-01,  2.14727968e-01,
         8.41396749e-02, -1.38708472e-01, -9.88239050e-02,
        -3.79904732e-02,  7.91453421e-02, -1.05067924e-01,
        -1.66438878e-01,  8.15363377e-02, -1.73600271e-01,
         5.46903238e-02, -1.80246428e-01, -1.78233366e-02,
        -1.01232633e-01,  1.13581583e-01, -8.38840827e-02,
         4.52224873e-02,  2.05356032e-01,  8.91626775e-02,
        -2.57083084e-02, -9.22434777e-02, -2.92521268e-02,
        -7.40755424e-02,  1.05333775e-01,  6.06870046e-04,
        -1.31938189e-01, -8.04867446e-02, -8.89729410e-02,
         1.96326599e-01,  2.98685636e-02,  9.55581218e-02,
        -2.25309171e-02,  9.87132564e-02,  6.70313388e-02,
        -1.03560984e-01,  6.06046245e-02,  5.83329611e-02,
         6.04413636e-02,  4.21962813e-02,  8.86368603e-02,
        -9.71653163e-02, -2.27490529e-01, -6.52747378e-02,
         1.58390298e-01, -4.78953645e-02, -1.13204524e-01,
        -4.98330183e-02,  6.38733879e-02,  5.64344116e-02,
         2.41681024e-01, -2.45409459e-01,  4.41095680e-02,
        -1.21305898e-01,  6.80654049e-02, -2.91371383e-02,
         9.31752995e-02, -4.18433398e-02,  1.02361761e-01,
        -7.42965862e-02, -3.86972390e-02,  2.41615456e-02,
        -1.73262522e-01,  8.96523073e-02, -2.60600122e-03,
        -2.61809602e-02, -1.00494370e-01,  6.26301169e-02,
        -1.07741430e-01,  8.27172250e-02, -1.60971023e-02,
        -2.89861839e-02, -6.91191554e-02, -3.35962698e-02,
        -2.25022994e-02,  1.17000617e-01,  4.82675768e-02,
         1.32030338e-01,  2.07512990e-01,  3.10094822e-02],
       [ 5.73130026e-02, -1.30051756e-02,  8.55823457e-02,
         8.69841352e-02, -1.77555438e-02,  1.99114621e-01,
        -6.06491230e-02, -3.03455591e-02, -1.34234503e-01,
        -4.19783592e-02, -1.12856396e-01, -1.92409344e-02,
         2.40722857e-02,  6.23391643e-02, -9.22122598e-02,
         4.50695120e-02,  9.02108401e-02,  5.77675812e-02,
        -1.48401335e-01, -8.07671770e-02,  1.77461971e-02,
        -9.02729928e-02, -1.76999301e-01,  9.80981067e-02,
        -4.92231026e-02,  2.00233176e-01,  1.38360383e-02,
         6.71884343e-02,  1.45503655e-01,  1.27790108e-01,
         1.09598175e-01,  1.27351850e-01,  1.37394488e-01,
         2.55310088e-01,  1.41491041e-01,  9.49464068e-02,
         1.01341449e-01, -3.67463403e-03, -7.71451667e-02,
         3.84815708e-02, -9.27878618e-02,  1.65269241e-01,
         7.79155493e-02,  3.63172367e-02,  6.41676039e-02,
        -4.62399460e-02, -1.26502842e-01,  3.94036733e-02,
         5.49246781e-02,  6.09427392e-02, -4.11482044e-02,
        -2.64394972e-02, -1.24707185e-01, -7.13567957e-02,
        -2.03924313e-01, -1.67593047e-01, -5.83801307e-02,
         1.73862532e-01, -4.39865030e-02, -2.29027662e-02,
        -1.03881136e-01,  8.85038301e-02, -7.62809440e-02,
        -1.71334054e-02, -1.27128279e-02, -4.50362265e-02,
        -9.53852907e-02,  4.61617298e-03,  2.00089766e-03,
        -5.51420376e-02, -7.76707083e-02,  2.06289873e-01,
        -9.75846201e-02,  1.30402580e-01,  6.67636245e-02,
         2.28819668e-01,  5.51356450e-02, -6.10294715e-02,
         1.18244007e-01, -1.00870967e-01, -8.10581446e-02,
         6.54557124e-02,  9.29929242e-02,  9.70102549e-02],
       [-9.54714939e-02, -2.03462923e-03,  3.93639356e-02,
        -1.99758977e-01,  9.33290645e-03, -1.00439183e-01,
         5.65827675e-02,  1.93189964e-01,  1.32777438e-01,
        -4.24640290e-02,  2.40680948e-01,  5.64785339e-02,
         1.99608594e-01, -7.46526383e-03, -3.88638042e-02,
         4.01960872e-02, -9.13771894e-03, -1.69641480e-01,
         6.31784946e-02,  1.74197599e-01, -7.69749135e-02,
        -7.91226178e-02,  1.19194299e-01,  5.28242290e-02,
        -7.86546320e-02, -3.47386338e-02,  7.57227242e-02,
        -8.58642012e-02, -8.94482210e-02, -1.07085884e-01,
        -1.27774698e-03, -8.12274346e-04,  1.14532225e-01,
        -1.24572337e-01,  5.21685276e-03,  6.51238561e-02,
         9.56710353e-02, -1.61867827e-01,  1.72715083e-01,
         3.12524103e-02,  3.22797932e-02, -1.33973435e-01,
        -2.70348322e-02, -6.51948228e-02,  1.53411645e-02,
         7.01936409e-02, -9.23659429e-02,  1.40339648e-02,
         8.92513841e-02, -8.92379042e-03,  1.26350999e-01,
         2.46788189e-02,  2.41968781e-03, -2.46219486e-02,
        -7.10558472e-03, -5.22022042e-03, -5.89926355e-03,
         1.51781246e-01,  1.14300139e-02, -2.87356883e-01,
         3.35628480e-01, -8.56031552e-02, -3.65720876e-02,
        -1.23887353e-01, -5.06059416e-02, -6.73846677e-02,
         1.39581293e-01, -1.72408357e-01,  1.70355827e-01,
         6.25858307e-02, -2.54544578e-02, -1.48166567e-01,
         1.62015066e-01,  8.65262821e-02,  7.47268647e-02,
        -1.25944257e-01, -1.48617059e-01, -1.78836048e-01,
        -1.71074331e-01,  1.01151265e-01,  1.81949902e-02,
        -7.89781734e-02, -3.68412025e-02, -2.25311130e-01],
       [ 2.93913484e-02, -8.42511803e-02, -7.09547922e-02,
         2.85923004e-01,  6.42153397e-02, -1.01214185e-01,
        -2.19126061e-01, -2.91978400e-02, -3.56956162e-02,
         3.38174663e-02,  2.26820144e-03, -2.07133852e-02,
        -1.08527569e-02, -4.56482396e-02,  2.21699208e-01,
         1.38830528e-01,  3.15053165e-01,  1.51302382e-01,
         1.66546740e-02,  4.47932212e-03,  2.77006300e-03,
        -9.53735113e-02, -1.56115323e-01,  1.68038663e-02,
        -7.33545050e-02,  9.69190374e-02,  9.20818001e-02,
         5.07908612e-02,  9.43186693e-03,  2.01550592e-02,
        -4.09364216e-02,  1.61152910e-02,  4.72903661e-02,
        -1.16421089e-01, -9.75372568e-02,  9.06197950e-02,
        -1.69463351e-01,  8.07714835e-02,  1.28606275e-01,
         8.46420676e-02, -4.63501140e-02,  5.35312518e-02,
        -1.48412809e-01, -2.94925366e-02,  8.58555809e-02,
        -5.37870042e-02, -1.07868701e-01, -1.73797384e-02,
         1.26214139e-02, -5.72582372e-02, -5.24823479e-02,
        -3.82359177e-02,  7.64335021e-02,  2.69143768e-02,
        -7.40995333e-02,  2.07264721e-01, -1.33158073e-01,
         4.49785329e-02, -2.08809916e-02,  9.25957970e-03,
         6.19073305e-03,  8.45003054e-02,  3.55847217e-02,
         7.42961373e-03, -7.92698935e-02, -6.75680786e-02,
        -1.12795904e-01, -7.93336406e-02, -1.32463560e-01,
         1.10090882e-01, -9.84133687e-03,  2.28390358e-02,
        -4.75226864e-02,  8.34314674e-02, -8.89939666e-02,
         1.84072375e-01,  3.17002870e-02, -1.03526831e-01,
         1.15609422e-01, -9.53369439e-02, -1.49944043e-02,
         3.56569104e-02, -1.49860665e-01,  1.75974905e-01],
       [ 3.83502133e-02,  2.94083096e-02,  9.49716792e-02,
         2.19903544e-01, -2.23843791e-02, -1.02822669e-01,
        -1.39887571e-01, -1.39170811e-01, -1.34683490e-01,
        -8.12861323e-02,  1.14851967e-01, -2.07617674e-02,
         1.38434945e-02, -7.63553157e-02, -1.42840698e-01,
        -1.25794038e-01, -2.21133202e-01, -2.41669156e-02,
        -2.29853249e-04,  1.16178310e-02, -5.65143256e-03,
        -1.81273874e-02,  1.12074226e-01,  7.86940902e-02,
        -2.51117181e-02, -1.41784921e-01, -2.06221547e-02,
         1.80399287e-02, -1.61229357e-01, -5.11963442e-02,
        -5.28228134e-02, -2.67523155e-02,  1.27067849e-01,
        -1.30445600e-01,  1.67405903e-02, -1.72887091e-02,
         5.54137900e-02,  1.81158498e-01,  1.27062976e-01,
        -2.30651312e-02, -1.07466532e-02, -1.85618386e-01,
        -1.66281611e-01, -1.47096366e-01, -4.12860028e-02,
         2.88469255e-01, -1.01035394e-01,  3.04645370e-03,
         5.92356548e-02, -8.60256329e-02,  6.80605397e-02,
        -1.38461916e-02,  2.33671531e-01, -4.95894514e-02,
         1.37342229e-01,  2.18998715e-02,  6.36325926e-02,
        -1.34063512e-01, -7.26843327e-02, -1.31334364e-01,
         1.03697546e-01, -8.57781544e-02,  1.91689342e-01,
         1.71145406e-02,  2.12768987e-02,  2.20139753e-02,
        -1.50893062e-01, -9.25653502e-02, -2.47871038e-02,
         2.41848424e-01, -5.68778403e-02, -4.22435328e-02,
         2.51840483e-02, -2.71214619e-02, -1.42820524e-02,
        -3.50445025e-02,  2.09242567e-01, -1.26021102e-01,
        -6.92140833e-02, -1.66640691e-02,  1.01099037e-01,
        -5.85804656e-02, -1.88897997e-01,  3.17407623e-02],
       [ 1.03340611e-01, -1.07935540e-01, -2.82849977e-03,
        -1.92714334e-01, -1.17445454e-01,  1.01608440e-01,
        -8.15134794e-02,  1.63520679e-01, -6.32061735e-02,
        -3.01114619e-02, -6.79316148e-02,  1.15290545e-01,
        -1.10210933e-01, -6.52423948e-02, -2.73273289e-01,
         6.60782903e-02,  1.25151396e-01,  8.09357595e-03,
         6.65106773e-02, -6.45471588e-02, -7.97246322e-02,
         1.34447336e-01,  3.91614512e-02, -3.09426002e-02,
         1.68054737e-02,  1.46619141e-01,  3.30941193e-02,
        -4.77595590e-02,  1.01767972e-01,  7.23982379e-02,
        -6.29973188e-02,  1.21788412e-01, -2.16150641e-01,
         1.66267827e-01,  7.22039817e-03, -5.58981970e-02,
        -1.41046599e-01, -1.49104223e-01, -1.37448803e-01,
         2.75746882e-02,  8.74045119e-02,  1.52925804e-01,
        -1.19285628e-01, -1.54190511e-02,  3.27426987e-03,
        -8.89390931e-02,  2.23335326e-01,  6.23959713e-02,
        -5.29612117e-02, -2.76942309e-02, -5.39451689e-02,
         1.11645333e-01, -3.28181102e-03,  2.62677204e-02,
        -2.96591893e-02, -1.68366119e-01, -7.76652619e-02,
         2.07505003e-01, -7.14851171e-02,  2.17424452e-01,
        -6.56794012e-02,  7.55689889e-02, -1.42867982e-01,
         3.99110280e-02,  7.18020797e-02,  1.05803154e-01,
         5.63792363e-02,  4.55549136e-02,  8.23003985e-03,
        -1.35712966e-01, -2.17777193e-02, -6.11756183e-02,
         5.33094667e-02, -1.92825079e-01, -1.53870238e-02,
        -1.03049301e-01, -9.11076814e-02,  3.36669385e-01,
        -1.26881152e-01,  9.46236700e-02, -9.91110131e-02,
         3.25285494e-02,  9.07579660e-02,  5.68288229e-02],
       [-4.46391478e-02,  1.38385758e-01, -2.89157052e-02,
        -6.15263581e-02, -7.39683211e-02, -5.64981587e-02,
         1.60233051e-01, -1.71403095e-01,  5.12960926e-02,
        -3.30570824e-02,  5.60942441e-02, -9.64883640e-02,
        -1.62488478e-03,  4.19301540e-02,  2.31193885e-01,
        -5.86938001e-02, -8.45606998e-02,  1.39822230e-01,
        -1.41047001e-01, -3.33371088e-02, -4.96447012e-02,
         5.23004122e-02, -5.24388812e-02,  2.20441818e-02,
        -8.96184146e-02, -1.02867270e-02, -1.10991575e-01,
        -1.87760200e-02, -5.79000898e-02, -9.69665125e-02,
         5.92998564e-02,  3.26423645e-02,  1.20871261e-01,
        -6.14898913e-02,  9.61978659e-02, -4.08260599e-02,
        -1.35664484e-02,  2.97899812e-01,  7.17888102e-02,
         3.25735882e-02, -8.98656547e-02,  1.57459021e-01,
         1.86114341e-01, -1.64703578e-01, -2.23018136e-02,
        -1.58003375e-01,  9.54565555e-02, -5.71517497e-02,
        -1.13798045e-01, -1.10719606e-01, -5.12687899e-02,
        -4.46628965e-02, -3.41757126e-02, -9.69017446e-02,
         5.42807430e-02,  2.57079750e-02,  1.23693176e-01,
        -5.12114502e-02, -5.01939617e-02, -5.78026753e-03,
        -2.06572831e-01,  5.37385754e-02, -3.91846374e-02,
        -6.86087608e-02, -3.08889821e-02,  1.18417285e-01,
        -7.68188238e-02,  2.19006836e-01, -1.29845887e-01,
         9.83804464e-02, -2.92911232e-02,  1.69286221e-01,
         2.91356053e-02,  1.06210530e-01, -1.87829398e-02,
         1.28934011e-01,  4.15660590e-02, -7.09968898e-03,
         2.26895526e-01, -2.78541651e-02, -3.04995812e-02,
         4.89303358e-02, -4.72711772e-02,  7.20071048e-02],
       [ 6.59031197e-02,  8.59798715e-02,  8.24989006e-02,
        -4.16028760e-02, -2.57358663e-02,  3.29510018e-04,
         1.63826048e-02,  1.79095820e-01, -2.60934737e-02,
        -7.00212643e-02,  4.59248722e-02,  7.09702587e-03,
         1.82544231e-01,  1.06700975e-02,  1.67490438e-01,
        -1.35915190e-01,  1.11181892e-01,  4.83014211e-02,
         7.99908489e-02,  1.58149630e-01,  4.28423062e-02,
         1.02345712e-01, -8.28883871e-02, -7.63162449e-02,
         6.52950862e-03,  1.42263159e-01, -3.04135624e-02,
        -1.99351329e-02, -1.31829514e-03,  6.24565668e-02,
        -1.10738492e-02, -3.18666846e-02, -1.22091040e-01,
         3.40675227e-02,  2.09034532e-02,  8.41395706e-02,
         4.74149548e-02, -1.52081117e-01, -1.94385096e-01,
         8.70252699e-02,  2.49392446e-03,  1.05662175e-01,
         1.40519559e-01, -1.81208342e-01,  6.36492521e-02,
        -1.32293180e-01,  6.23622872e-02,  1.02975480e-02,
        -1.55960754e-01,  3.69618870e-02,  1.50319993e-01,
        -1.17677718e-01, -1.42968830e-03,  8.47502202e-02,
        -1.53304696e-01,  2.48251259e-02,  1.82125289e-02,
         3.11706543e-01, -7.02884421e-02, -5.93651906e-02,
         4.67296615e-02,  3.09349392e-02, -2.20609158e-02,
         1.20471016e-01, -5.76540120e-02,  1.74056599e-03,
         1.48480788e-01, -9.22704935e-02,  1.40622884e-01,
        -1.96112335e-01,  1.33244935e-02, -1.27499864e-01,
         1.98705748e-01,  1.74392715e-01, -4.57840152e-02,
         1.03135876e-01, -1.64869800e-02,  6.07502684e-02,
        -1.19207576e-01,  7.24735707e-02,  7.53497630e-02,
         4.61266935e-02, -3.01136076e-02, -2.39456128e-02]], dtype=float32), array([ 0.00276351,  0.18643333, -0.06344373,  0.042015  ,  0.04349653,
        0.0111689 , -0.01729338, -0.08218371, -0.00584637, -0.03695029],
      dtype=float32)], 270), ([array([[[[-0.09119699, -0.085004  , -0.19427001, -0.1930509 ,
           0.07912771],
         [ 0.1327866 ,  0.09991035, -0.06982369,  0.07677707,
           0.24759254],
         [-0.11793887, -0.16665813, -0.06763573,  0.1637664 ,
           0.31006116],
         [-0.07955222,  0.23948848,  0.04891186,  0.18168843,
           0.0967718 ],
         [-0.00779751,  0.29186466,  0.32537895,  0.33012068,
           0.26747742]]],


       [[[-0.16537791,  0.16826616,  0.03071498,  0.0203806 ,
          -0.00695027],
         [-0.18650563,  0.18512519,  0.2559558 ,  0.16986944,
          -0.04848456],
         [-0.08336206,  0.27291244,  0.12288856, -0.06164689,
          -0.07664116],
         [-0.14789253,  0.16173069,  0.18133599,  0.0329935 ,
           0.11339825],
         [ 0.11864328,  0.10516109, -0.10867374,  0.02617393,
          -0.28005365]]],


       [[[ 0.18793291, -0.14804274,  0.00546764, -0.18655267,
           0.02391199],
         [ 0.0189049 ,  0.24343891,  0.15791208,  0.0187349 ,
           0.15065312],
         [-0.12358242, -0.1285731 , -0.03705274, -0.0438719 ,
          -0.03128723],
         [ 0.05022086,  0.10829414,  0.18737313,  0.15435879,
          -0.1132308 ],
         [-0.13910618, -0.13055953,  0.04200583, -0.23104964,
          -0.2309204 ]]],


       [[[ 0.2656124 ,  0.20181094,  0.17199656,  0.16512056,
          -0.26128778],
         [ 0.10144866,  0.34117615,  0.37848008,  0.34193787,
          -0.00128625],
         [-0.22540078, -0.05370626,  0.2035503 ,  0.17164066,
           0.26953697],
         [-0.19754744, -0.32407308,  0.07082603, -0.02326048,
          -0.07397386],
         [-0.27942777, -0.2715601 , -0.06520718, -0.08783928,
           0.18492517]]],


       [[[-0.01256923, -0.15375696, -0.07272977,  0.02984391,
          -0.265816  ],
         [ 0.24286804,  0.172146  ,  0.0544093 ,  0.12133142,
          -0.11229777],
         [-0.08351437,  0.22558592,  0.13528092,  0.20430791,
           0.3889178 ],
         [ 0.15660103, -0.12702252,  0.23899482,  0.13372128,
           0.23292373],
         [-0.0627105 , -0.13733785, -0.10345429, -0.30971557,
          -0.21406946]]],


       [[[ 0.02021836,  0.2096225 ,  0.18760039,  0.1699352 ,
          -0.02672476],
         [ 0.07240875, -0.04136883,  0.18978553, -0.06659909,
           0.01598741],
         [-0.26735848,  0.05517764,  0.00230589,  0.16859627,
           0.18876976],
         [-0.29111853, -0.2217634 ,  0.03150903,  0.08210529,
          -0.15613173],
         [-0.07360885, -0.08006956, -0.00672581,  0.19399501,
          -0.10620332]]]], dtype=float32), array([ 0.01987715, -0.00833648,  0.08790333, -0.03664802,  0.1995144 ,
        0.12436798], dtype=float32), array([[[[-1.02445914e-03, -1.12997897e-01, -1.63513348e-01,
          -1.77492023e-01,  3.78326289e-02],
         [ 9.23717208e-03,  3.57920565e-02, -9.21358392e-02,
           1.99855883e-02,  1.00544512e-01],
         [ 1.87975734e-01,  1.33317009e-01,  1.29070118e-01,
           4.72640730e-02,  1.96986515e-02],
         [ 1.38643369e-01,  6.87955394e-02,  2.98059285e-02,
           7.19808117e-02, -5.87190539e-02],
         [-1.48144290e-01, -1.35393068e-01, -1.34603307e-01,
          -9.60105807e-02, -2.22619958e-02]],

        [[ 6.32975623e-02,  4.50009555e-02, -1.06149554e-01,
          -1.36946306e-01, -1.33958951e-01],
         [-3.72421294e-02, -7.20755979e-02, -8.73597041e-02,
          -4.63217050e-02, -4.16572616e-02],
         [ 6.99716061e-02,  5.00896983e-02,  4.42859717e-02,
          -5.61344624e-02, -9.23159439e-03],
         [ 4.58184518e-02,  2.63640366e-04,  2.98100300e-02,
           6.40746281e-02,  1.04450315e-01],
         [-5.59998304e-02, -7.04982802e-02, -5.13409115e-02,
           2.24175844e-02,  3.17851081e-02]],

        [[-4.97769341e-02, -5.73451929e-02,  1.76779609e-02,
          -1.76012628e-02, -9.21785235e-02],
         [ 2.62786653e-02, -7.54476264e-02, -8.19810331e-02,
           1.35300253e-02,  2.57766061e-02],
         [-8.49197805e-02,  5.38650341e-02, -2.04880498e-02,
          -5.78527972e-02, -4.00518887e-02],
         [ 4.24807668e-02,  4.96013612e-02,  7.62014017e-02,
           4.31655049e-02,  5.42727448e-02],
         [ 2.59054508e-02,  6.79694787e-02, -5.45696393e-02,
          -5.35754636e-02,  5.11209406e-02]],

        [[-1.46721467e-01,  5.78899905e-02, -9.19841826e-02,
          -1.34955421e-01, -1.63842570e-02],
         [-2.05679418e-04, -5.32147624e-02,  1.16536487e-02,
          -1.49807781e-01,  9.84791946e-03],
         [-8.65131244e-02, -9.18289945e-02,  2.46361401e-02,
          -7.56909996e-02,  2.26723254e-02],
         [-1.53060406e-02,  4.14740369e-02,  1.82373673e-01,
           1.71412364e-01,  1.47321224e-01],
         [ 4.52594757e-02,  1.83636442e-01,  3.76580730e-02,
          -2.13336572e-02,  5.08266874e-02]],

        [[ 2.70206183e-02, -3.10795009e-02, -8.08068290e-02,
          -1.33664414e-01, -1.52791619e-01],
         [-3.43159921e-02, -3.98097709e-02, -5.60016595e-02,
          -1.75102547e-01, -6.66557699e-02],
         [ 6.16368167e-02,  4.67280895e-02,  4.75148112e-02,
          -2.42883563e-02,  2.98637711e-02],
         [ 2.36489102e-01,  1.61838174e-01,  1.62084877e-01,
           4.34462167e-02,  2.44626515e-02],
         [ 6.78895861e-02, -1.75465140e-02, -3.93360946e-03,
          -4.75086384e-02,  5.47572300e-02]],

        [[-1.19415894e-01, -4.01542224e-02, -4.51656058e-02,
          -6.89767301e-02,  2.18344424e-02],
         [ 3.06793638e-02, -4.93702255e-02,  2.33949404e-02,
          -7.63003677e-02,  3.26454639e-02],
         [-3.19337696e-02, -8.80235285e-02,  3.32326889e-02,
           2.75428593e-02, -8.42208117e-02],
         [ 2.72539593e-02, -6.26599193e-02, -2.11873148e-02,
           9.90988389e-02,  6.26895875e-02],
         [-5.31957252e-03,  6.84137270e-02,  1.64853539e-02,
           8.24734569e-03,  4.73855995e-02]]],


       [[[-9.56093445e-02, -3.78490612e-03,  1.03755549e-01,
           4.75253314e-02,  7.76265297e-05],
         [-4.85640988e-02,  1.50881886e-01,  1.89404383e-01,
           6.79649820e-04, -5.31929731e-02],
         [ 1.24699976e-02,  1.91551566e-01,  9.50860754e-02,
           1.46731352e-02, -2.12883931e-02],
         [ 7.56455585e-02,  2.59268116e-02, -1.00275785e-01,
          -1.23209283e-01, -1.12681314e-01],
         [-7.15629309e-02, -1.27360538e-01, -1.32341027e-01,
          -2.76201274e-02, -4.92750704e-02]],

        [[-5.49878478e-02, -2.55584344e-02, -4.65272181e-02,
           1.17262304e-02,  2.81931926e-02],
         [-8.78364965e-02, -1.10714724e-02,  7.31106475e-02,
           1.78554561e-02,  1.07187778e-01],
         [-7.33728036e-02,  7.19533786e-02,  4.41597067e-02,
           1.06468469e-01,  5.36853895e-02],
         [ 1.23723270e-02, -1.34093007e-02, -6.30134195e-02,
          -4.00973074e-02, -3.12271491e-02],
         [-7.32306764e-02, -4.04486060e-02, -6.98737651e-02,
          -5.26134595e-02, -2.72176927e-03]],

        [[-8.56795907e-03,  2.89071891e-02,  3.56533714e-02,
          -3.17657739e-02, -2.55785547e-02],
         [-4.25763130e-02, -9.80568007e-02, -1.50551284e-02,
          -3.99481617e-02,  2.10547727e-02],
         [ 4.48676348e-02, -4.43655029e-02,  8.29962716e-02,
          -5.81358261e-02, -3.62689570e-02],
         [ 6.41112626e-02,  3.11748050e-02, -3.18224393e-02,
           1.88726187e-02,  6.57738149e-02],
         [-9.17320922e-02, -5.05985878e-02, -5.64991683e-02,
          -2.24910360e-02,  6.32650480e-02]],

        [[-2.79286113e-02,  1.07525185e-01,  8.79968628e-02,
          -7.31854059e-04, -9.79195088e-02],
         [ 3.38635370e-02, -1.01085402e-01, -2.38369778e-02,
          -2.23321430e-02,  4.00483273e-02],
         [-1.35889202e-01, -4.61882651e-02, -1.03372775e-01,
          -2.35678442e-02, -6.08934164e-02],
         [ 7.22722560e-02,  4.16822806e-02,  9.12149157e-03,
           2.94380747e-02, -3.08284885e-03],
         [ 6.90197498e-02,  1.52704548e-02, -4.00581323e-02,
          -4.04681116e-02, -5.80260567e-02]],

        [[ 2.00140625e-02, -6.27876865e-03,  4.07193266e-02,
           6.08542981e-03, -5.65285906e-02],
         [-1.38088048e-01, -6.15238883e-02, -1.79454945e-02,
           3.33602615e-02,  6.88581616e-02],
         [ 7.85450041e-02,  8.03263411e-02,  3.75581346e-02,
           1.07881755e-01,  2.52268333e-02],
         [ 5.69184721e-02,  4.50444072e-02,  3.08858487e-03,
           2.39860360e-02,  3.74519192e-02],
         [-1.31313736e-02, -6.26724511e-02, -1.32017270e-01,
          -7.96430558e-02, -1.48452565e-01]],

        [[ 7.04458952e-02,  2.56719477e-02, -1.91507395e-02,
           9.22598243e-02,  8.50919820e-03],
         [ 6.53506219e-02, -2.76366249e-02,  3.41998762e-03,
           5.15700951e-02,  3.06924395e-02],
         [ 1.47042824e-02, -6.85257465e-02, -9.34840143e-02,
          -6.70842454e-02, -1.14190996e-01],
         [-5.01299351e-02,  7.85626248e-02,  6.87432662e-02,
           4.67476621e-03, -6.52502701e-02],
         [-5.85833900e-02,  2.78999060e-02, -8.71917978e-02,
          -7.66414031e-02, -1.64994989e-02]]],


       [[[-1.05208587e-02, -1.69470295e-01, -9.50720236e-02,
          -5.94068728e-02,  2.67160963e-02],
         [-1.07715048e-01, -6.96016774e-02, -6.51951432e-02,
           3.31625082e-02, -1.62566565e-02],
         [-3.56579088e-02,  1.39861465e-01,  1.21388912e-01,
           9.01578218e-02, -6.42691180e-02],
         [ 4.97155562e-02,  5.51765226e-02,  3.58628966e-02,
          -1.04643330e-01, -3.63261439e-03],
         [ 2.03563925e-02, -7.51591250e-02, -3.64226773e-02,
          -4.15614806e-02,  9.39687993e-03]],

        [[ 4.21152376e-02,  1.37985041e-02, -1.20871603e-01,
          -3.87677774e-02, -2.81690806e-02],
         [-3.57367545e-02, -1.57386303e-01, -1.15434155e-01,
          -5.22371754e-02, -3.95679176e-02],
         [-7.83159956e-02, -8.60164408e-03,  9.32575092e-02,
           7.21810833e-02, -2.47600041e-02],
         [-3.83170322e-02,  1.15206584e-01,  1.33785143e-01,
           4.27757204e-02, -1.17220402e-01],
         [ 6.69540837e-02, -4.39408831e-02, -4.23012748e-02,
          -1.09000755e-02,  5.26349731e-02]],

        [[-3.93944010e-02,  6.62336946e-02,  1.20202769e-02,
           1.01294918e-02,  8.42962936e-02],
         [-9.04932916e-02,  4.27447036e-02,  1.23709505e-02,
           7.18832687e-02, -4.27119546e-02],
         [ 4.71191714e-03, -4.46114577e-02,  2.08863411e-02,
           5.12974933e-02,  4.51562218e-02],
         [ 4.34276499e-02,  3.87293845e-02,  7.09037483e-02,
           1.02669457e-02, -6.09574020e-02],
         [ 4.10024412e-02,  5.28749973e-02,  9.78481956e-03,
          -6.94848746e-02, -1.45593155e-02]],

        [[ 6.04893139e-04,  1.83460042e-02, -2.61855479e-02,
           2.75172349e-02, -1.57186463e-02],
         [-1.13351427e-01, -9.16162208e-02, -6.87309876e-02,
          -5.17645758e-03, -5.67463506e-03],
         [-1.17743164e-01, -9.03266966e-02, -1.74042955e-01,
          -2.98309065e-02,  3.62909772e-02],
         [-6.30871207e-02,  2.47764005e-03,  8.05579275e-02,
          -3.86793129e-02,  8.20482001e-02],
         [-4.74117100e-02, -1.99154112e-02,  1.05870433e-01,
           5.70630655e-02, -5.40396534e-02]],

        [[ 6.05370663e-02, -8.29053745e-02, -1.94574483e-02,
           3.14044133e-02, -6.80224150e-02],
         [-4.49729003e-02, -8.75048190e-02, -1.19149564e-02,
          -6.77470639e-02,  4.91007082e-02],
         [-1.20745562e-01, -5.44313248e-03,  7.97110870e-02,
           9.15989876e-02, -7.47255702e-03],
         [ 1.05024733e-01,  8.00552070e-02,  7.56784678e-02,
           1.75290778e-02, -5.18693179e-02],
         [-6.84625134e-02, -3.83045487e-02,  2.06863321e-02,
          -7.03011528e-02, -3.36616784e-02]],

        [[ 1.68832205e-02, -1.44776786e-02,  3.14314663e-02,
           2.69183517e-02,  2.20920052e-02],
         [ 4.91681471e-02, -7.73268193e-02, -3.73136885e-02,
          -7.37663060e-02, -1.23425398e-03],
         [-1.14801176e-01,  1.70373917e-02, -4.13694084e-02,
          -1.94916353e-02,  2.12479718e-02],
         [-8.07282254e-02, -8.71910434e-03, -6.18775524e-02,
           5.79064153e-03, -3.18589248e-02],
         [ 1.82803161e-02,  1.00640617e-01, -3.35448608e-02,
          -2.22546402e-02,  6.02181740e-02]]],


       ...,


       [[[-6.90001100e-02, -1.16548024e-01, -7.36794099e-02,
          -1.05173085e-02, -9.55911204e-02],
         [-1.11756966e-01, -1.38773039e-01,  9.34714228e-02,
           3.88690792e-02, -5.82255870e-02],
         [-1.23001471e-01, -1.34680616e-02,  1.33341536e-01,
           8.83021057e-02, -4.08453047e-02],
         [-8.81497562e-02,  1.30743533e-01,  6.81380108e-02,
           3.21106501e-02, -1.26337230e-01],
         [ 7.30887353e-02,  2.08926275e-01,  7.31233507e-02,
           3.93518340e-03, -1.13341041e-01]],

        [[ 5.24435043e-02, -1.26540964e-03, -5.88748306e-02,
          -7.54030868e-02,  1.12700174e-02],
         [ 6.11196384e-02, -1.24301501e-01, -1.02634858e-02,
           7.18805147e-03,  9.11320597e-02],
         [-1.06343478e-01, -8.97097066e-02,  7.57403001e-02,
           1.04982115e-01, -4.78101969e-02],
         [-1.16086438e-01,  2.35901009e-02,  1.55485556e-01,
           3.00911237e-02, -5.62384911e-02],
         [-2.37438199e-03, -2.07103770e-02,  7.36074448e-02,
           1.67493038e-02, -7.62643516e-02]],

        [[ 4.70833369e-02, -7.12728351e-02, -7.95588046e-02,
           5.37967682e-02, -6.47004768e-02],
         [-2.03990117e-02,  6.78956732e-02, -7.69961700e-02,
          -3.62567641e-02,  5.73416911e-02],
         [-5.80072887e-02, -6.55238032e-02,  3.39796720e-03,
           2.34353095e-02, -5.29806241e-02],
         [-8.44454244e-02, -7.85389021e-02, -1.47618921e-02,
          -4.13647965e-02,  3.51396538e-02],
         [-1.41087519e-02, -1.03077255e-02, -7.20883384e-02,
          -7.89554417e-02,  9.15284902e-02]],

        [[ 3.34189758e-02, -7.92745128e-02, -1.69139206e-02,
          -1.30866304e-01, -1.76921189e-01],
         [-3.21644731e-02, -1.27472520e-01, -1.45703834e-02,
           3.86401042e-02, -1.71174973e-01],
         [-7.51800239e-02, -9.95077342e-02, -6.66871667e-02,
          -5.01702167e-02, -7.40899667e-02],
         [-8.04820284e-02, -1.20165408e-01, -6.01665042e-02,
           3.15214545e-02,  2.83413250e-02],
         [-7.54848048e-02,  2.64885463e-02, -8.36624429e-02,
          -6.68746466e-03,  1.19948527e-02]],

        [[ 3.04660089e-02, -1.41251326e-01, -1.34796709e-01,
          -1.50245667e-01, -1.12946987e-01],
         [-5.19259311e-02, -8.17943066e-02, -4.15357649e-02,
          -4.51971106e-02,  6.68073222e-02],
         [-1.00157447e-01, -1.03184422e-02, -8.01359490e-02,
           5.15685417e-02, -3.30547616e-02],
         [-4.02083695e-02, -6.89301416e-02, -1.10294996e-02,
           8.08646977e-02, -1.73634980e-02],
         [ 2.57304497e-02,  2.15212498e-02,  6.87212572e-02,
           7.71117411e-05,  3.81907895e-02]],

        [[ 2.48209536e-02, -9.68022197e-02,  6.88397465e-03,
           9.63214971e-03,  1.21859880e-02],
         [-4.58796546e-02,  1.77774020e-02,  1.08570000e-03,
          -6.65369118e-03, -1.39500424e-01],
         [-8.69325846e-02,  2.60036439e-03,  3.96526344e-02,
           7.90358987e-03, -1.05899006e-01],
         [ 2.35269703e-02, -3.73413749e-02,  7.30559826e-02,
           7.34221749e-03,  3.86810899e-02],
         [ 4.93091494e-02,  8.64408612e-02, -8.20670202e-02,
          -4.70882803e-02, -4.54644151e-02]]],


       [[[ 4.87508327e-02,  4.41061072e-02,  1.70966908e-01,
           1.03258163e-01,  1.50432214e-01],
         [-2.18174811e-02,  5.81172705e-02, -2.18934864e-02,
           3.14728655e-02, -9.54824910e-02],
         [ 4.01718430e-02,  1.62042715e-02, -8.36107731e-02,
          -7.40489513e-02, -1.25944421e-01],
         [-8.76840111e-03, -1.08957350e-01, -7.66911134e-02,
          -1.60688892e-01, -1.18015081e-01],
         [ 2.23605856e-02,  5.55105926e-03,  9.74753648e-02,
           3.37789878e-02, -3.14431749e-02]],

        [[ 7.15646371e-02, -3.21498290e-02, -6.70432746e-02,
           8.43314528e-02,  1.08180411e-01],
         [ 8.89694765e-02,  5.28794937e-02,  1.12451367e-01,
           2.69532297e-03,  7.60667250e-02],
         [ 9.50501487e-02,  4.32285257e-02, -6.47838414e-02,
           2.70476192e-03, -1.09063633e-01],
         [ 1.62452199e-02, -1.46904409e-01, -1.23934358e-01,
          -1.50663778e-01, -1.21598817e-01],
         [-8.10308440e-04, -1.14662565e-01, -9.05715749e-02,
          -4.87891994e-02, -1.31912995e-02]],

        [[-7.47716203e-02, -7.01141581e-02,  5.90988770e-02,
           8.68643969e-02,  5.00247404e-02],
         [-7.71535859e-02, -2.12347247e-02, -1.44795105e-02,
          -2.38088444e-02,  7.73830563e-02],
         [ 8.18801746e-02,  9.51262340e-02,  5.31338202e-03,
          -9.13994573e-03, -5.60183711e-02],
         [-3.39811966e-02, -5.98766543e-02, -4.55025723e-03,
          -7.84610584e-02,  2.00561751e-02],
         [ 7.56871477e-02, -1.28913755e-02,  5.07829972e-02,
          -5.89218736e-02,  1.09491432e-02]],

        [[ 1.52567439e-02, -8.24121386e-03,  1.93692150e-03,
           9.23287049e-02,  5.91367483e-02],
         [-8.09324235e-02, -5.12773059e-02,  7.11033791e-02,
           4.60805520e-02,  5.78865111e-02],
         [ 1.11727854e-02, -2.92027704e-02,  6.66065812e-02,
           6.05565645e-02, -5.19351736e-02],
         [-2.81728525e-02, -3.84591855e-02, -9.62327868e-02,
          -1.18032105e-01, -8.94160047e-02],
         [-5.60918078e-02, -1.35309890e-01, -1.59998074e-01,
          -1.38768002e-01, -1.50886133e-01]],

        [[ 6.23438805e-02,  8.68349448e-02, -3.70183773e-02,
           6.84661567e-02,  1.59635067e-01],
         [ 5.26358665e-04, -1.26778102e-02,  1.30702808e-01,
           1.18804500e-01,  6.09130710e-02],
         [ 2.69874614e-02,  4.66726422e-02, -2.51108538e-02,
           7.72616267e-03, -6.12383708e-02],
         [-4.10688519e-02, -3.73955118e-04, -1.39161363e-01,
          -1.42227173e-01, -8.48581642e-02],
         [ 3.65629382e-02,  1.17315203e-02, -3.73513214e-02,
          -1.86885204e-02, -2.41785180e-02]],

        [[-5.62165380e-02,  5.21179102e-03,  2.35272180e-02,
           5.50110936e-02,  4.05503735e-02],
         [-9.70794167e-03,  6.29020557e-02, -4.15061340e-02,
           4.17094827e-02,  2.59054080e-02],
         [-4.48123589e-02, -1.67514314e-03,  6.77707195e-02,
           1.16862403e-02, -6.46794885e-02],
         [ 1.67310871e-02,  4.04027030e-02, -1.34362718e-02,
          -3.01465150e-02, -9.20211673e-02],
         [-1.58455353e-02, -5.91887087e-02, -9.46386307e-02,
          -4.59148213e-02, -1.09536514e-01]]],


       [[[ 1.94491558e-02, -6.88271746e-02,  1.19471580e-01,
           1.09750740e-01, -5.37023619e-02],
         [ 1.73099805e-02,  1.06794611e-01,  1.20505780e-01,
           1.59023762e-01,  1.18787047e-02],
         [-1.15429848e-01, -9.33465138e-02, -3.09219602e-02,
          -7.50425756e-02, -4.11401875e-02],
         [-1.54483750e-01, -1.57666519e-01, -1.71017393e-01,
           2.15049759e-02,  5.47291972e-02],
         [ 5.20077199e-02,  2.72865929e-02, -1.02084599e-01,
          -3.99303017e-03, -6.11882955e-02]],

        [[ 5.67458272e-02, -4.43409272e-02, -8.11058655e-02,
           8.09843317e-02,  6.58035800e-02],
         [-2.26612829e-04, -3.88020277e-02,  8.85462686e-02,
           1.31230345e-02,  7.70719349e-02],
         [ 1.39597524e-02, -3.61537784e-02,  5.22982217e-02,
           1.53858848e-02, -1.01411594e-02],
         [-1.34380937e-01, -4.57117856e-02, -7.14823827e-02,
          -7.15424269e-02, -8.38274583e-02],
         [-3.31156328e-03,  1.76854115e-02, -1.46898657e-01,
          -1.20715834e-02, -4.65667583e-02]],

        [[-1.00420900e-02,  4.17864360e-02, -7.93935433e-02,
           2.74354834e-02, -6.23616464e-02],
         [-5.66678308e-02,  7.81641006e-02,  5.04966341e-02,
          -2.62363534e-02,  3.60814147e-02],
         [ 1.94550306e-02, -2.23441776e-02,  6.54955879e-02,
           6.65367022e-02,  7.17052165e-03],
         [ 2.96574831e-02, -4.27739508e-02,  3.59315611e-02,
          -1.24896970e-02,  9.92493555e-02],
         [ 6.26901165e-02, -4.21172678e-02, -1.19977752e-02,
           4.86798324e-02, -6.60182908e-02]],

        [[-8.18566009e-02, -3.28399576e-02, -4.00294363e-03,
           7.70494193e-02,  5.38539216e-02],
         [-6.57972768e-02, -3.33064310e-02, -1.15279973e-01,
           5.67701310e-02, -6.01452887e-02],
         [ 1.17260821e-01,  1.85934082e-02,  2.39111613e-02,
           9.12178531e-02,  6.89189211e-02],
         [-7.60377645e-02,  4.08610255e-02,  8.74037296e-02,
           8.03122893e-02,  3.54755148e-02],
         [-7.74764866e-02, -3.88644524e-02, -1.19222730e-01,
          -1.01949431e-01, -2.97803488e-02]],

        [[-7.66725093e-02, -1.13310166e-01, -2.04905625e-02,
          -2.43993923e-02, -2.22589299e-02],
         [-6.23218492e-02,  4.81736287e-02, -3.93247269e-02,
           6.67787418e-02,  7.43588880e-02],
         [ 1.01202819e-02,  4.41284850e-02,  1.08790234e-01,
           1.03317641e-01,  7.23612010e-02],
         [-4.90222909e-02, -9.29480593e-04, -8.25008973e-02,
          -9.08957273e-02,  7.16599822e-03],
         [-3.32879908e-02, -5.10113128e-02, -1.31762214e-03,
          -8.54374692e-02, -3.13918553e-02]],

        [[-7.03364564e-03,  6.27297536e-02, -5.42374030e-02,
           3.94399352e-02, -5.55460714e-02],
         [-9.18798596e-02,  1.49783632e-02,  2.10550521e-02,
           9.91290342e-03, -5.66048697e-02],
         [ 7.64175802e-02, -4.79669832e-02,  6.25939965e-02,
           3.48254554e-02,  3.31335329e-02],
         [-6.93086758e-02,  8.28195959e-02,  8.82270709e-02,
          -1.95426624e-02,  4.12986614e-02],
         [-7.56794140e-02, -7.89071806e-03,  1.86621659e-02,
          -4.11400050e-02, -7.50330910e-02]]]], dtype=float32), array([ 0.01680386,  0.02863033, -0.05517174,  0.01766784, -0.04657406,
       -0.00102974,  0.06850392,  0.02982159, -0.00279722, -0.09179893,
       -0.00157794, -0.06209259,  0.01620313, -0.0265513 , -0.03729831,
        0.0559809 ], dtype=float32), array([[-0.02308543,  0.01309877, -0.0935974 , ...,  0.07968824,
        -0.01468087,  0.08279049],
       [-0.01724337, -0.08868632, -0.03923467, ...,  0.0241001 ,
        -0.03954884,  0.00346407],
       [ 0.01020537, -0.08465888, -0.1223071 , ..., -0.06309199,
        -0.07108352,  0.01421651],
       ...,
       [ 0.0283871 , -0.06849335,  0.04437288, ..., -0.03829412,
         0.04227668, -0.03511266],
       [-0.01181821, -0.02352852, -0.04007974, ..., -0.02684525,
        -0.01201549, -0.02489366],
       [-0.04181333,  0.02050984,  0.00036056, ..., -0.01859606,
         0.00927537, -0.03454939]], dtype=float32), array([ 5.24050668e-02,  6.63481131e-02,  4.22258079e-02, -3.84727158e-02,
        2.34662592e-02, -4.69222153e-03,  2.90126707e-02,  4.70631570e-02,
       -3.43045257e-02,  3.61360423e-02,  1.35936942e-02, -1.19510405e-02,
        4.77639213e-03,  7.77459051e-03,  6.34224489e-02,  5.94374165e-03,
        1.21045252e-02, -3.14560644e-02,  5.39529771e-02,  2.31400840e-02,
        2.26418674e-02, -3.31672132e-02, -4.58692983e-02, -3.45850326e-02,
        6.39629811e-02,  2.99852109e-05,  2.21455712e-02,  4.75707371e-03,
       -2.78739203e-02,  2.18846854e-02, -2.33949106e-02, -2.86658984e-02,
        3.56090777e-02, -5.32861147e-03,  5.98484650e-03,  2.58702338e-02,
        4.15975116e-02, -2.61921454e-02, -2.05066130e-02, -6.21363744e-02,
       -5.79573773e-02, -2.28026956e-02,  5.55314450e-03, -1.85029469e-02,
        4.43517864e-02,  5.77900037e-02, -3.31185721e-02,  7.41198510e-02,
        3.60962190e-02,  1.72459073e-02,  2.70541031e-02, -4.22466779e-03,
        5.68843968e-02, -1.85047351e-02,  3.95263284e-02, -4.33202162e-02,
        5.59740700e-02, -1.03947502e-02,  1.12214161e-03,  7.05909263e-03,
        1.23680038e-02, -1.07865585e-02, -3.13122645e-02, -2.26447489e-02,
        3.65296900e-02,  6.26002029e-02,  3.38455439e-02,  9.75549745e-04,
       -1.96616445e-02,  1.30256172e-02,  3.57043706e-02, -5.05768321e-02,
        5.94356246e-02, -8.61248001e-03, -1.78770255e-02, -1.99863710e-03,
       -3.30438167e-02,  4.92371172e-02,  3.87203433e-02, -6.33065552e-02,
       -3.06404512e-02,  5.57481498e-02,  4.96218726e-02,  5.80886491e-02,
       -5.85972033e-02,  1.46687813e-02, -2.75922287e-02,  4.57745381e-02,
        4.43806276e-02, -3.84956300e-02, -2.88610701e-02, -4.30980092e-03,
       -5.30621782e-02, -2.52721552e-02, -1.98078807e-02, -2.09352616e-02,
       -1.10402443e-02,  2.43191770e-03,  3.27250338e-04, -2.98424475e-02,
       -4.53032479e-02,  5.27948849e-02, -5.36268651e-02,  2.95194145e-02,
        1.88179594e-02,  7.16217188e-03,  4.40939479e-02, -1.16738053e-02,
       -2.17150301e-02, -3.16401175e-03, -4.68728226e-03, -5.88714406e-02,
        6.39341015e-04, -5.85020669e-02,  6.86769858e-02, -2.94740330e-02,
       -1.66231359e-03,  2.39818338e-02,  4.02664505e-02,  2.92467084e-02],
      dtype=float32), array([[-0.00854299,  0.0466591 , -0.04178311, ..., -0.09052169,
         0.01916066,  0.00909093],
       [ 0.0228589 ,  0.02913896, -0.05931491, ..., -0.01557905,
         0.07628   ,  0.09339048],
       [ 0.04116874, -0.08896624, -0.07900763, ...,  0.07717624,
         0.02704753,  0.03735653],
       ...,
       [ 0.03374882, -0.09104561, -0.03755593, ...,  0.05292074,
        -0.01345103, -0.05620824],
       [-0.06872363,  0.03197217, -0.01350859, ..., -0.06105679,
         0.05798941,  0.04521775],
       [ 0.04977522,  0.06505943,  0.10464814, ...,  0.04385389,
        -0.02760219,  0.02344224]], dtype=float32), array([-0.08869231, -0.06012173, -0.04869413,  0.06287153, -0.09370922,
       -0.0779231 ,  0.11606249, -0.05693806,  0.07698165,  0.03322494,
        0.09110923, -0.05410993,  0.06270912,  0.05064803,  0.06546993,
       -0.03661853, -0.05228671,  0.06420217, -0.03701529, -0.04950975,
       -0.02267058,  0.0510555 , -0.00488314,  0.02378878, -0.07564275,
        0.09613562,  0.04588335, -0.02227754,  0.00628245,  0.02883691,
        0.05352654,  0.06254762,  0.00084503, -0.02447706,  0.02048086,
       -0.05720665, -0.03453931,  0.06932634,  0.00561789, -0.0958382 ,
        0.0386453 , -0.03887131,  0.05498694, -0.06311043,  0.06429332,
        0.02746919,  0.06720635, -0.04034241, -0.00066575,  0.06310289,
        0.08428466, -0.04574844,  0.04680924, -0.00570649,  0.06342784,
       -0.02069395, -0.03694731,  0.07505577,  0.04855156, -0.0386544 ,
        0.04860463, -0.05935003, -0.05708579,  0.02770412, -0.02136835,
       -0.02451289,  0.03813317, -0.04093862,  0.02563932, -0.0797996 ,
        0.04701452,  0.02913808, -0.0342793 ,  0.06317689,  0.00960342,
       -0.03331067,  0.12524673,  0.08703572,  0.06441209,  0.09648271,
       -0.09420372, -0.04855563, -0.01419278,  0.0268204 ], dtype=float32), array([[-9.19207484e-02,  8.11567307e-02,  2.41379570e-02,
         1.94987774e-01,  5.29604144e-02,  1.38198137e-01,
        -8.78016949e-02, -2.14675009e-01,  9.42958519e-04,
        -4.54560705e-02,  2.52349973e-02,  8.50395039e-02,
        -2.46265352e-01,  1.91164047e-01, -1.22171715e-01,
        -7.82431364e-02, -2.38383174e-01,  3.52274813e-02,
        -6.03323206e-02, -7.21092001e-02,  1.26486067e-02,
         1.70191631e-01, -1.89420730e-01,  5.98940961e-02,
        -6.98245093e-02, -7.93619379e-02,  3.31582092e-02,
         8.58733803e-03, -1.39183819e-01, -8.04030523e-02,
        -6.54174760e-02,  8.07164013e-02, -1.10170059e-01,
        -1.30113333e-01, -2.01632585e-02, -6.49658963e-02,
        -1.38435783e-02, -8.40302035e-02, -7.05511309e-04,
        -3.93857099e-02, -7.63675869e-02, -4.65296134e-02,
        -6.31340519e-02, -1.47498190e-01, -3.83015238e-02,
         5.72393648e-02, -1.54259637e-01, -4.56066662e-03,
        -1.47300944e-01, -6.55087084e-02,  6.73464164e-02,
         8.15758109e-02,  1.87671825e-01,  2.56733090e-01,
        -3.86053361e-02,  8.60229805e-02, -2.29916312e-02,
        -2.08617389e-01,  1.54994726e-02,  2.53756136e-01,
        -1.46530895e-02,  4.33915406e-02,  2.78281540e-01,
        -4.18043602e-03,  3.59359793e-02, -6.83254376e-02,
         8.52106977e-03, -1.09135449e-01,  1.15318060e-01,
        -9.86376852e-02,  2.86868125e-01,  6.90656826e-02,
        -7.86099285e-02, -1.03448145e-02, -8.30980390e-02,
        -3.78073417e-02, -1.05943367e-01, -1.33186942e-02,
         4.73388582e-02, -5.22108749e-02, -5.48323542e-02,
         8.34131241e-03,  7.71738961e-03,  8.76048282e-02],
       [-6.06425591e-02,  1.46407271e-02,  9.57655981e-02,
        -1.17310561e-01,  9.97186974e-02, -2.13336468e-01,
         9.58626345e-02,  3.11591737e-02,  1.62021648e-02,
         8.30080211e-02, -1.21093206e-01,  5.49727725e-03,
         1.50411189e-01, -4.58877021e-03, -2.02656046e-01,
        -9.89076495e-02, -5.76239526e-02, -6.18794523e-02,
        -3.05039138e-02, -1.16271667e-01, -1.12982422e-01,
        -1.87285282e-02,  1.02987878e-01,  9.95516405e-02,
         4.89257202e-02,  1.18705235e-01,  2.41579860e-02,
        -2.40783836e-03,  1.93232372e-01, -1.98933035e-01,
        -5.71430176e-02, -1.09079011e-01, -1.61980614e-01,
        -1.50183469e-01,  1.93186868e-02, -1.07080907e-01,
         1.67136759e-01, -1.18795820e-01, -6.28706738e-02,
         7.49310851e-02, -1.08017437e-01, -8.88973922e-02,
        -9.28665251e-02,  1.43723980e-01,  1.05335901e-03,
        -7.02178627e-02,  1.91950351e-01,  8.87443870e-02,
         1.83962271e-01,  9.81161073e-02,  2.39072293e-01,
         9.15316213e-03, -1.31629840e-01, -2.72960141e-02,
         1.59884512e-01, -3.30020450e-02, -1.03780799e-01,
        -1.52567402e-01, -1.11351073e-01, -2.28985935e-01,
        -1.71613470e-01, -9.33434740e-02, -1.77807346e-01,
         4.58237454e-02,  8.03947598e-02,  7.54576027e-02,
         1.22644855e-02,  1.70821741e-01, -9.40517262e-02,
         6.82166293e-02, -2.01267272e-01,  8.38381648e-02,
        -1.00463763e-01, -2.62577057e-01, -2.25544758e-02,
        -1.10313334e-01,  3.09592128e-01, -1.07204445e-01,
         5.16183535e-03, -1.43159283e-02, -1.21493097e-02,
         5.32500520e-02, -8.18830729e-02,  1.94452673e-01],
       [-3.39120423e-04,  3.28241773e-02,  1.05744466e-01,
        -2.60152906e-01, -1.11696780e-01,  2.00443417e-01,
         1.32318497e-01, -1.81074411e-01, -1.43490478e-01,
        -2.83094086e-02,  5.51920719e-02, -1.02440134e-01,
        -2.27176219e-01,  9.46324170e-02, -1.17986575e-01,
         2.38987301e-02, -2.33871177e-01,  1.19848559e-02,
        -7.56455064e-02,  1.22087501e-01, -1.03475071e-01,
         1.06977813e-01,  2.07260355e-01,  9.13006514e-02,
         5.39011043e-03, -9.61977392e-02, -4.18984145e-02,
        -7.21039176e-02,  1.16885506e-01, -3.15658264e-02,
        -9.57132652e-02, -8.78947973e-02, -4.75946069e-02,
         1.51153281e-01,  1.67513322e-02,  8.73847529e-02,
        -2.25420762e-02,  1.02527864e-01,  2.03664899e-02,
        -9.50495750e-02,  6.50346503e-02,  1.02122344e-01,
         5.28242439e-02,  5.28142750e-02,  8.84473920e-02,
        -1.41394839e-01, -1.44776538e-01, -7.07448125e-02,
         1.40989900e-01,  6.29360881e-03, -7.95361921e-02,
        -4.94780764e-02,  9.57056507e-02,  7.33781680e-02,
         2.45239615e-01, -2.60732442e-01, -5.92688425e-03,
        -1.92100927e-01,  9.78692770e-02,  3.57345492e-02,
         4.54586558e-02, -2.38592196e-02,  7.25552216e-02,
        -7.64852762e-02, -1.02574630e-02,  4.32257578e-02,
        -2.25928932e-01,  1.92046240e-01, -1.11299502e-02,
        -1.25487465e-02, -2.50234082e-02,  4.30200957e-02,
        -1.13393910e-01,  4.65905294e-02, -1.23715242e-02,
        -4.08463068e-02,  4.24378067e-02,  5.66250682e-02,
         2.83125578e-03,  1.09912038e-01,  5.08302189e-02,
         9.11022499e-02,  1.70886934e-01,  1.08788565e-01],
       [ 6.37409613e-02, -1.88538954e-02,  8.29072297e-02,
         1.68936968e-01, -9.93274990e-03,  1.78778604e-01,
        -1.02620818e-01,  3.27746421e-02, -1.51711166e-01,
        -1.39547000e-02, -1.59844235e-01, -2.99259778e-02,
         3.25963721e-02,  1.27166957e-01, -4.87595610e-02,
         6.52903244e-02,  1.60974748e-02, -1.02280378e-02,
        -9.54910070e-02, -1.31964669e-01,  1.18827308e-02,
        -1.32149860e-01, -1.60988167e-01,  9.33695585e-02,
        -4.95808944e-02,  2.31430173e-01, -2.28905212e-02,
         5.75697981e-02,  1.85133666e-01,  1.98444724e-01,
         6.11352921e-02,  9.29449499e-02,  1.61316127e-01,
         2.73799568e-01,  1.81456283e-01,  9.14195403e-02,
         8.01718310e-02,  2.76197176e-02, -1.09798923e-01,
         4.88507859e-02, -8.84893760e-02,  7.92148784e-02,
         6.02584630e-02, -3.50960158e-02,  6.49494827e-02,
        -6.35544211e-02, -1.39808699e-01,  3.34414206e-02,
         7.55600780e-02,  1.20933160e-01, -9.16758738e-03,
        -3.31386440e-02, -1.23644486e-01, -5.48346788e-02,
        -1.13041736e-01, -1.61763281e-01, -8.96841139e-02,
         7.96961784e-02, -4.33085747e-02, -2.20711492e-02,
        -1.34805664e-01,  1.00440584e-01, -1.82646979e-02,
        -7.96352606e-03, -3.05758766e-03, -5.79633489e-02,
        -1.03116944e-01, -1.06099553e-01, -4.18826938e-02,
        -7.06141368e-02, -1.45528670e-02,  1.11543231e-01,
        -5.42343818e-02,  1.05079018e-01,  8.75565484e-02,
         2.83494085e-01,  1.40329108e-01, -2.68383734e-02,
         5.77285737e-02, -1.13353968e-01, -6.19015843e-02,
         5.41426465e-02,  5.63539378e-02,  2.06669733e-01],
       [-9.33922902e-02,  1.98151786e-02,  3.96190174e-02,
        -2.37241924e-01,  2.25465223e-02, -4.34594788e-02,
         3.55302282e-02,  2.11027399e-01,  1.17288999e-01,
        -6.63881525e-02,  2.45743290e-01,  9.15487558e-02,
         2.67210990e-01, -1.27684483e-02, -9.78487171e-03,
         2.01625638e-02,  6.42319247e-02, -1.26464814e-01,
         4.23094723e-03,  1.37489304e-01, -8.25180337e-02,
        -6.25883341e-02,  8.58583227e-02,  5.17629422e-02,
        -7.95184448e-02,  9.16485267e-04,  9.47994962e-02,
        -7.50296935e-02, -1.29392520e-01, -1.41654670e-01,
         1.41617274e-02,  6.22337200e-02,  1.69949308e-01,
        -6.60302714e-02,  1.47261824e-02,  6.52995780e-02,
         1.18753292e-01, -1.25530049e-01,  1.14297651e-01,
         3.97753231e-02,  2.17090156e-02, -2.31178869e-02,
        -2.66464744e-02, -7.80641139e-02,  1.19970627e-02,
         6.13235570e-02, -8.39632154e-02,  7.70053640e-02,
         1.13090850e-01, -3.82795297e-02,  1.02698363e-01,
         3.15651335e-02, -6.82371631e-02, -5.94751015e-02,
        -4.50986624e-02,  2.89993896e-03,  4.06337976e-02,
         2.30374306e-01, -1.19775031e-02, -2.09429145e-01,
         3.04303378e-01, -1.43622577e-01, -4.94402200e-02,
        -1.32177368e-01, -5.81592359e-02, -6.78731725e-02,
         1.47938609e-01, -2.02704877e-01,  1.55367136e-01,
         1.59177035e-01, -8.34056288e-02, -6.56438693e-02,
         1.78134859e-01,  1.36612102e-01,  7.89273828e-02,
        -2.27629282e-02, -2.18085334e-01, -2.78970867e-01,
        -7.94969425e-02,  4.78808284e-02,  1.46139795e-02,
        -1.01089567e-01,  7.05295010e-04, -2.73370236e-01],
       [ 9.17424913e-03, -7.50751123e-02, -6.55619502e-02,
         2.50075489e-01,  6.84535950e-02, -6.27122670e-02,
        -1.92759812e-01, -8.83421898e-02, -4.66371067e-02,
         2.37587001e-02,  2.50572525e-02, -1.25920428e-02,
         1.16397910e-01, -6.02108836e-02,  1.39956743e-01,
         9.92038101e-02,  2.89349139e-01,  1.22266948e-01,
        -1.65426508e-02,  7.44977668e-02, -1.91325545e-02,
        -7.77539387e-02, -1.42540634e-01,  1.92071721e-02,
        -7.76218399e-02,  4.98808585e-02,  1.11855693e-01,
         4.83741239e-02, -8.00942406e-02,  7.72449002e-02,
        -5.04892878e-02, -2.76150275e-02,  5.85126989e-02,
        -9.72489938e-02, -1.11476570e-01,  9.13438201e-02,
        -1.08531699e-01,  6.67032227e-02,  1.92501396e-01,
         6.35424852e-02, -4.19697054e-02,  4.31992412e-02,
        -1.48234770e-01, -9.85739827e-02,  7.01635554e-02,
        -1.38121530e-01, -1.07367016e-01, -3.73928100e-02,
        -2.48364657e-02, -9.21116471e-02, -3.50334286e-03,
        -4.47844379e-02,  1.11825861e-01,  1.12625144e-01,
        -1.15594782e-01,  1.64472163e-01, -8.16321075e-02,
         8.82354081e-02,  4.32974240e-03,  1.10555425e-01,
         1.78014953e-02,  1.14463940e-01, -1.45194144e-03,
         2.53531393e-02, -6.05683662e-02, -4.86631971e-03,
        -1.40727445e-01, -5.74965589e-02, -1.65306956e-01,
         5.58006801e-02,  3.37179452e-02, -5.30490391e-02,
        -4.85351719e-02,  1.26542017e-01, -9.42897126e-02,
         7.67345428e-02,  5.10400087e-02, -6.74077421e-02,
         2.82439552e-02, -1.11561857e-01, -3.23161371e-02,
         4.33301367e-02, -5.76087199e-02,  1.93161070e-01],
       [ 3.78191322e-02,  8.23110994e-03,  9.05064121e-02,
         2.18852937e-01, -5.00829816e-02, -1.00571692e-01,
        -1.30467102e-01, -1.29480168e-01, -9.34692994e-02,
        -9.77898389e-02,  1.14089295e-01, -2.79940758e-02,
        -5.39887324e-03, -1.22180685e-01, -1.72834024e-01,
        -8.91121477e-02, -2.16930062e-01, -1.49512512e-03,
        -9.28076729e-03,  2.94504985e-02,  2.03857422e-02,
        -1.97958760e-02,  1.31870046e-01,  7.61427730e-02,
        -2.53868215e-02, -1.24973759e-01, -2.11460106e-02,
         3.83084267e-03, -1.56986013e-01, -7.69893378e-02,
        -2.41021588e-02,  5.66332564e-02,  1.75101250e-01,
        -8.92144144e-02,  2.37911637e-03, -1.67877153e-02,
         5.08870929e-02,  7.31129497e-02,  2.81179339e-01,
        -5.05630672e-03, -1.41325565e-02, -1.03721902e-01,
        -1.73939094e-01, -1.20051250e-01, -3.18158828e-02,
         3.45598400e-01, -1.70800865e-01,  5.64509910e-03,
         5.76879978e-02, -1.20208822e-01,  6.36107773e-02,
        -1.60668325e-02,  1.82652101e-01, -1.16818741e-01,
         8.56469348e-02, -1.57216832e-03,  7.60861486e-02,
        -1.76227495e-01, -9.59354267e-02, -1.88330874e-01,
         1.50668770e-01, -9.81238764e-03,  1.87609836e-01,
         1.65365543e-02,  2.29686089e-02,  2.67697256e-02,
        -1.81176603e-01, -9.13494378e-02,  9.77061875e-03,
         2.69394338e-01, -5.81789911e-02,  3.53361666e-02,
         1.57890618e-02, -5.53036928e-02, -2.88642272e-02,
        -4.92793806e-02,  1.61634162e-01, -1.87003389e-01,
        -9.58043858e-02, -8.61870646e-02,  9.77402031e-02,
        -6.60108253e-02, -1.65276021e-01, -9.17040259e-02],
       [ 1.02431141e-01, -1.08729422e-01, -2.91448669e-03,
        -2.47491702e-01, -1.05168141e-01,  3.84573825e-02,
        -1.02022372e-01,  1.41540289e-01, -4.68308814e-02,
        -5.06935902e-02, -2.60325931e-02,  1.10264957e-01,
        -1.11248657e-01, -8.54615793e-02, -1.74404010e-01,
         7.75294974e-02,  1.82844132e-01, -6.61805039e-04,
         3.08031272e-02, -6.05918355e-02, -7.55365640e-02,
         1.41616285e-01,  3.08483373e-03, -2.86358763e-02,
         3.64204161e-02,  1.65906727e-01,  5.77830188e-02,
        -5.14199995e-02,  1.71364382e-01,  9.40082222e-02,
        -4.06533964e-02,  8.10089856e-02, -2.20327809e-01,
         1.84614584e-01,  3.51084885e-03, -5.32209277e-02,
        -1.54181555e-01, -1.88478231e-01, -1.62885129e-01,
         4.27560247e-02,  6.22690916e-02,  1.01913780e-01,
        -9.68769789e-02,  4.57751146e-03,  3.29794874e-03,
        -8.64688084e-02,  1.82191521e-01,  6.90847635e-02,
        -4.21285294e-02, -4.82207760e-02, -8.86865482e-02,
         1.16502002e-01, -8.01841244e-02,  5.50128706e-02,
        -7.84116909e-02, -1.81241885e-01, -5.51855676e-02,
         2.38827378e-01, -9.30344090e-02,  2.02843904e-01,
        -8.06694031e-02,  3.66413556e-02, -1.62051946e-01,
         9.28952247e-02,  6.98952079e-02,  8.29975009e-02,
         5.04779108e-02,  5.56793325e-02, -5.33984564e-02,
        -1.32548705e-01, -9.75029245e-02,  2.67272699e-03,
         2.66637709e-02, -1.63904428e-01, -2.41441857e-02,
        -4.50404212e-02, -1.99070588e-01,  3.12236995e-01,
         2.12252117e-03,  1.26190886e-01, -8.84100199e-02,
         7.64694139e-02,  7.68840909e-02,  9.19368640e-02],
       [-5.05699515e-02,  7.58368447e-02, -2.49519628e-02,
        -6.20309711e-02, -8.81623775e-02, -4.65218909e-02,
         2.11189792e-01, -1.37949169e-01,  7.90916011e-02,
        -4.33900841e-02,  7.77215436e-02, -1.18601337e-01,
         1.81611981e-02,  6.99215755e-02,  2.26196691e-01,
        -7.81400353e-02, -2.87525430e-02,  7.03721866e-02,
        -7.63100088e-02,  3.17066982e-02, -5.52815720e-02,
         7.13099986e-02, -6.07152954e-02,  2.44825445e-02,
        -1.10099196e-01, -2.81736087e-02, -9.31465551e-02,
        -2.90442035e-02,  6.97793365e-02, -6.05878718e-02,
        -3.62429507e-02,  2.34635882e-02,  5.45017906e-02,
        -1.00402266e-01,  1.01080179e-01, -3.96750681e-02,
        -8.11895132e-02,  3.01905841e-01,  3.93812247e-02,
        -2.55128872e-02, -1.05274186e-01,  3.92453335e-02,
         2.72037983e-01, -1.49272829e-01, -1.53088849e-02,
        -1.55379251e-01,  1.51832640e-01, -5.40642552e-02,
        -9.60642993e-02, -1.08017728e-01, -4.65565883e-02,
        -3.01524457e-02,  1.06738634e-01, -1.19430594e-01,
         2.26820916e-01,  8.80128145e-02,  6.04380518e-02,
        -5.27851731e-02, -2.03268044e-02, -4.21036333e-02,
        -1.85541734e-01, -1.26358047e-02, -2.92091258e-02,
        -6.23260140e-02, -3.67829502e-02,  8.74970928e-02,
        -4.76769134e-02,  2.18945712e-01, -1.11799784e-01,
        -3.04983370e-03, -1.62314195e-02,  5.14997505e-02,
        -3.51101123e-02,  2.47943237e-01, -1.67106651e-02,
         9.23687518e-02,  3.83182317e-02,  6.22103512e-02,
         1.31071180e-01, -4.82305810e-02, -1.86504982e-02,
         3.71258706e-02, -1.28307238e-01,  1.23950623e-01],
       [ 6.57947138e-02,  1.24433957e-01,  7.57614672e-02,
        -6.48574159e-02, -2.90484633e-02,  7.66673908e-02,
         3.18590589e-02,  1.62088022e-01, -1.91652775e-02,
        -5.72138205e-02,  6.65897280e-02,  8.30020942e-03,
         1.18510567e-01,  5.67329163e-03,  7.20717385e-02,
        -1.09517187e-01,  9.64596719e-02,  4.75851633e-02,
         7.59637579e-02,  1.36404186e-01,  7.83408135e-02,
         6.76783919e-02, -1.72148403e-02, -7.92255476e-02,
         2.13800534e-03,  1.23266250e-01, -5.56474142e-02,
        -1.64463848e-03, -5.39366007e-02,  6.71420768e-02,
         3.80572001e-03, -9.23928693e-02, -1.90723479e-01,
         7.34112337e-02,  4.91028018e-02,  8.61323699e-02,
         7.64082149e-02, -1.46033853e-01, -2.37028450e-01,
         9.79471952e-02,  5.08207269e-02,  6.15145005e-02,
         1.54749215e-01, -1.43375129e-01,  5.93246520e-02,
        -7.00684562e-02,  3.15311626e-02, -3.20018269e-02,
        -1.80722207e-01,  1.79022904e-02,  8.29677880e-02,
        -8.20753425e-02, -1.66409798e-02,  8.42565000e-02,
        -2.06410110e-01, -3.29042412e-02,  9.75080673e-03,
         3.77289116e-01, -8.54544565e-02, -1.53362274e-01,
         1.28057688e-01,  2.25653294e-02,  2.07275394e-02,
         6.52047023e-02, -5.23509905e-02,  1.55043299e-03,
         2.30937213e-01, -1.14582919e-01,  2.07746923e-01,
        -1.98575571e-01,  4.65359539e-03, -7.87267759e-02,
         1.98336139e-01,  1.12856850e-01, -5.14654182e-02,
         7.21393004e-02, -5.87768666e-02,  1.13099270e-01,
        -1.00104325e-01,  2.16173291e-01,  7.55856112e-02,
         9.49865282e-02,  2.88262367e-02, -1.63613290e-01]], dtype=float32), array([ 0.0108682 ,  0.19440174, -0.0431304 ,  0.03466953,  0.00580547,
        0.01879045, -0.02564037, -0.03427314,  0.03616453, -0.11749625],
      dtype=float32)], 270), ([array([[[[-0.1160374 , -0.07615935, -0.19709411, -0.18441223,
           0.10277338],
         [ 0.07740852,  0.08919676, -0.02912441,  0.11599576,
           0.2357709 ],
         [-0.18373214, -0.14131996, -0.00806838,  0.16916989,
           0.2641038 ],
         [-0.12096692,  0.2382613 ,  0.07165911,  0.16990891,
           0.04617766],
         [ 0.03252538,  0.30767888,  0.34307015,  0.27882445,
           0.25247917]]],


       [[[-0.15104854,  0.19862527,  0.07857893,  0.03677376,
          -0.05122005],
         [-0.14053081,  0.21381296,  0.2703095 ,  0.13867044,
          -0.08186955],
         [-0.0512582 ,  0.2735718 ,  0.10981496, -0.11172249,
          -0.11814371],
         [-0.13278334,  0.1614904 ,  0.18657874,  0.02641002,
           0.08560096],
         [ 0.1375481 ,  0.14168724, -0.0779568 ,  0.04686067,
          -0.28339836]]],


       [[[ 0.20745622, -0.12139398,  0.02164323, -0.17223893,
           0.06051417],
         [-0.00086244,  0.23676184,  0.15329556,  0.02840849,
           0.14146566],
         [-0.17643404, -0.17257752, -0.06883392, -0.06777177,
          -0.06531542],
         [ 0.04736591,  0.09452435,  0.17328162,  0.15518415,
          -0.12089978],
         [-0.0800415 , -0.09883808,  0.07486545, -0.20991662,
          -0.21678802]]],


       [[[ 0.26865447,  0.19229928,  0.11421542,  0.12704863,
          -0.23256287],
         [ 0.09329087,  0.3126205 ,  0.35736936,  0.3158771 ,
          -0.01322511],
         [-0.21217325, -0.08295606,  0.20575614,  0.16896196,
           0.2755906 ],
         [-0.1843327 , -0.3139769 ,  0.09219848, -0.00981368,
          -0.0689534 ],
         [-0.28625426, -0.30088267, -0.12681383, -0.11980104,
           0.13925654]]],


       [[[-0.07559954, -0.16821183, -0.05095138,  0.05234847,
          -0.2659445 ],
         [ 0.22925633,  0.16133909,  0.08597875,  0.1365183 ,
          -0.16463459],
         [-0.11579549,  0.23672983,  0.15568629,  0.17938265,
           0.33371517],
         [ 0.15833193, -0.11292536,  0.23525321,  0.12706847,
           0.22099765],
         [-0.00337275, -0.10358586, -0.09410926, -0.34842852,
          -0.25766432]]],


       [[[ 0.0096686 ,  0.21772476,  0.19458872,  0.1812371 ,
           0.0183821 ],
         [ 0.06989408, -0.0592216 ,  0.18363823, -0.04940304,
           0.05678658],
         [-0.25085813,  0.06472987, -0.02211027,  0.18370713,
           0.20575146],
         [-0.26711053, -0.21100737, -0.00657232,  0.05042394,
          -0.13744958],
         [-0.06310767, -0.10912703, -0.04365834,  0.16460696,
          -0.1024269 ]]]], dtype=float32), array([-0.00103472,  0.00262974,  0.08349858, -0.02173983,  0.18955594,
        0.12548205], dtype=float32), array([[[[-7.54414424e-02, -1.85315549e-01, -1.65898740e-01,
          -1.61752999e-01,  7.14160725e-02],
         [-6.67358041e-02, -7.28279725e-02, -1.11795723e-01,
           5.67519739e-02,  1.62098348e-01],
         [ 1.15909740e-01,  9.66501608e-02,  1.19378679e-01,
           5.50019518e-02,  6.12638053e-03],
         [ 1.73065186e-01,  1.04959287e-01,  4.02827710e-02,
           3.96588668e-02, -5.40455841e-02],
         [-5.89047559e-02, -8.85717496e-02, -1.41214684e-01,
          -8.82263184e-02, -2.24102824e-03]],

        [[ 4.61705700e-02,  2.51132026e-02, -1.16529562e-01,
          -1.01579703e-01, -8.92241299e-02],
         [-7.98380077e-02, -9.78265256e-02, -1.06879048e-01,
           2.30158889e-03,  5.83326677e-03],
         [ 2.50070188e-02, -6.38981396e-03,  1.87239833e-02,
          -2.88602933e-02,  1.55543676e-02],
         [ 5.78727433e-03, -2.48776376e-02,  2.06303652e-02,
           7.40440786e-02,  1.10098012e-01],
         [-5.06699719e-02, -3.60939652e-02, -1.20841600e-02,
           1.22773116e-02,  5.59723713e-02]],

        [[-4.72990498e-02, -5.15988469e-02,  1.62826609e-02,
          -1.74486674e-02, -9.30553302e-02],
         [ 3.16684097e-02, -7.71047324e-02, -8.50449577e-02,
           2.23473161e-02,  2.49286480e-02],
         [-9.31930616e-02,  4.30279933e-02, -3.53535675e-02,
          -7.19210654e-02, -5.25461733e-02],
         [ 2.48652492e-02,  4.32315879e-02,  6.20362684e-02,
           2.16505136e-02,  5.60667068e-02],
         [ 2.28037573e-02,  6.37406036e-02, -5.90516962e-02,
          -4.96904254e-02,  5.90876564e-02]],

        [[-1.19234338e-01,  4.06231135e-02, -1.09151497e-01,
          -1.04175135e-01,  2.04005949e-02],
         [-1.48725566e-02, -1.03166975e-01, -2.54806713e-03,
          -1.31290138e-01,  3.58951204e-02],
         [-1.40564412e-01, -1.64617553e-01, -2.97701452e-02,
          -8.96831229e-02,  1.04306579e-01],
         [-5.09744659e-02, -4.18778248e-02,  1.13137767e-01,
           1.31331980e-01,  1.68215722e-01],
         [ 6.75520999e-03,  1.09830044e-01,  1.65328069e-03,
          -4.76601496e-02,  3.81814726e-02]],

        [[ 7.73738325e-03, -6.22853264e-02, -1.08162329e-01,
          -1.41865671e-01, -1.32031903e-01],
         [-9.39668193e-02, -1.04407094e-01, -8.33189636e-02,
          -1.64046630e-01, -3.58161405e-02],
         [ 1.05571821e-02, -1.86373778e-02,  1.19179310e-02,
          -1.35161811e-02,  6.69552684e-02],
         [ 1.72569752e-01,  1.22491904e-01,  1.12500638e-01,
           1.68985836e-02,  1.12956148e-02],
         [ 4.91918884e-02, -2.37386227e-02, -1.80226900e-02,
          -6.51514903e-02,  6.64211810e-02]],

        [[-9.54467431e-02, -3.53822000e-02, -3.96704003e-02,
          -4.52270843e-02,  5.05298525e-02],
         [ 3.23499478e-02, -5.79221509e-02,  2.88527645e-02,
          -5.49968965e-02,  3.48711833e-02],
         [-5.64200990e-02, -1.24321096e-01,  1.02608344e-02,
           1.28667252e-02, -6.04126379e-02],
         [ 3.10110897e-02, -1.01784244e-01, -6.94688335e-02,
           8.79563913e-02,  8.95223916e-02],
         [ 6.76562125e-03,  4.51944470e-02, -1.09642008e-02,
           3.23583209e-03,  5.20647764e-02]]],


       [[[-1.45078123e-01, -4.18127626e-02,  1.90706700e-02,
          -1.06622819e-02,  2.13790145e-02],
         [-7.16609433e-02,  6.68521896e-02,  7.00503588e-02,
          -2.23440956e-02, -4.46275137e-02],
         [-6.81845993e-02,  1.18197024e-01,  7.52730146e-02,
           3.45017761e-02, -6.33391272e-03],
         [ 5.04069142e-02,  3.04826945e-02, -4.24615741e-02,
          -9.70927030e-02, -9.45384204e-02],
         [-6.48654774e-02, -1.28746167e-01, -1.52118757e-01,
          -4.60134968e-02, -5.62844202e-02]],

        [[-1.02987781e-01, -3.81368548e-02, -4.28007543e-02,
          -4.60437052e-02, -4.28249454e-03],
         [-1.10847354e-01, -3.62160206e-02,  1.46463104e-02,
          -6.39349297e-02,  9.29412618e-02],
         [-8.77733827e-02,  2.29600724e-02, -6.81299483e-04,
           7.96307549e-02,  5.22515662e-02],
         [-1.08204186e-02, -4.26834561e-02, -6.43691123e-02,
          -3.35116051e-02, -2.34817713e-02],
         [-5.84919006e-02, -4.33064997e-02, -3.35576721e-02,
          -3.85128185e-02,  6.16264646e-04]],

        [[-1.04982834e-02,  3.32405716e-02,  3.07323057e-02,
          -4.27398309e-02, -3.43591049e-02],
         [-3.73503678e-02, -9.50339735e-02, -3.17626186e-02,
          -4.24915999e-02,  1.42936995e-02],
         [ 4.07842509e-02, -6.74651861e-02,  7.56234527e-02,
          -6.85297027e-02, -5.10618053e-02],
         [ 5.13807461e-02,  2.67917346e-02, -2.18144003e-02,
           7.01083662e-03,  4.53607701e-02],
         [-9.19164568e-02, -4.08335179e-02, -4.70726490e-02,
          -1.05342008e-02,  6.32082745e-02]],

        [[-2.23988108e-02,  1.43098742e-01,  1.27014175e-01,
           1.12005044e-02, -4.69594523e-02],
         [-3.36420233e-03, -9.74220186e-02, -1.18910182e-04,
          -1.74735282e-02,  4.97406200e-02],
         [-1.20837815e-01, -3.05332653e-02, -1.06194548e-01,
          -7.27104545e-02, -6.70729652e-02],
         [ 5.01908921e-02,  2.27859411e-02, -2.66491044e-02,
          -1.18385917e-02, -2.72050984e-02],
         [ 3.37312743e-02, -1.84456874e-02,  9.12906323e-03,
          -1.84443675e-03, -3.98615859e-02]],

        [[ 6.47240609e-04, -1.95275771e-03,  4.53444757e-02,
          -1.63486730e-02, -5.63637652e-02],
         [-1.38918966e-01, -6.27914742e-02, -2.65166797e-02,
           6.13631913e-03,  7.16838315e-02],
         [ 7.29431435e-02,  6.34129196e-02,  4.58970550e-04,
           7.25004598e-02, -1.74308592e-03],
         [ 1.84302926e-02,  3.60251032e-02, -5.77913364e-03,
           8.17639008e-03,  4.02971618e-02],
         [-4.15456388e-03, -5.05321808e-02, -1.01001352e-01,
          -5.07635064e-02, -1.40073687e-01]],

        [[ 6.79414943e-02,  4.90460321e-02, -6.20833226e-03,
           8.25955495e-02,  3.59011665e-02],
         [ 5.90202548e-02, -2.82886699e-02, -4.58597392e-03,
           5.85728064e-02,  4.10512500e-02],
         [ 2.95137567e-03, -6.14930913e-02, -8.17914829e-02,
          -8.06128457e-02, -1.10202886e-01],
         [-6.47348687e-02,  8.25974420e-02,  6.19693547e-02,
          -1.70003269e-02, -7.76317567e-02],
         [-8.84947479e-02,  8.52881838e-03, -6.76002800e-02,
          -6.85341433e-02, -1.06722284e-02]]],


       [[[-1.68723278e-02, -1.59307510e-01, -4.52811345e-02,
          -2.90039405e-02,  3.37963030e-02],
         [-7.04749525e-02, -4.61579524e-02, -1.94577873e-02,
           6.97571561e-02,  2.40049381e-02],
         [-4.18065637e-02,  1.13483265e-01,  1.13125548e-01,
           7.38565624e-02, -3.74165401e-02],
         [ 7.49328062e-02,  4.94444035e-02,  4.92320955e-02,
          -1.03059828e-01, -4.42195274e-02],
         [ 4.19357270e-02, -7.56123513e-02, -8.75765085e-02,
          -9.95482206e-02, -5.96059598e-02]],

        [[ 3.44383456e-02,  7.16087501e-03, -1.30585298e-01,
          -8.65196995e-03, -6.47416804e-03],
         [-3.51410732e-02, -1.24989405e-01, -1.06885195e-01,
          -1.80440526e-02, -1.89375803e-02],
         [-7.75542185e-02,  6.14323188e-03,  8.57756883e-02,
           9.98758301e-02, -1.67848580e-02],
         [-3.80950607e-02,  1.40848503e-01,  1.11003645e-01,
           5.96340336e-02, -1.23018309e-01],
         [ 6.76404834e-02, -1.26195028e-02, -4.91259620e-02,
          -1.55488672e-02,  9.68995225e-03]],

        [[-4.46009301e-02,  5.50010502e-02, -1.59824025e-02,
           1.34011253e-03,  7.55204931e-02],
         [-8.97268057e-02,  4.20371406e-02,  2.31724163e-03,
           7.17683733e-02, -5.79273328e-02],
         [ 2.52656708e-03, -4.01632600e-02,  4.24793968e-03,
           5.38281538e-02,  4.43142205e-02],
         [ 3.15033197e-02,  3.73056047e-02,  5.63225895e-02,
           2.53569186e-02, -5.61564490e-02],
         [ 3.74548100e-02,  5.10291308e-02,  9.40280221e-03,
          -7.41117522e-02, -1.94803048e-02]],

        [[ 4.37690411e-03, -1.37481708e-02, -7.62055218e-02,
           2.87496187e-02, -3.93808410e-02],
         [-8.64059702e-02, -9.67735276e-02, -8.72030407e-02,
           1.05970409e-02,  5.09820704e-04],
         [-8.67182463e-02, -9.67458263e-02, -1.58073455e-01,
           2.71405056e-02,  6.86616972e-02],
         [-5.77318482e-02, -6.93402393e-03,  3.01706046e-02,
          -5.39577268e-02,  3.63034457e-02],
         [-4.30232435e-02, -3.21596488e-02,  6.71348423e-02,
           3.80880050e-02, -8.34734738e-02]],

        [[ 6.37023598e-02, -1.04633510e-01, -4.83746380e-02,
           4.08406258e-02, -5.03304452e-02],
         [-4.56399731e-02, -7.24385604e-02,  2.28977073e-02,
          -2.27937475e-02,  6.56487271e-02],
         [-1.11042686e-01,  9.09688324e-03,  8.78368542e-02,
           1.19486943e-01,  2.96995714e-02],
         [ 8.39117989e-02,  5.28625064e-02,  2.92334352e-02,
           7.77210714e-03, -6.30461425e-02],
         [-4.86310385e-02, -2.23985799e-02,  1.11277653e-02,
